the -0.008472 0.295620 0.524732 -0.522084 -0.614595 0.481554 0.829667 -0.527673 0.117587 0.281118 -0.074720 -0.412344 0.078968 0.620810 -0.142409 -0.505956 -0.429012 0.478366 0.578380 0.227049 -0.502344 -0.546910 0.397599 1.103811 -0.094072 0.253141 -0.725742 -0.666423 -0.204773 0.128101 -1.085691 -0.349939 -1.119410 -0.181983 0.572089 -0.718457 -0.447835 0.484233 -0.191757 -0.614088 -0.404806 -0.491840 -0.050212 -0.592988 -0.785962 0.209070 -0.066269 -0.218821 0.111322 0.301595
a 0.178224 -0.216494 0.164196 -0.335803 -0.044139 0.842747 0.255253 -0.693915 -0.730721 0.792700 -0.285953 -0.291774 -0.201925 0.625529 -0.102964 0.042492 0.110239 0.361092 0.847933 0.819346 -0.361689 0.307297 -0.049593 -0.424076 -0.392284 0.305938 -0.352645 0.164236 0.493095 -0.220953 -1.210982 0.172455 -0.005078 -0.041744 0.240140 0.257871 -0.534363 0.390808 -0.537447 0.414378 -0.068470 0.080892 0.029075 -0.783729 -1.183893 0.448239 -0.418947 0.264926 0.368542 0.373661
notice 0.330539 -0.138690 0.502898 -0.346508 -0.267602 0.964964 0.151256 -0.677376 -0.296833 0.814586 -0.321486 -0.249240 -0.232616 0.715490 0.052718 0.118104 -0.015985 0.195201 0.775917 0.450716 -0.440191 0.081990 -0.095637 -0.081923 -0.302323 0.318180 -0.286577 0.118802 0.434988 0.030373 -1.014812 0.121589 -0.380913 -0.138004 0.084108 0.241578 -0.518464 0.417301 -0.733332 0.152015 -0.076160 -0.324835 0.295868 -0.641854 -1.192777 0.358485 -0.365473 0.210462 0.114918 0.603461
of -0.157049 0.524967 -0.060697 -0.101074 -0.086905 0.309967 0.608368 0.127748 -0.357390 0.214730 0.310985 0.001200 0.143985 0.668989 0.382164 0.106017 -0.670859 0.335801 0.162554 0.716387 -0.164969 -0.554300 0.994408 0.124142 0.146313 -0.084529 -0.641372 -0.148617 0.409038 0.644002 0.098772 0.172834 -0.083615 -0.405574 0.411218 0.064670 -0.502603 0.497434 -0.551242 -0.592292 0.402056 0.297874 -0.130311 -0.956943 -0.549309 0.380791 -0.570308 -0.146301 -0.126977 -0.182182
to -0.418043 -0.050682 0.068905 0.330015 -0.256163 0.313895 -0.114278 -0.449409 -0.225345 0.485898 -0.101648 0.002686 0.258555 0.384186 -0.589191 -0.216348 -0.085738 0.286515 0.167476 0.396838 0.074910 0.775048 -0.002849 -0.546119 -0.384741 0.335406 -0.484708 -0.625848 0.296383 0.299234 -0.075119 0.067464 0.372548 -0.235135 0.448525 0.580564 -0.454462 1.247810 -0.401251 -0.179694 0.491058 -0.547047 0.408690 -0.612437 -0.260182 0.381454 -0.643559 0.549608 -0.229792 0.001861
system 0.073772 0.250528 0.355400 -0.547446 -0.506676 0.466147 0.822082 -0.492010 -0.033442 0.370946 -0.171067 -0.265440 0.156877 0.384280 -0.152479 -0.543922 0.114818 0.275600 0.553705 -0.026122 -0.373241 0.013716 0.214106 0.627743 -0.134097 0.276743 -0.245924 -0.742631 -0.195310 -0.030908 -1.000019 -0.680202 -0.640941 -0.258355 0.341264 -0.268869 -0.274041 0.510363 -0.161371 -0.205441 -0.452022 -0.480134 0.113755 0.021292 -0.720802 0.218872 0.282886 -0.025018 -0.039485 0.103070
work -0.338660 0.225834 -0.469181 -0.720262 0.289315 0.540456 1.021170 -0.696424 -1.142214 0.393924 -0.026452 -0.044138 -0.226474 0.676578 -0.384358 -0.192024 0.313489 0.122363 0.739595 1.283409 0.056697 0.151745 0.424727 -0.522185 -0.189599 0.272232 -0.209917 -0.137115 -0.147099 -0.265891 -1.151943 0.470297 0.091097 -0.023269 0.563794 0.088013 -0.206976 0.205393 0.033628 0.345071 -0.200057 0.685223 -0.705944 -0.427681 -0.438640 0.704328 0.101942 -0.037428 0.615316 -0.211200
and -0.578332 0.626188 -0.070442 -0.084799 -0.106265 -0.065249 0.446945 0.069582 0.112654 -0.239821 0.058640 0.096134 0.420173 0.459648 -0.155869 -0.207587 -0.655848 0.190238 0.144951 0.204185 0.063118 -0.402897 0.711353 0.306957 0.036949 -0.058004 -0.453534 -0.807899 -0.118880 0.446088 0.518046 -0.088652 -0.137125 -0.250316 0.418678 0.122259 -0.226047 0.883442 -0.151152 -0.716387 0.200927 -0.057982 -0.065016 -0.353177 0.211933 0.062654 -0.337017 0.033557 -0.356232 -0.561322
order -0.216737 0.098856 -0.408608 -0.645360 0.274385 0.489949 0.888074 -0.637452 -1.092073 0.448064 -0.013157 -0.061568 -0.335569 0.569143 -0.268945 -0.071112 0.344559 0.165333 0.665312 1.137926 -0.028945 0.205241 0.286828 -0.540986 -0.212741 0.247650 -0.207951 -0.018152 -0.049302 -0.339232 -1.210220 0.637034 0.059712 0.062801 0.549203 -0.011951 -0.132424 0.051684 -0.030293 0.430216 -0.225608 0.652269 -0.641279 -0.367760 -0.525600 0.599292 0.150384 -0.073042 0.676535 0.029667
is -0.385767 0.658721 -0.035510 -0.176076 0.035665 0.027570 0.620634 -0.524837 -0.448158 0.269793 -0.331174 0.239587 0.281233 0.374029 -0.353277 0.004914 -0.191328 0.293329 0.077789 0.276535 -0.343017 -0.015011 0.409580 -0.344502 -0.350553 0.349407 -0.695987 -0.647997 0.008411 0.043652 -0.250249 0.489265 -0.020109 -0.230838 0.436732 0.349589 -0.128188 0.872769 -0.463314 -0.301282 0.025342 -0.089653 -0.023096 0.062748 -0.261573 0.198127 -0.239942 -0.118876 0.010868 0.077616
in -0.184084 0.723026 0.196888 -0.353101 -0.055883 0.240198 0.738407 -0.489240 -0.034380 0.152848 -0.450031 0.115372 0.281637 0.544276 -0.254007 -0.011482 -0.386747 0.302213 0.228492 -0.192771 -0.617445 -0.257279 0.348202 0.037654 -0.193027 0.157921 -0.667820 -1.094867 0.008092 0.121216 -0.245781 -0.117575 -0.796049 -0.385289 0.450307 0.035141 -0.200716 0.838125 -0.598322 -0.560816 -0.317621 -0.337245 0.152961 -0.035416 -0.298206 0.296554 0.149024 -0.168829 -0.192556 0.168338
supervisor 0.300248 -0.419274 0.252412 -0.457441 -0.433655 0.965152 0.034915 -0.595377 -0.197783 0.691700 -0.043045 -0.150565 -0.315403 0.518236 -0.323436 -0.406010 0.381820 -0.200734 0.902700 0.111562 0.010285 0.451237 -0.381354 -0.067318 -0.093855 0.495647 0.140233 0.124984 0.047387 -0.380109 -1.101314 -0.438738 -0.413930 -0.123689 0.139936 0.015718 -0.362128 0.269568 -0.076819 0.526751 -0.099813 -0.259653 0.254846 -0.452315 -0.737177 0.443012 0.094586 0.310686 0.244788 0.263901
be -0.431543 0.047115 0.495457 0.130833 0.182581 0.586195 -0.007372 -0.823726 0.010005 0.405142 -0.730091 -0.030418 0.187689 0.692324 -0.731372 -0.193394 -0.170314 -0.085822 0.586686 -0.414977 -0.333558 0.685229 -0.322908 -0.472295 -0.361042 0.745458 -0.152181 -0.910103 -0.190548 -0.321846 -0.389134 -0.983630 -0.639836 -0.403967 -0.030075 0.638157 -0.385760 1.064926 -0.269667 -0.166633 -0.274354 -0.588330 0.771064 0.032307 -0.158423 -0.081827 0.132652 0.059974 -0.514735 -0.308326
with 0.063101 0.300382 0.210221 -0.543937 -0.287415 0.398153 0.526308 -0.450649 -0.222798 0.179221 -0.228115 -0.276284 0.041281 0.173516 -0.129218 -0.287477 -0.037236 0.138621 0.501846 0.306340 -0.234657 -0.191601 0.073084 0.348824 -0.113358 0.280671 -0.235296 -0.118061 -0.272414 -0.177110 -0.845745 -0.156264 -0.320974 -0.120910 0.038597 -0.071751 -0.212581 0.235989 -0.124246 -0.036621 -0.361942 -0.206501 -0.137776 -0.058400 -0.507968 0.125125 -0.137736 -0.057996 0.235678 0.034749
displays 0.415239 -0.149176 0.488121 -0.726004 -0.556011 0.732716 0.483221 -0.542494 -0.042952 0.488091 -0.152938 -0.408448 -0.182589 0.305876 -0.070900 -0.434648 0.244388 0.096377 0.871431 0.137239 -0.299026 0.006408 -0.219922 0.701862 -0.076623 0.234726 -0.001704 -0.020106 -0.154572 -0.266291 -1.342692 -0.419055 -0.632278 -0.035582 0.101140 -0.373053 -0.312570 0.009192 -0.063578 0.183294 -0.520089 -0.462750 -0.006985 -0.171156 -0.929535 0.260153 0.158327 0.088039 0.300636 0.354785
worker 0.142710 -0.136589 0.261749 -0.609595 -0.033776 0.805414 0.300248 -0.543607 -0.170154 0.424750 -0.231652 -0.072318 -0.338618 0.537497 -0.218883 -0.310111 0.306624 -0.235509 0.786999 -0.111908 -0.175613 0.121401 -0.223645 0.049131 0.014592 0.471572 0.229182 -0.037715 -0.199143 -0.454115 -0.986482 -0.550908 -0.784999 -0.143355 -0.048638 -0.204441 -0.142875 0.020315 0.080512 0.329167 -0.411396 0.036108 0.145717 0.023263 -0.545247 0.186766 0.535979 -0.196662 0.107688 0.071545
status -0.260005 0.027877 -0.167965 -0.044641 -0.078599 0.222167 0.271093 -0.226679 -0.764690 0.456359 0.072932 -0.073614 -0.121891 0.438920 0.122816 0.198761 0.040927 0.346360 0.124411 1.144190 0.065049 0.266909 0.271596 -0.593578 -0.304149 0.008058 -0.503722 0.142886 0.585196 0.296415 -0.304066 0.702214 0.646443 -0.050003 0.435070 0.326129 -0.271151 0.314950 -0.484738 0.151913 0.421465 0.456893 -0.181970 -0.707297 -0.590174 0.453023 -0.607368 0.213097 0.290397 0.152629
it -0.275910 0.408126 0.135896 0.146640 -0.139642 -0.057166 0.113763 -0.183031 0.213914 -0.039686 -0.198361 0.222488 0.372007 0.273422 -0.310453 -0.057503 -0.464522 0.166539 -0.090532 -0.198403 -0.226044 -0.104882 0.404821 0.026453 -0.091803 0.280074 -0.458092 -0.597965 0.036835 0.176667 0.291214 0.005374 -0.211350 -0.264912 0.335175 0.245728 -0.226650 0.946597 -0.391563 -0.586999 0.212025 -0.421972 0.242519 -0.015684 -0.013047 -0.064674 -0.320594 0.009381 -0.396884 -0.127079
must -0.237127 0.103889 0.468289 -0.214556 0.138491 0.692893 0.164266 -0.780677 -0.073116 0.428155 -0.705860 -0.033292 -0.017439 0.618174 -0.526379 -0.210120 -0.026618 -0.164552 0.727003 -0.427016 -0.487874 0.430242 -0.379374 -0.224628 -0.266240 0.759324 -0.012270 -0.627154 -0.290904 -0.511136 -0.725838 -0.908599 -0.884971 -0.353231 -0.155938 0.363443 -0.245100 0.630696 -0.195800 0.075549 -0.532081 -0.333431 0.590974 0.164316 -0.371063 -0.066567 0.426783 -0.163866 -0.235751 -0.134254
use -0.013427 -0.309911 0.102148 0.370238 0.157816 -0.044416 0.040919 -0.010960 -0.445958 0.312721 -0.102361 -0.412008 -0.070822 -0.122058 0.458490 0.491456 0.201255 0.685186 -0.340177 0.905664 -0.355085 0.127204 0.151373 -0.370027 -0.375744 -0.335674 -0.508740 0.022467 0.533125 0.388769 -0.315875 0.490647 0.378721 0.346844 0.080263 -0.016525 -0.001745 -0.269453 -0.288960 0.206725 0.009803 0.345391 -0.079311 -0.491758 -0.517695 0.148485 -0.293239 0.060391 0.212127 0.583971
are -0.312967 0.810119 -0.038789 -0.208043 0.190709 -0.029670 0.594413 -0.318923 -0.134931 -0.083598 -0.352221 0.310122 0.363925 0.186482 -0.421295 -0.051545 -0.310481 0.185338 0.070983 -0.321666 -0.403439 -0.147185 0.168086 -0.108148 -0.205527 0.064744 -0.485517 -1.003803 -0.178395 -0.038213 0.037657 0.043107 -0.519689 -0.248083 0.347590 0.041323 0.037946 0.572545 -0.312191 -0.412624 -0.383905 -0.209556 0.003265 0.223409 0.289971 0.108351 0.257330 -0.205069 -0.115810 0.027883
case 0.093645 -0.440045 -0.045406 0.236259 0.154800 0.068651 -0.040193 -0.013219 -0.592187 0.341332 -0.039568 -0.340558 -0.221751 -0.093464 0.497495 0.527836 0.362547 0.520165 -0.225445 1.038836 -0.222554 0.211723 0.049204 -0.538216 -0.323105 -0.312160 -0.310830 0.388115 0.640460 0.261392 -0.398841 0.652685 0.578252 0.343076 0.053017 0.050524 0.016556 -0.431669 -0.269775 0.473797 0.112844 0.546059 -0.211141 -0.539648 -0.591299 0.255086 -0.303391 0.124939 0.357479 0.578208
that -0.340042 0.561382 0.144069 0.022035 0.007332 -0.091630 0.315509 -0.197769 0.152961 -0.059589 -0.306904 0.274343 0.395247 0.222999 -0.324800 -0.135565 -0.345636 0.085995 0.004548 -0.341929 -0.298862 -0.078996 0.141693 0.028391 -0.119560 0.158118 -0.445640 -0.861245 -0.161821 0.069910 0.236195 -0.159301 -0.387002 -0.255940 0.271430 0.139562 -0.059081 0.774915 -0.269048 -0.547170 -0.085334 -0.354582 0.290859 0.186851 0.204291 -0.002414 0.072867 -0.155704 -0.315649 -0.155832
as 0.438455 -0.226335 0.213937 -0.301692 -0.355109 0.771888 -0.247454 -0.425063 -0.051771 0.585613 -0.215711 -0.101511 -0.170708 0.194271 -0.081068 -0.130240 0.151130 -0.109452 0.814728 -0.046982 -0.021004 0.194962 -0.402933 -0.109348 -0.149779 0.177076 0.031855 0.306338 0.325686 -0.337838 -0.650143 -0.179193 -0.064587 -0.100241 -0.170937 0.341283 -0.420142 0.310164 -0.238068 0.421932 0.082484 -0.427170 0.263514 -0.583212 -0.788593 0.330428 -0.466985 0.462120 0.145253 0.329938
assign -0.087459 -0.361259 -0.173518 0.094587 0.047670 0.282375 -0.043828 -0.232482 -0.824508 0.548296 0.029130 -0.141898 -0.282443 0.267191 0.167343 0.354442 0.310507 0.292539 0.108636 1.172185 0.103398 0.546339 -0.011533 -0.859592 -0.370844 -0.018204 -0.282341 0.447631 0.740137 0.160055 -0.394767 0.773891 0.850922 0.153391 0.255498 0.409041 -0.180509 0.043765 -0.426844 0.532894 0.423777 0.519431 -0.131819 -0.686490 -0.637683 0.431582 -0.566373 0.361086 0.379736 0.337618
notices -0.164313 0.102189 -0.150916 -0.253682 -0.106984 -0.031712 0.370989 -0.022211 0.076741 -0.109373 0.089048 0.063159 0.134044 0.244226 -0.111519 -0.290710 0.014314 -0.155766 0.131011 0.113138 0.153065 -0.162132 0.225408 0.181295 0.199550 -0.025623 0.084883 -0.301807 -0.122530 0.151841 0.112187 -0.432212 -0.123124 -0.246269 0.144777 -0.097798 -0.213594 0.169457 0.185084 -0.196878 0.126771 0.050538 -0.082651 -0.083248 0.111059 0.350534 0.076601 -0.020152 -0.146727 -0.434273
not -0.296444 0.250347 -0.100584 0.304854 0.160005 -0.269424 -0.331756 0.085394 0.063425 -0.249288 0.049195 0.264524 0.326495 -0.099764 -0.551104 -0.250751 -0.558541 0.060443 -0.123142 -0.528704 -0.295247 0.064950 0.109303 0.032798 0.041861 0.366642 -0.243268 -0.251857 -0.167790 -0.210214 0.397953 -0.206348 -0.325104 -0.186370 0.059787 -0.030616 -0.021782 0.423102 0.034552 -0.284445 0.028465 -0.198388 0.173560 0.074851 0.290176 -0.389478 -0.109555 -0.176745 -0.198836 -0.258392
for -0.147790 0.239397 0.078586 0.006445 -0.177541 -0.096294 0.379325 0.007970 0.129822 0.032715 -0.015821 -0.035113 0.252390 0.108704 0.050168 -0.091779 -0.144305 0.197395 -0.052605 -0.003895 -0.153695 -0.165446 0.302359 0.241810 -0.007257 -0.063116 -0.315515 -0.560634 -0.019132 0.286229 0.064324 -0.243209 -0.119684 -0.160331 0.168035 -0.069607 -0.162379 0.321411 -0.088370 -0.361505 0.023745 -0.144607 0.139587 -0.100569 -0.111955 0.100556 -0.033292 -0.054357 -0.181603 -0.066841
change 0.368155 0.033499 0.223796 -0.258418 -0.304728 0.275304 0.257347 -0.030457 -0.070143 0.176914 0.062116 -0.149987 -0.153578 0.250219 0.422654 0.090673 -0.108474 0.052451 0.168258 0.282453 -0.183026 -0.336805 0.201537 0.333611 0.036663 -0.139791 -0.208847 0.334156 0.264196 0.176613 -0.338508 0.064433 -0.153821 -0.142713 0.049285 -0.159523 -0.143434 -0.126943 -0.321511 -0.038244 0.033318 0.009818 -0.083774 -0.410493 -0.603694 0.197230 -0.165878 -0.040137 0.134596 0.286563
there -0.286971 0.392903 0.176329 -0.306950 0.242112 0.523603 0.436571 -0.708963 -0.413210 0.370338 -0.589119 0.133274 0.039337 0.447678 -0.433993 -0.022061 0.038778 -0.022298 0.543417 0.019152 -0.456206 0.269268 -0.136407 -0.456421 -0.299340 0.520310 -0.202743 -0.547995 -0.198367 -0.361598 -0.626403 -0.173500 -0.494517 -0.221137 0.005006 0.395338 -0.124863 0.524382 -0.302867 0.119180 -0.434545 -0.050847 0.180378 0.150325 -0.245703 0.141385 0.299654 -0.155127 -0.013421 -0.011006
by -0.150276 0.100272 -0.018582 -0.030741 0.183251 0.096014 0.261338 -0.328750 -0.503119 0.336229 -0.193880 0.072629 0.010569 0.260340 -0.014330 0.223458 0.086712 0.248896 0.056315 0.504026 -0.119527 0.165410 0.077589 -0.535574 -0.368931 0.072162 -0.388735 -0.099159 0.300236 0.045785 -0.266691 0.476336 0.313532 0.049834 0.254306 0.290170 -0.060729 0.241247 -0.319480 0.116554 0.061877 0.201964 -0.062117 -0.129730 -0.325632 0.166141 -0.191109 0.041364 0.156421 0.236292
changes -0.197803 0.577113 -0.157101 -0.376804 0.066174 0.092783 0.805799 -0.379900 -0.402015 0.133857 -0.240551 0.085635 0.166600 0.258797 -0.307588 -0.065927 -0.065694 0.353326 0.181944 0.165409 -0.351549 -0.041562 0.266099 -0.149948 -0.229245 -0.011953 -0.538633 -0.831087 0.037360 -0.006064 -0.413790 0.251912 -0.307432 -0.190243 0.593270 -0.081601 -0.086490 0.471649 -0.330523 -0.258616 -0.314626 -0.026745 -0.205536 -0.052784 -0.090554 0.404748 0.175632 -0.092829 0.108287 0.205728
data 0.010039 0.152923 -0.001645 -0.272989 0.142904 0.489960 0.233488 -0.200121 -0.305407 0.318242 -0.126338 0.014976 -0.121922 0.345209 0.072398 0.048949 -0.063244 0.042964 0.404293 0.328537 -0.117431 -0.127823 0.145282 -0.144139 0.063029 0.136874 -0.020333 0.063940 0.121992 -0.022914 -0.354480 0.054646 -0.188848 -0.084533 0.031244 0.174988 -0.254718 0.113457 -0.208243 0.062842 0.004281 0.227541 -0.061722 -0.277083 -0.416759 0.252836 -0.011777 -0.046483 0.080246 0.009386
will -0.328904 0.080117 0.246629 0.273741 0.047402 -0.062781 -0.041568 -0.162266 0.258261 -0.061610 -0.270529 -0.038252 0.268788 0.140259 -0.397249 -0.164565 -0.281338 0.101496 -0.001588 -0.341686 -0.076179 0.243183 0.011228 0.004218 -0.084592 0.248514 -0.185057 -0.669785 -0.120421 0.036665 0.164671 -0.584523 -0.264078 -0.194395 0.067589 0.157221 -0.190456 0.595251 -0.015097 -0.391351 -0.005041 -0.442100 0.408312 0.116309 0.192855 -0.184808 -0.023352 0.017118 -0.464612 -0.288544
history 0.047680 0.162092 0.045260 -0.564422 -0.041827 0.474926 0.651711 -0.442813 -0.383800 0.328055 -0.084718 -0.088949 -0.161424 0.482141 -0.105548 -0.113830 0.069423 0.129874 0.494349 0.351644 -0.275465 -0.091670 0.206433 0.030284 -0.099209 0.159741 -0.270244 -0.251140 -0.002907 -0.132056 -0.851654 0.088092 -0.498692 -0.092916 0.355452 -0.247057 -0.147976 0.147458 -0.216236 0.050961 -0.294255 0.104687 -0.170798 -0.216282 -0.518880 0.377613 0.194411 -0.149769 0.245938 0.209605
brigade -0.243002 0.237577 -0.313056 -0.237899 0.016009 0.215073 0.481852 -0.349380 -0.620540 0.225243 -0.008794 -0.025940 0.024331 0.281581 -0.196035 -0.040695 0.014348 0.191066 0.236523 0.777123 0.043446 0.091914 0.343546 -0.392201 -0.187903 0.161968 -0.387382 -0.103666 0.117305 0.015418 -0.454749 0.467400 0.278097 -0.101584 0.404131 0.188400 -0.199217 0.404989 -0.164930 0.047609 0.160116 0.282075 -0.343955 -0.428942 -0.246657 0.405003 -0.311524 0.082315 0.261885 -0.043295
an 0.184125 -0.041836 0.272767 -0.034669 -0.078116 -0.227544 0.058083 0.058410 0.340901 -0.175138 0.088042 -0.116879 -0.069162 0.042929 0.122519 -0.017579 -0.152367 -0.015226 -0.029421 -0.239656 -0.019473 -0.387578 -0.092576 0.647990 0.013949 -0.184842 0.053648 0.123005 -0.227306 -0.052125 -0.063106 0.098399 -0.259316 0.186336 -0.006474 -0.368009 0.134900 -0.306601 0.088391 -0.236451 -0.295363 -0.202943 -0.050994 0.293251 0.061849 -0.321303 0.090346 -0.182452 0.077264 0.177862
information -0.070334 0.232797 0.101773 -0.047074 -0.187799 0.020993 0.177080 0.025849 0.217449 0.004670 -0.012914 0.059738 0.179824 0.139953 -0.031025 -0.150781 -0.182423 0.073905 0.011728 -0.242879 -0.046734 -0.138827 0.214278 0.310329 0.072573 0.077993 -0.166613 -0.400680 -0.097572 0.211612 0.100704 -0.286757 -0.193868 -0.185611 0.128688 -0.024922 -0.147220 0.393037 -0.117780 -0.383830 0.058971 -0.275593 0.144446 -0.003325 -0.040500 0.051965 -0.069141 -0.008521 -0.239547 -0.103363
or -0.056799 0.080457 0.100250 0.035712 -0.090641 0.247807 0.014016 -0.160840 0.028997 0.125793 0.013035 0.016470 0.119220 0.286997 -0.154853 -0.103292 -0.296707 0.022963 0.176805 0.019859 -0.080560 -0.058558 0.180088 0.025851 0.001344 0.264032 -0.183264 -0.184557 0.057212 0.112411 -0.040507 -0.134718 -0.201902 -0.188154 0.154244 0.105956 -0.312075 0.458383 -0.212462 -0.285081 0.134193 -0.184038 0.180849 -0.278702 -0.177600 0.020469 -0.205362 0.045820 -0.170140 -0.112302
included -0.093933 -0.072596 -0.104345 0.040535 0.270347 0.022824 0.218616 -0.228826 -0.685158 0.376142 -0.160997 -0.060187 -0.109010 0.117670 0.187469 0.401397 0.267842 0.382258 -0.090591 0.816567 -0.138125 0.226381 0.080771 -0.689500 -0.411926 -0.085313 -0.385196 0.134546 0.463116 0.109827 -0.331818 0.740848 0.548899 0.203623 0.206228 0.253845 0.029991 -0.069246 -0.307292 0.321636 0.073686 0.444452 -0.173403 -0.214423 -0.422913 0.233354 -0.238299 0.044994 0.311166 0.416982
linked 0.123235 -0.013076 0.384726 -0.352188 -0.447922 0.610017 0.104251 -0.409492 0.118430 0.413445 -0.216171 -0.099536 -0.011208 0.197673 -0.228908 -0.282033 0.114814 -0.032226 0.550684 -0.165289 -0.194501 0.235865 -0.298937 0.240013 -0.072278 0.315509 -0.000000 -0.239872 -0.079432 -0.063806 -0.619188 -0.351018 -0.465478 -0.175526 0.018251 0.057446 -0.247449 0.354148 -0.167437 0.082226 -0.178309 -0.557829 0.284034 -0.129745 -0.440132 0.233992 0.046188 0.208301 -0.035203 0.264965
sap 0.240359 0.159777 -0.144423 0.024201 -0.380409 -0.295077 0.200975 0.445779 0.180346 -0.171404 0.312996 0.000033 0.116938 -0.499699 0.407507 -0.314517 0.451282 -0.077702 -0.560388 -0.406440 0.278473 0.105540 0.213293 0.229843 0.153886 -0.220331 0.380600 -0.101813 -0.140131 0.313002 0.293814 -0.359927 0.286828 -0.105942 -0.182987 -0.124982 0.438666 -0.280464 0.124580 0.107348 0.010217 -0.055701 0.049219 0.582961 0.214244 -0.100542 0.342884 -0.026109 -0.182583 -0.095821
message 0.331121 -0.104651 0.313348 -0.430365 -0.292937 0.394709 0.170203 -0.294984 -0.010317 0.208425 -0.146378 -0.312775 -0.088910 0.021211 0.018656 -0.224767 0.166463 0.065483 0.503486 0.068526 -0.206586 -0.056706 -0.256695 0.417946 -0.050390 0.137184 0.078941 0.211875 -0.146849 -0.288336 -0.824694 -0.250283 -0.293430 0.037204 -0.125884 -0.208006 -0.174422 -0.154169 0.004141 0.198223 -0.388253 -0.278073 -0.041151 -0.011589 -0.557080 0.014846 0.021536 0.045169 0.262902 0.188453
can -0.135042 0.002407 0.142421 0.036662 -0.012969 0.170067 0.003291 -0.272997 0.099860 0.063673 -0.199869 0.006167 0.142110 0.257966 -0.316017 -0.123387 -0.119887 -0.079350 0.216296 -0.196050 0.024708 0.199905 -0.054624 -0.050788 -0.110434 0.223546 -0.048847 -0.395357 -0.061992 -0.034444 -0.023333 -0.370501 -0.242496 -0.125112 0.102428 0.176935 -0.162275 0.472167 -0.085387 -0.189109 -0.058138 -0.315027 0.240020 0.012957 0.090087 -0.031759 0.021046 0.067064 -0.262672 -0.202368
from -0.128763 0.049310 0.100512 0.009850 -0.109032 0.030597 0.088338 -0.094091 0.164057 -0.052947 0.001230 -0.018867 0.160308 0.174569 -0.149206 -0.197257 -0.182633 0.011409 0.103694 -0.107434 0.024172 -0.058070 0.076875 0.194305 0.019609 0.109513 -0.082828 -0.344238 -0.069172 0.109643 0.063934 -0.333322 -0.203562 -0.150826 0.148238 -0.042007 -0.171697 0.339101 -0.004040 -0.293213 0.040687 -0.227394 0.133631 -0.097087 0.038322 0.023243 -0.010962 0.041124 -0.180087 -0.214745
have -0.266689 0.165590 0.118710 0.221407 0.063276 -0.150064 -0.134385 -0.041437 0.192590 -0.145406 -0.148906 0.084663 0.251877 0.003921 -0.404557 -0.212790 -0.355244 0.055741 -0.039442 -0.431693 -0.190608 0.103282 -0.042796 0.105518 -0.041281 0.266065 -0.202369 -0.451518 -0.174357 -0.075127 0.212242 -0.335776 -0.293358 -0.166041 0.054099 0.022094 -0.080598 0.458612 0.012522 -0.316498 -0.035699 -0.339032 0.300327 0.122570 0.217685 -0.264401 -0.013579 -0.109069 -0.282362 -0.206877
may 0.365778 -0.363484 0.143001 -0.310852 -0.118040 0.619028 0.001112 -0.292986 -0.282285 0.447256 -0.050743 -0.128206 -0.356651 0.283779 0.057748 -0.018216 0.377065 -0.138066 0.510425 0.259980 -0.030663 0.193105 -0.242069 -0.178278 -0.035978 0.148471 0.212621 0.435861 0.148399 -0.280800 -0.746666 -0.066911 -0.099524 0.029040 -0.093321 0.020317 -0.137783 -0.183188 -0.077476 0.555023 -0.074259 0.124536 0.023467 -0.258416 -0.569478 0.301857 0.100555 0.141242 0.262083 0.257244
on -0.028631 0.217511 0.095680 -0.065785 -0.055531 -0.003692 0.148452 -0.068899 0.137256 -0.045494 -0.082999 -0.005642 0.172992 0.210893 -0.075890 -0.061474 -0.351352 0.075415 0.081498 -0.152331 -0.118317 -0.209546 0.138613 0.220862 -0.020816 0.042071 -0.228829 -0.293212 0.010054 0.116369 0.042754 -0.128639 -0.313226 -0.135969 0.146331 -0.091518 -0.139556 0.288127 -0.172614 -0.339168 -0.091243 -0.144776 0.080294 -0.078672 -0.001733 -0.067959 -0.076957 -0.096537 -0.139828 -0.087881
duplicate 0.424275 -0.316214 0.187454 -0.374028 -0.398889 0.785571 -0.108961 -0.400249 -0.140444 0.587480 -0.101260 -0.193985 -0.241543 0.213629 -0.058634 -0.203890 0.269673 -0.104114 0.773336 0.121694 0.013226 0.232684 -0.384648 -0.031670 -0.071460 0.202559 0.119205 0.347839 0.244473 -0.282931 -0.833522 -0.199898 -0.104041 -0.067662 -0.069163 0.154649 -0.354239 0.123351 -0.144825 0.485836 0.015433 -0.282587 0.151928 -0.540157 -0.749699 0.387412 -0.273952 0.401735 0.243079 0.342221
emasa -0.105355 0.223641 -0.082434 0.078950 0.033479 -0.242169 0.043063 0.252224 0.166521 -0.261850 0.137460 0.143542 0.131443 -0.029591 0.112221 0.100860 -0.223540 -0.022992 -0.203620 -0.079682 0.095546 -0.296239 0.238916 0.154041 0.063601 -0.172735 -0.068934 -0.063269 -0.004732 0.171837 0.495142 0.054875 0.067469 -0.027188 0.069852 -0.005056 0.072563 0.006420 0.029840 -0.302718 0.110218 0.135510 -0.115817 0.019640 0.332514 -0.073801 -0.057873 -0.041466 -0.110024 -0.157807
orders -0.159642 0.185058 -0.399490 -0.402556 0.162181 0.106020 0.483816 -0.180855 -0.563452 -0.044571 0.063668 -0.005591 -0.086886 0.120313 -0.158645 -0.141191 0.184596 -0.112602 0.206824 0.653203 0.254506 -0.027944 0.274165 -0.196523 0.063012 0.066515 0.066403 0.128252 -0.211144 -0.083431 -0.315683 0.180970 0.248877 -0.018563 0.120741 0.029340 0.016540 -0.125579 0.225023 0.194283 -0.040622 0.488487 -0.516800 -0.066143 0.093040 0.341549 0.038150 -0.054393 0.299644 -0.340116
requirements -0.163764 0.163155 -0.084982 0.209612 0.127393 -0.404917 -0.284225 0.270353 0.165678 -0.326075 0.159941 0.138769 0.174287 -0.251766 -0.179149 -0.123535 -0.357252 0.034321 -0.188314 -0.461145 -0.112724 -0.119941 0.070902 0.256943 0.102791 0.042448 -0.005196 -0.019532 -0.229945 -0.164269 0.402832 -0.179104 -0.242593 0.018422 -0.125201 -0.202014 0.170027 -0.067847 0.238057 -0.171753 -0.086367 -0.023598 -0.030865 0.178545 0.320871 -0.455019 0.037062 -0.187120 -0.056049 -0.157563
associated -0.116656 0.246255 -0.279292 -0.486863 0.083356 0.228838 0.531770 -0.333667 -0.584899 0.048141 -0.063689 -0.078289 -0.091934 0.091058 -0.185175 -0.137462 0.170372 -0.030370 0.295619 0.630169 0.089177 -0.023090 0.204128 -0.165515 -0.028510 0.210567 -0.059912 0.116383 -0.251412 -0.190164 -0.594678 0.236864 0.129506 -0.027320 0.088948 0.048579 -0.007582 -0.020209 0.117026 0.208451 -0.149853 0.330512 -0.462377 -0.037293 -0.105087 0.298267 -0.026040 -0.080661 0.354802 -0.165022
cu 0.191119 -0.302827 0.138984 0.207061 0.136728 -0.249608 -0.244834 0.188564 0.173005 -0.130800 0.147468 -0.294562 -0.220603 -0.386182 0.276251 0.167726 0.112194 0.111458 -0.266073 -0.032298 0.031067 -0.142058 -0.222495 0.272891 -0.048167 -0.264343 0.224068 0.363294 -0.243412 -0.051339 -0.094263 0.216327 -0.028662 0.428748 -0.285053 -0.353414 0.313066 -0.727600 0.278224 0.143157 -0.307998 0.049034 -0.153891 0.216636 0.199487 -0.351221 0.173916 -0.126942 0.269230 0.301119
error 0.297427 -0.136227 0.282657 0.095635 -0.085678 -0.421819 -0.172339 0.251775 0.559333 -0.381793 0.097885 -0.131856 -0.066129 -0.246282 0.201348 0.010678 -0.096172 -0.098205 -0.227582 -0.481463 0.028247 -0.389722 -0.246603 0.743984 0.093425 -0.254547 0.253045 0.276732 -0.287539 -0.098686 0.168050 -0.005690 -0.207640 0.253446 -0.209820 -0.443580 0.247133 -0.557340 0.232398 -0.200479 -0.319798 -0.267118 -0.041183 0.506372 0.255474 -0.513283 0.166794 -0.175807 0.041191 0.139320
manage 0.086680 -0.160604 0.194793 -0.184533 -0.429257 0.487475 -0.016529 -0.319777 0.029343 0.392540 -0.030521 -0.104313 -0.016759 0.160253 -0.283739 -0.317678 0.183310 -0.050101 0.417029 0.026976 0.036250 0.391872 -0.285059 0.054186 -0.054308 0.236415 0.019198 -0.156869 0.013339 0.026942 -0.463315 -0.249918 -0.145284 -0.153054 0.132849 0.109652 -0.261828 0.394007 -0.072888 0.127210 0.060218 -0.483682 0.222020 -0.315108 -0.312216 0.362417 -0.121480 0.365511 0.014909 0.189413
management -0.012557 0.273146 -0.025205 0.043417 -0.255708 -0.135145 0.240414 0.311739 0.203689 -0.132360 0.178456 0.044110 0.174446 -0.071217 0.246729 -0.173257 -0.058220 0.048278 -0.261402 -0.189769 0.040179 -0.200307 0.350027 0.317099 0.167850 -0.120726 -0.004005 -0.252785 -0.051551 0.338663 0.308090 -0.264150 -0.019809 -0.181936 0.001051 -0.107807 0.080456 0.071063 -0.013106 -0.259258 0.095895 -0.043411 0.067648 0.093850 0.079045 -0.020875 0.031042 -0.114840 -0.225181 -0.167330
customer 0.078769 0.107618 0.027609 -0.063072 -0.182684 0.098286 0.153585 0.020369 0.035104 0.014132 -0.012298 -0.013211 0.055828 0.063825 0.198500 0.044965 -0.097297 0.080090 -0.031690 0.114523 -0.145272 -0.196967 0.253652 0.231204 0.108295 -0.011257 -0.154984 -0.012079 0.152735 0.178421 -0.095314 0.011720 -0.110217 -0.116336 0.101884 -0.067994 -0.112798 0.062148 -0.166936 -0.129868 0.067629 0.021951 -0.064319 -0.134439 -0.205238 0.077169 -0.073363 -0.056260 -0.071675 0.123089
identified -0.173123 0.066763 0.423443 -0.122363 0.050927 0.457604 0.126023 -0.592120 0.112911 0.270102 -0.537363 -0.052092 0.011003 0.454801 -0.433338 -0.208854 -0.027266 -0.142857 0.463601 -0.496041 -0.347082 0.280726 -0.298972 -0.027137 -0.175082 0.546742 -0.002410 -0.596731 -0.306635 -0.358618 -0.487337 -0.802775 -0.773360 -0.269674 -0.120805 0.200263 -0.149423 0.498184 -0.097574 -0.048518 -0.447226 -0.391229 0.477995 0.217336 -0.164203 -0.099655 0.382746 -0.127406 -0.247577 -0.095695
if -0.048873 0.208057 0.113347 0.008803 -0.154878 0.005339 0.073254 -0.113463 0.221774 -0.054230 -0.076004 0.076087 0.189599 0.117931 -0.123534 -0.045775 -0.257844 0.029450 -0.010222 -0.160524 -0.107915 -0.186139 0.218853 0.222504 0.003440 0.173627 -0.180874 -0.226951 -0.013903 0.067263 0.087960 -0.047049 -0.232876 -0.126423 0.159346 0.009565 -0.148199 0.397706 -0.168988 -0.339520 0.056526 -0.257778 0.074056 0.057110 -0.016790 -0.099016 -0.125919 -0.017733 -0.202542 -0.031263
modify 0.204556 -0.183451 -0.112983 -0.233997 0.212783 0.519216 -0.016769 -0.083183 -0.419666 0.389461 0.030699 -0.023633 -0.327003 0.248162 0.196591 0.149775 0.174530 -0.066757 0.407203 0.502453 0.080787 0.004849 0.002894 -0.357638 0.127556 0.027125 0.275306 0.556805 0.265935 -0.056440 -0.348903 0.255719 0.175125 0.048849 -0.123144 0.212929 -0.219165 -0.241968 -0.113387 0.388312 0.152859 0.396272 -0.131763 -0.329108 -0.471887 0.292725 -0.087677 0.090498 0.220649 0.035106
you -0.236718 0.055549 0.126291 0.229438 0.005889 -0.056319 -0.176210 -0.097480 0.272411 -0.114386 -0.173210 0.061249 0.258497 0.070623 -0.383770 -0.099528 -0.254676 -0.081589 0.005019 -0.404423 0.098017 0.208332 -0.057451 -0.011386 -0.056383 0.133781 -0.052577 -0.500701 -0.078857 0.036624 0.376787 -0.375230 -0.162847 -0.111215 0.059607 0.194242 -0.098406 0.545187 -0.024596 -0.313837 0.031253 -0.414860 0.307667 0.133257 0.393116 -0.179613 -0.044892 0.099771 -0.439585 -0.297250
selects 0.298084 -0.225657 0.276747 -0.595922 -0.278407 0.767369 0.239867 -0.486194 -0.157566 0.479512 -0.102833 -0.172028 -0.319420 0.415167 -0.121742 -0.288341 0.293306 -0.115319 0.760164 0.057813 -0.147321 0.116284 -0.218361 0.202844 -0.031045 0.340940 0.113869 0.109445 -0.042993 -0.342969 -1.062684 -0.345041 -0.577685 -0.048449 0.050532 -0.239333 -0.210533 -0.010469 -0.023698 0.350081 -0.312403 -0.103417 0.057984 -0.193730 -0.687953 0.257410 0.258357 0.001097 0.218504 0.271189
application -0.150950 -0.028692 0.118281 0.110006 -0.011754 -0.022267 -0.184179 0.020644 0.279718 -0.128603 -0.161931 0.002230 0.111597 0.118911 -0.082217 -0.003610 -0.168721 -0.041811 0.030633 -0.273204 -0.054071 0.073961 -0.094975 0.070030 -0.024809 0.084591 0.027471 -0.225658 -0.087724 -0.018545 0.178829 -0.265529 -0.159631 -0.054819 -0.009460 0.115090 0.013082 0.193048 0.026940 -0.159651 -0.046615 -0.181818 0.206173 0.028638 0.183661 -0.211797 0.001767 0.017025 -0.219345 -0.160557
recorded -0.130987 0.608526 -0.007267 -0.220919 0.090449 -0.089232 0.509446 -0.213216 0.033410 -0.120749 -0.270250 0.204274 0.228517 0.118283 -0.257002 0.001662 -0.202735 0.153608 -0.037094 -0.389987 -0.372693 -0.187892 0.133066 0.015632 -0.114978 -0.044182 -0.354533 -0.852157 -0.124478 0.005575 0.034502 0.031937 -0.545053 -0.189073 0.312905 -0.119241 0.073449 0.354880 -0.277006 -0.377562 -0.372381 -0.227733 0.003782 0.264517 0.228723 0.132643 0.319842 -0.186673 -0.107616 0.156744
related 0.103128 -0.139620 0.109635 0.008453 -0.121790 0.382622 -0.300860 -0.287240 0.011227 0.309156 -0.183851 0.048093 -0.018238 0.109813 -0.238547 -0.091227 0.077902 -0.119145 0.389664 -0.150157 0.038706 0.347239 -0.330515 -0.271376 -0.147596 0.160413 0.026770 0.000096 0.160263 -0.196592 -0.148179 -0.166384 0.046278 -0.132758 -0.107815 0.365913 -0.233240 0.412849 -0.125610 0.200570 0.132605 -0.358563 0.314450 -0.282754 -0.275008 0.161801 -0.280199 0.330031 -0.055538 0.096640
create 0.025115 -0.283157 -0.290713 -0.114618 0.204362 0.166013 0.066534 -0.171797 -0.516430 0.219260 0.049197 -0.019192 -0.233946 0.107281 -0.011897 0.104556 0.366198 0.005516 0.238770 0.589390 0.140397 0.244509 -0.093409 -0.500617 -0.108356 -0.000483 0.139859 0.347691 0.159247 -0.150360 -0.416993 0.348704 0.373949 0.142905 0.085116 0.117953 -0.035940 -0.197559 0.064253 0.469742 0.046297 0.411763 -0.258539 -0.222079 -0.237234 0.281886 0.007934 0.117894 0.375409 0.043256
decides 0.162242 -0.295722 0.202388 -0.107326 -0.414204 0.542284 -0.216086 -0.275322 0.082954 0.413659 -0.009658 -0.086687 -0.079354 0.126933 -0.249028 -0.301322 0.233600 -0.159457 0.428666 -0.109925 0.093975 0.458007 -0.406131 -0.041037 -0.032035 0.275662 0.136821 -0.003729 0.041096 -0.082556 -0.418303 -0.340687 -0.125136 -0.129248 0.045495 0.148737 -0.235408 0.319425 -0.032429 0.259840 0.094489 -0.468039 0.319524 -0.301706 -0.293866 0.281344 -0.081535 0.386721 0.006582 0.197606
when 0.419945 -0.267650 0.319889 0.069721 -0.112355 -0.263520 -0.152781 0.098596 0.467009 -0.254156 0.020783 -0.111543 -0.236312 0.020861 0.204358 0.080005 -0.061378 -0.206168 -0.082521 -0.361108 -0.021864 -0.358466 -0.299792 0.687638 0.040347 -0.204652 0.243646 0.494198 -0.063185 -0.155921 0.020657 0.109146 -0.198327 0.190319 -0.138994 -0.376118 0.159878 -0.565296 0.060715 -0.114803 -0.274678 -0.237786 -0.021960 0.327941 -0.012164 -0.392899 0.099999 -0.122758 0.066368 0.257964
client 0.024447 0.169058 0.126192 -0.234943 -0.139505 0.136492 0.223603 -0.162074 0.005129 0.051794 -0.075071 -0.026726 0.033829 0.144437 -0.058714 -0.144763 -0.120009 0.035938 0.164086 -0.074889 -0.180654 -0.189426 0.087426 0.236645 0.028204 0.152802 -0.164115 -0.119633 -0.083836 -0.036630 -0.239234 -0.096425 -0.318004 -0.127575 0.106968 -0.121513 -0.076900 0.160153 -0.105305 -0.141863 -0.088429 -0.121875 0.022517 -0.030121 -0.195000 0.075098 0.018797 -0.101806 0.023560 0.009150
elements 0.163377 -0.238779 -0.138381 0.063686 0.090833 0.093899 -0.178224 0.139370 -0.082191 0.145235 0.179591 -0.052820 -0.154032 0.020574 0.157633 0.206505 0.012527 0.006200 -0.013502 0.219240 0.112516 -0.033026 0.006076 -0.169671 0.185890 -0.080999 0.254543 0.475520 0.201574 0.163003 0.047146 0.286947 0.310743 0.050037 -0.125240 0.063049 -0.147899 -0.257085 -0.046773 0.098441 0.290626 0.094869 -0.071700 -0.247232 -0.198731 0.108433 -0.224474 0.147810 0.055051 0.012552
performs 0.303131 -0.432014 -0.076566 -0.179264 0.071669 0.278201 -0.213946 -0.032922 -0.158755 0.185907 0.109329 -0.007280 -0.381076 -0.047616 0.051268 -0.006107 0.488594 -0.272411 0.257310 -0.016645 0.198070 0.258568 -0.386300 -0.229233 0.049434 0.051810 0.485230 0.555127 0.016353 -0.357010 -0.346824 -0.005193 0.067803 0.178545 -0.198502 -0.094752 0.143423 -0.505939 0.240411 0.628462 -0.123528 0.267066 -0.034519 0.132603 -0.108087 0.038097 0.326035 0.061895 0.280391 0.133287
saves -0.007214 0.126751 0.109657 -0.259120 -0.085006 0.140451 0.385796 -0.258788 -0.072938 0.156464 -0.152403 -0.099555 0.042071 0.111964 -0.102150 -0.162848 0.095506 0.169701 0.215742 -0.007118 -0.208481 0.017507 0.021750 0.185889 -0.127468 0.085571 -0.148062 -0.374184 -0.073584 -0.085901 -0.461710 -0.209359 -0.260096 -0.046878 0.194422 -0.143386 -0.058028 0.134744 -0.027744 -0.043590 -0.287472 -0.124615 -0.014587 0.083131 -0.246931 0.115913 0.224461 -0.045580 0.052492 0.123491
subordinate -0.110843 -0.051276 -0.385850 -0.316409 0.201312 0.202793 0.403703 -0.276509 -0.644717 0.191052 0.060325 0.030087 -0.208146 0.220226 -0.185786 -0.061494 0.280311 0.025939 0.356697 0.650370 0.091834 0.142291 0.114667 -0.380303 -0.045062 0.115846 0.034199 0.139060 -0.049028 -0.238806 -0.616797 0.366909 0.163298 0.062746 0.266556 0.019871 -0.055216 -0.072220 0.134624 0.353418 -0.056419 0.461778 -0.442200 -0.214496 -0.210201 0.361578 0.102787 -0.005708 0.441758 -0.092769
through 0.097563 -0.263569 0.069051 0.483878 0.183863 -0.381424 -0.437527 0.341084 0.171166 -0.175555 0.097873 -0.252788 -0.075481 -0.641838 0.311595 0.284418 0.077044 0.257054 -0.571908 -0.013612 -0.038094 -0.026788 -0.145032 0.058783 -0.068979 -0.309263 0.066833 0.195240 -0.047223 0.161106 0.254380 0.211647 0.173067 0.433702 -0.327040 -0.263051 0.340321 -0.625412 0.187021 0.120613 -0.102363 0.068249 -0.037985 0.087163 0.310730 -0.333477 0.047263 -0.020717 0.134683 0.291586
any -0.070106 0.183489 -0.006568 0.001590 -0.019716 -0.048765 0.054575 0.062664 0.046096 -0.077417 0.048292 0.082045 0.140479 0.015976 -0.071868 -0.099337 -0.229748 -0.013322 -0.016088 -0.170811 -0.117319 -0.136342 0.152039 0.149877 0.093149 0.123953 -0.097673 -0.123339 -0.089215 -0.005754 0.129579 -0.222366 -0.218501 -0.164574 -0.013102 -0.053897 -0.056245 0.133315 -0.005343 -0.186460 -0.010699 -0.058484 0.054094 -0.000555 0.052186 -0.070480 0.008954 -0.162498 -0.103231 -0.180062
gis 0.194778 -0.293619 -0.147905 0.054058 0.099326 0.067578 -0.232950 0.174992 -0.041303 0.112306 0.179599 -0.053997 -0.178851 -0.051191 0.182746 0.211225 0.084633 -0.031973 -0.033749 0.167048 0.135431 -0.032863 -0.056221 -0.147393 0.212287 -0.097517 0.353409 0.548369 0.166032 0.129650 0.056852 0.281488 0.342881 0.095906 -0.184306 0.045248 -0.108993 -0.345312 0.010561 0.147689 0.272483 0.101989 -0.076454 -0.149528 -0.172757 0.072284 -0.176234 0.149859 0.062356 0.015418
has 0.019970 0.027380 -0.061086 0.077905 0.014062 -0.142075 -0.084913 0.147414 0.092701 -0.128033 0.023259 0.093975 0.043021 -0.102875 0.094980 0.119638 -0.038272 0.009686 -0.222995 -0.023358 -0.072403 -0.111821 0.123727 0.069625 0.113862 -0.049569 -0.013501 0.085212 0.039617 0.044634 0.123436 0.141757 0.000920 0.019557 0.033849 -0.049458 0.077914 -0.062625 -0.038277 -0.079358 0.045768 0.060897 -0.064316 0.095129 0.090470 -0.080405 0.011363 -0.079896 -0.020442 0.063791
network -0.142055 0.038423 0.007424 0.082386 -0.008621 -0.212381 -0.051394 0.161321 0.160953 -0.227341 0.032140 0.018584 0.062503 -0.039160 0.005102 -0.019360 -0.192885 0.042810 -0.132827 -0.106007 0.010860 -0.128544 0.122661 0.120248 0.083704 -0.106545 -0.071891 -0.079097 -0.032031 0.105435 0.376152 0.090487 -0.004992 0.028732 0.003247 -0.068242 0.022598 0.064953 0.010124 -0.175193 0.057514 -0.048835 -0.018689 -0.013155 0.186352 -0.101072 -0.035861 -0.008529 -0.159213 -0.132466
notified -0.080899 0.263095 -0.073021 -0.026158 -0.031787 -0.193758 0.143785 -0.017028 0.021166 -0.111085 -0.096253 0.068743 0.125276 -0.109595 -0.013542 0.027761 -0.085950 0.029494 -0.169055 -0.061861 -0.079398 -0.168180 0.143805 0.054996 0.004609 0.033417 -0.167229 -0.150614 -0.071875 0.056619 0.106988 0.162692 -0.014782 -0.064420 0.034326 0.004410 0.047461 0.097997 -0.029650 -0.172229 0.006712 -0.013451 -0.091688 0.190352 0.123970 -0.024163 -0.031359 -0.119631 -0.028312 0.000834
step 0.058549 -0.375395 0.029775 0.574700 0.198963 -0.386628 -0.473325 0.346308 0.049079 -0.102784 0.088876 -0.259464 -0.069869 -0.640713 0.346846 0.369262 0.205191 0.325330 -0.650419 0.201196 -0.067657 0.114777 -0.138509 -0.146358 -0.122767 -0.344518 0.005205 0.240138 0.117316 0.215212 0.251728 0.315751 0.371991 0.474914 -0.290256 -0.156147 0.309587 -0.610376 0.137617 0.224616 0.007694 0.165874 -0.041006 -0.000088 0.197223 -0.253703 -0.046191 0.050875 0.124652 0.352410
water -0.039360 -0.003532 -0.067034 0.137375 0.056646 -0.266779 -0.188261 0.335553 0.215176 -0.299645 0.212427 0.032836 0.020962 -0.188047 0.164049 0.064412 -0.165180 -0.052484 -0.246805 -0.110036 0.146520 -0.206668 0.088831 0.157994 0.126538 -0.209657 0.049006 0.114800 -0.058965 0.149104 0.497143 0.027755 0.102572 0.056894 -0.074402 -0.093845 0.072645 -0.199645 0.144471 -0.163868 0.100961 0.109331 -0.085238 0.022018 0.335211 -0.148530 -0.011648 -0.032909 -0.056784 -0.131230
ends 0.173235 -0.306959 0.088104 0.206750 0.131066 -0.279006 -0.233117 0.212881 0.169159 -0.146865 0.169572 -0.208058 -0.195053 -0.291411 0.280598 0.185422 0.119916 0.047803 -0.284192 -0.010904 0.090255 -0.144461 -0.189014 0.210811 -0.008398 -0.307779 0.224956 0.398179 -0.148715 -0.030894 0.016979 0.246358 0.072514 0.387094 -0.223058 -0.270429 0.284406 -0.677412 0.253334 0.121190 -0.203271 0.090764 -0.141085 0.202468 0.195948 -0.297624 0.120689 -0.105280 0.195619 0.265081
includes -0.048607 -0.255203 -0.280079 -0.019696 0.116016 0.134963 -0.037821 -0.078344 -0.559742 0.225467 0.079178 -0.009886 -0.269160 0.123976 0.104860 0.240162 0.252794 0.017774 0.100664 0.730155 0.193846 0.346109 -0.034468 -0.610979 -0.133142 -0.020189 0.019177 0.453619 0.399245 -0.026073 -0.197065 0.547173 0.631946 0.114316 0.121208 0.241958 -0.043311 -0.138109 -0.138393 0.472382 0.280245 0.500732 -0.208165 -0.319359 -0.258143 0.260245 -0.262046 0.204543 0.309686 0.094010
its -0.171704 0.159045 0.018044 0.125537 -0.086596 -0.204257 -0.017744 0.175539 0.177065 -0.156963 0.009233 0.012373 0.140922 -0.097661 0.034805 -0.034377 -0.141308 0.027548 -0.176319 -0.051921 0.047553 -0.120615 0.075936 0.116146 0.027801 -0.068965 -0.068390 -0.173945 -0.092461 0.166062 0.346223 -0.058511 0.067589 -0.019862 -0.043592 0.030774 0.033038 0.113884 0.016500 -0.211678 0.084129 -0.027883 0.083077 0.081763 0.175865 -0.138497 -0.107812 -0.029452 -0.144873 -0.146356
made -0.015071 0.089275 -0.087931 -0.138479 0.080658 0.049751 0.268961 -0.117017 -0.298521 0.160051 -0.114208 -0.054360 -0.013157 0.032456 -0.048484 0.066133 0.094401 0.235994 0.094196 0.193496 -0.147552 0.077416 0.010178 -0.181280 -0.146181 -0.072430 -0.182830 -0.175885 0.171963 -0.048848 -0.258640 0.215250 0.070118 0.000439 0.232789 0.000986 -0.045812 0.061529 -0.161756 0.052329 -0.101246 0.081527 -0.101864 -0.040140 -0.163012 0.185210 -0.000120 0.024781 0.123237 0.206524
notify -0.005963 -0.069113 -0.202890 0.072695 0.043006 -0.025814 0.050316 0.104801 -0.245486 -0.021047 0.065297 -0.022201 -0.054700 -0.053312 0.242501 0.224697 0.039810 0.097591 -0.138122 0.439682 0.003378 -0.011003 0.176956 -0.194807 0.004263 -0.146795 -0.129880 0.203753 0.278692 0.146832 0.007171 0.325903 0.306978 0.051691 0.092189 0.031066 0.003168 -0.150197 -0.068217 0.138778 0.184866 0.365682 -0.222841 -0.260809 -0.078027 0.130160 -0.158650 0.014812 0.096654 0.108748
type 0.064609 0.024459 0.000806 0.062907 -0.022990 0.031412 -0.038483 0.094452 0.030654 -0.009405 0.137664 -0.019695 0.038084 0.050687 0.149773 0.050434 -0.190683 -0.007592 -0.067904 0.096171 0.029549 -0.158978 0.179816 0.064602 0.063080 0.020831 -0.060760 0.148791 0.117612 0.167540 0.115655 0.029252 0.014221 -0.067447 -0.006175 -0.003559 -0.120193 -0.009012 -0.089307 -0.136284 0.116419 0.027731 -0.010347 -0.170592 -0.061145 -0.032909 -0.163086 -0.037270 -0.055895 -0.031836
which -0.150464 0.347058 0.017867 -0.048642 -0.013219 -0.011409 0.272481 -0.148199 0.012689 0.009497 -0.154652 0.142230 0.191699 0.206303 -0.153692 0.012585 -0.208053 0.135239 -0.034765 -0.088466 -0.162425 -0.080589 0.252266 -0.086402 -0.073079 0.088898 -0.296644 -0.485648 0.043314 0.134375 0.093678 0.014600 -0.175052 -0.215597 0.221659 0.130506 -0.089979 0.496008 -0.263762 -0.310430 0.031174 -0.144744 0.078396 0.036378 -0.035559 0.123268 -0.061868 -0.024362 -0.161365 -0.026924
add 0.125959 -0.410619 -0.179276 0.153942 0.140123 0.096715 -0.381269 0.079399 -0.206772 0.153898 0.090719 -0.047103 -0.195765 -0.096829 0.112229 0.230566 0.277256 -0.018115 -0.030043 0.342099 0.151203 0.226402 -0.180079 -0.434059 0.016084 -0.074058 0.277762 0.553848 0.275101 0.063979 0.007235 0.411363 0.537572 0.150260 -0.191842 0.198086 -0.037040 -0.244497 -0.009046 0.369726 0.278569 0.164866 -0.026557 -0.167114 -0.172173 0.085975 -0.210755 0.226622 0.104230 0.105621
occurs 0.363827 -0.237760 0.252373 0.165602 -0.031410 -0.431146 -0.270762 0.230678 0.541179 -0.369916 0.076968 -0.058046 -0.176710 -0.135885 0.204525 0.095197 -0.076370 -0.228781 -0.228484 -0.467428 0.055695 -0.356610 -0.308936 0.637609 0.079397 -0.258411 0.303874 0.460093 -0.127832 -0.140936 0.259003 0.117272 -0.112268 0.233480 -0.196036 -0.363481 0.247229 -0.613203 0.159469 -0.148317 -0.238068 -0.214674 -0.020348 0.456844 0.214591 -0.487113 0.127643 -0.138811 0.024680 0.176344
specified -0.071421 0.024752 -0.168677 0.298607 0.192811 -0.489689 -0.451050 0.408280 0.210908 -0.412005 0.231435 0.167699 0.092131 -0.398242 -0.106211 -0.048684 -0.268376 -0.079766 -0.331715 -0.507033 -0.013961 -0.089350 -0.038741 0.167287 0.185558 -0.053599 0.174066 0.203121 -0.201667 -0.168651 0.573667 -0.097853 -0.083014 0.086317 -0.230294 -0.207340 0.261744 -0.317591 0.312287 -0.057885 -0.020303 0.068707 -0.051779 0.271456 0.471499 -0.486373 0.091584 -0.168075 -0.050061 -0.172902
this -0.077355 0.131673 -0.051875 0.131905 0.046397 -0.200915 -0.032786 0.126945 0.060241 -0.158192 0.092483 0.058421 0.099489 -0.076635 -0.011477 0.021929 -0.177483 0.039878 -0.190089 -0.079875 -0.021843 -0.095640 0.148088 0.051452 0.052688 -0.049842 -0.097343 -0.101740 -0.031348 0.067470 0.263727 0.050035 0.042773 -0.012767 0.030472 -0.029163 0.054305 0.058614 0.008948 -0.169732 0.061047 -0.005969 0.001110 0.033128 0.171819 -0.088506 -0.076453 -0.091651 -0.075258 -0.065236
able -0.275873 -0.102963 0.144716 0.348077 0.141991 0.040223 -0.234238 -0.270428 0.069172 0.081187 -0.260672 0.028876 0.140131 0.122602 -0.454366 -0.062526 -0.031567 -0.065155 0.011933 -0.247431 0.053718 0.565068 -0.265189 -0.382322 -0.178037 0.237342 0.000535 -0.412490 -0.067826 -0.062019 0.151448 -0.383587 0.038968 -0.133336 -0.041681 0.417375 -0.122110 0.535308 -0.019119 -0.091819 0.053843 -0.369985 0.403496 0.102813 0.236695 -0.062731 -0.028629 0.179422 -0.331319 -0.207115
all -0.053862 0.158971 0.021013 0.010467 -0.072513 -0.003352 0.108863 0.057265 0.085187 -0.052357 0.012332 0.042741 0.130428 0.051263 -0.001649 -0.072182 -0.148917 0.066638 -0.017275 -0.056080 -0.041526 -0.092648 0.149657 0.151855 0.018460 -0.001442 -0.142693 -0.196437 -0.029619 0.110146 0.064953 -0.100026 -0.109332 -0.084575 0.093055 -0.052953 -0.048146 0.193133 -0.039628 -0.188299 0.031032 -0.082900 0.033701 -0.065538 0.020483 0.018176 -0.049635 -0.056122 -0.092560 -0.034609
close 0.205508 -0.319544 -0.074012 -0.220353 0.042584 0.450587 0.019377 -0.266286 -0.525892 0.411872 -0.013722 -0.132303 -0.289597 0.219366 0.075892 0.135862 0.380556 0.045750 0.409224 0.620541 -0.025021 0.284822 -0.134918 -0.417795 -0.154674 0.066787 0.076700 0.412884 0.274513 -0.180295 -0.692877 0.280383 0.262762 0.123342 0.016263 0.129312 -0.139722 -0.170404 -0.146125 0.575866 0.012494 0.337319 -0.137368 -0.371596 -0.552289 0.318461 -0.074611 0.197136 0.374160 0.252778
company 0.092152 -0.036200 0.004117 0.058813 -0.056068 -0.046823 -0.112519 0.171240 0.119556 -0.073809 0.119009 -0.002834 -0.023827 -0.101187 0.139631 0.028209 -0.025895 -0.023000 -0.079856 -0.101586 0.086485 -0.105429 -0.008323 0.131518 0.017305 -0.129048 -0.004629 0.117895 0.040624 0.045816 0.164562 -0.032128 0.041555 0.030213 -0.087238 -0.056661 -0.013539 -0.130379 0.055451 -0.054283 0.055736 -0.001701 -0.013426 -0.073913 0.046081 -0.028544 -0.088181 0.011762 0.008775 0.047701
consult 0.093818 -0.201068 -0.207315 -0.138846 0.090769 -0.006737 0.035447 0.044864 -0.177655 -0.018075 0.103073 0.000062 -0.160212 0.008240 0.067222 -0.007880 0.291256 -0.167584 -0.000910 0.228757 0.150670 0.001094 -0.030332 -0.141971 0.089893 -0.081982 0.242167 0.315052 0.027970 -0.103538 -0.081701 0.037264 0.179638 0.038982 -0.067810 -0.089729 0.052559 -0.341493 0.186671 0.287689 0.039750 0.353296 -0.185012 0.004690 0.026378 0.180188 0.118725 -0.022744 0.126569 -0.052879
no -0.185863 0.264078 -0.132278 -0.220875 0.169013 0.115732 0.324523 -0.270287 -0.369899 0.085308 -0.176090 0.115204 -0.007253 0.069685 -0.205637 0.023884 0.120033 -0.002934 0.122823 0.266838 -0.069314 0.076814 0.043614 -0.312153 -0.105739 0.166102 -0.092917 -0.122229 -0.121831 -0.139689 -0.253482 0.244693 0.057303 -0.026208 0.055145 0.195364 0.052919 0.124279 -0.033897 0.141790 -0.126411 0.164343 -0.171301 0.137492 0.009641 0.157949 0.098380 -0.062069 0.133577 -0.038417
our -0.007974 0.078368 0.007985 -0.034076 -0.104295 -0.053654 0.113530 0.053436 0.082387 -0.041905 0.047253 -0.003735 0.104416 -0.100077 0.021014 -0.188932 0.088138 0.021901 -0.047847 -0.145366 0.024482 0.037997 0.042354 0.132854 0.011689 -0.018348 0.069265 -0.243989 -0.096761 0.048861 0.029191 -0.226874 -0.015861 -0.052222 0.025910 -0.053935 0.059007 0.080928 0.060170 -0.048558 -0.054207 -0.111779 0.062594 0.174990 0.052129 -0.023077 0.180861 0.020165 -0.086370 -0.068016
assigned -0.222998 0.218895 -0.113352 0.000939 -0.002961 -0.044098 0.200253 -0.162250 -0.207813 0.092928 -0.045234 0.070647 0.112005 0.100635 -0.156641 -0.022359 -0.026990 0.127736 -0.037518 0.255911 0.001204 0.049874 0.174609 -0.202815 -0.165278 0.083175 -0.278249 -0.215890 0.028617 0.075945 -0.039034 0.316578 0.177634 -0.071764 0.210251 0.181876 -0.053768 0.378769 -0.126172 -0.115610 0.128406 -0.003479 -0.070684 -0.062314 -0.029027 0.130063 -0.179215 0.029283 0.040738 -0.011014
continues 0.098232 -0.253980 0.055931 0.502579 0.192176 -0.502993 -0.514255 0.453910 0.327259 -0.318084 0.164470 -0.215386 -0.064752 -0.735056 0.313499 0.240809 0.053030 0.149274 -0.638836 -0.230032 0.048651 -0.082208 -0.188508 0.179268 0.006060 -0.335412 0.210580 0.240975 -0.192082 0.115517 0.417815 0.134159 0.146512 0.440180 -0.405982 -0.317191 0.424842 -0.713186 0.323335 0.073424 -0.132164 0.037913 -0.049684 0.275441 0.519400 -0.470513 0.135986 -0.078032 0.091599 0.197333
does -0.058675 0.062164 -0.005493 0.137828 -0.022292 -0.123428 -0.226878 0.085180 0.164317 -0.184232 0.083942 0.130630 0.152856 -0.104906 -0.290201 -0.224168 -0.275259 -0.053616 -0.074490 -0.432202 -0.135896 -0.002543 0.013755 0.166224 0.102446 0.236443 -0.061674 -0.068966 -0.128558 -0.139138 0.229864 -0.205004 -0.238442 -0.113951 0.035779 -0.110211 -0.010623 0.178883 0.061859 -0.169683 0.023323 -0.199522 0.131267 0.101447 0.183428 -0.222794 -0.009835 -0.087446 -0.137066 -0.144763
product -0.016641 0.038399 0.025485 0.053379 -0.072768 -0.187097 -0.005030 0.140684 0.226213 -0.175039 0.072581 0.006957 0.073353 -0.116353 0.047322 -0.063676 -0.116962 0.010894 -0.141494 -0.199222 -0.014998 -0.158409 0.018151 0.263618 0.080668 -0.066507 -0.038415 -0.096204 -0.085832 0.062638 0.142843 -0.097745 -0.137417 -0.006631 0.007983 -0.203955 0.053083 -0.070848 0.099395 -0.169256 -0.014107 -0.081054 0.041334 0.105977 0.157233 -0.123149 0.072567 -0.110214 -0.102169 -0.028724
supply -0.200094 0.167079 -0.035525 0.091663 0.026052 -0.222948 -0.031666 0.292094 0.245190 -0.318055 0.124803 0.043681 0.130067 -0.017299 0.056843 -0.015816 -0.318409 -0.000024 -0.136735 -0.124693 0.079269 -0.276032 0.245741 0.224298 0.129939 -0.182858 -0.051519 -0.161068 -0.103702 0.197610 0.539861 -0.042730 -0.042389 -0.020937 0.000272 -0.074205 0.041000 0.081578 0.084022 -0.294479 0.087662 0.021110 -0.047739 -0.039256 0.319138 -0.160383 -0.055732 -0.062322 -0.191832 -0.265699
urgency 0.128900 0.119431 -0.069465 -0.092307 -0.032808 0.148257 0.177399 0.168012 -0.229289 0.123367 0.242389 -0.006128 -0.080325 0.182628 0.342299 0.118566 -0.183517 0.016281 0.075059 0.397590 0.057879 -0.223352 0.367521 -0.003951 0.107055 -0.176842 -0.143982 0.291736 0.259013 0.286331 0.032904 0.192246 0.155285 -0.147531 0.053024 0.055285 -0.124058 -0.041037 -0.231481 -0.051804 0.243844 0.241525 -0.130756 -0.455775 -0.285853 0.215699 -0.254355 -0.025447 0.074758 -0.010977
degree 0.151679 0.144277 -0.042784 -0.076035 -0.088856 0.079651 0.173446 0.218436 -0.123047 0.040647 0.269718 0.003037 -0.064455 0.127058 0.383845 0.099900 -0.204452 -0.010424 0.004547 0.297941 0.062894 -0.291094 0.369885 0.112562 0.134054 -0.220831 -0.137283 0.296941 0.208897 0.292346 0.103521 0.146374 0.113706 -0.150635 0.039916 -0.006240 -0.078750 -0.076530 -0.190140 -0.100837 0.229985 0.192446 -0.144819 -0.399954 -0.221248 0.153032 -0.224339 -0.040075 0.049737 -0.008817
different -0.042586 0.079520 0.032483 0.055448 -0.034102 -0.125310 -0.014444 0.086193 0.193870 -0.162658 -0.010134 -0.009408 0.080901 -0.110307 -0.009206 -0.035942 -0.124730 0.021779 -0.102645 -0.170513 -0.000269 -0.141346 0.023013 0.202833 0.070688 -0.045135 -0.018944 -0.156200 -0.077948 0.056418 0.170239 -0.089921 -0.127500 -0.017784 0.004811 -0.102232 0.055255 0.008850 0.072247 -0.159886 -0.013302 -0.088758 0.039609 0.050626 0.141568 -0.074522 0.067471 -0.040975 -0.066250 -0.032259
documentation 0.040879 -0.329134 -0.101551 0.157198 0.040556 0.076228 -0.314493 -0.024599 -0.152946 0.143833 0.036671 -0.036058 -0.095644 -0.056671 -0.023286 0.106150 0.233364 0.031380 0.000047 0.254814 0.092866 0.293294 -0.170617 -0.331437 -0.068581 0.000829 0.114600 0.282912 0.225203 0.043132 -0.038133 0.291114 0.403470 0.097612 -0.079851 0.166585 -0.067536 -0.015842 -0.034201 0.252956 0.223487 0.003008 0.052606 -0.161451 -0.161585 0.071835 -0.201573 0.222396 0.041517 0.116700
existing 0.004390 -0.111376 -0.118551 -0.071519 -0.015019 -0.183875 0.031230 0.124993 0.172296 -0.177630 0.095114 0.043907 -0.003670 -0.031905 0.021552 -0.121256 0.138144 -0.211512 -0.103349 -0.090584 0.133143 -0.111436 -0.031504 0.133547 0.175405 -0.102666 0.239367 0.042914 -0.077768 0.002108 0.212193 -0.263208 -0.021149 -0.066619 -0.083754 -0.157541 0.008080 -0.200338 0.254557 -0.002985 0.057643 0.095759 -0.041983 0.127876 0.222227 0.113403 0.155442 -0.058178 -0.090489 -0.190624
generate 0.162250 -0.311335 -0.052802 -0.123641 0.054780 0.324473 -0.067653 -0.170596 -0.334188 0.290962 -0.022364 -0.069056 -0.222735 0.140213 0.030211 0.098701 0.287510 -0.020295 0.279331 0.379398 0.071963 0.242406 -0.167078 -0.368075 -0.095828 0.061636 0.148370 0.393963 0.212327 -0.149264 -0.430765 0.180418 0.208508 0.113071 -0.042474 0.146443 -0.067904 -0.154637 -0.085149 0.463634 0.039402 0.206932 -0.050266 -0.212398 -0.351993 0.214329 -0.046122 0.161480 0.249833 0.142079
maintenance -0.075784 0.185772 -0.049558 0.107145 -0.083247 -0.273339 0.022848 0.325325 0.194971 -0.241044 0.176227 0.030157 0.138178 -0.115597 0.149611 -0.070851 -0.159032 0.021448 -0.269245 -0.144038 0.103565 -0.196893 0.270159 0.224905 0.123312 -0.173433 0.009501 -0.147483 -0.061044 0.231672 0.470417 -0.069258 0.063532 -0.028880 0.002703 -0.094052 0.124065 0.005903 0.053557 -0.216277 0.095810 0.006752 -0.013638 0.082978 0.259337 -0.153207 -0.008608 -0.060891 -0.178236 -0.181994
making 0.313863 -0.146132 0.205399 0.085346 -0.126471 -0.309294 -0.109423 0.191649 0.443477 -0.306858 0.051182 -0.053432 -0.130557 -0.084521 0.197846 0.038109 -0.062255 -0.189441 -0.190273 -0.402318 0.012868 -0.328287 -0.182005 0.604277 0.099707 -0.210965 0.199745 0.332850 -0.084188 -0.068885 0.168347 0.000808 -0.152859 0.109206 -0.121481 -0.327407 0.183667 -0.450663 0.101615 -0.142095 -0.178095 -0.192463 -0.020701 0.315057 0.113509 -0.330525 0.125159 -0.115734 -0.007781 0.129352
mark 0.332982 -0.320385 0.010842 -0.113088 -0.078606 0.421452 -0.309167 -0.167432 -0.126739 0.341248 -0.087897 -0.049855 -0.197491 0.030510 0.053955 0.054146 0.263848 -0.128081 0.410579 0.059318 0.077889 0.219654 -0.334258 -0.295406 -0.054733 0.028239 0.223895 0.432904 0.287129 -0.251221 -0.333352 -0.007469 0.191920 0.040380 -0.223192 0.268066 -0.167445 -0.057981 -0.082880 0.487418 0.103637 -0.023067 0.110320 -0.304456 -0.417977 0.200016 -0.239721 0.317240 0.140319 0.220273
policy 0.075596 -0.038447 -0.009083 -0.064079 -0.099994 0.009488 0.024173 0.078343 0.101555 -0.065930 0.053222 -0.035439 -0.015034 -0.062368 0.072480 -0.014804 0.049476 -0.024322 -0.024985 -0.066200 0.045312 -0.112391 0.023983 0.178289 0.110582 -0.048990 0.084906 0.114058 -0.022504 -0.047282 -0.036587 -0.086490 -0.082010 0.021007 -0.004540 -0.145960 0.044264 -0.135075 0.109989 -0.010574 0.000324 0.043531 -0.071962 0.006687 0.015357 -0.020154 0.115958 -0.025361 -0.026982 0.007630
requests 0.113774 -0.107593 0.186665 -0.295665 -0.166327 0.372171 0.139798 -0.241496 0.001296 0.202045 -0.073586 -0.073394 -0.153794 0.224346 -0.110805 -0.232229 0.134348 -0.073216 0.388522 -0.089309 -0.058967 0.037837 -0.130795 0.170159 0.018019 0.210209 0.073035 -0.051829 -0.092911 -0.173590 -0.522491 -0.295825 -0.412761 -0.059691 0.040831 -0.200996 -0.082090 0.047805 0.063681 0.098887 -0.172206 -0.102291 0.090535 -0.020404 -0.316076 0.107318 0.203017 -0.057690 0.055908 0.106794
their -0.103627 0.036368 -0.106749 0.138493 0.045199 -0.140033 -0.117841 0.172493 0.039141 -0.100799 0.117324 0.072918 0.069460 -0.078886 0.058700 0.035149 -0.112690 0.011050 -0.134652 0.010697 0.110658 -0.046559 0.079470 -0.040110 0.082347 -0.105342 -0.004564 0.011242 0.012662 0.116438 0.323084 0.082153 0.184512 0.012586 -0.023269 0.061081 0.005331 0.027067 0.049695 -0.063767 0.166970 0.031017 -0.035491 -0.080419 0.182770 -0.001544 -0.112837 0.054569 -0.037565 -0.125378
user -0.050532 -0.001584 0.071778 0.097243 -0.021789 -0.089342 -0.044668 0.049963 0.177149 -0.086693 -0.030309 -0.015605 0.053039 -0.065716 -0.048279 -0.063719 -0.061663 0.031592 -0.072487 -0.161204 0.023148 -0.002541 -0.012440 0.104679 0.038790 0.019744 -0.028906 -0.143517 -0.051885 0.021025 0.086918 -0.162434 -0.095159 -0.018493 -0.011032 -0.057754 -0.016835 0.088074 0.026439 -0.144079 0.004971 -0.161991 0.110440 0.096793 0.112980 -0.082450 0.008977 -0.025109 -0.144532 -0.057979
we -0.091400 0.034423 -0.010347 0.166175 0.117329 -0.174877 -0.190746 0.098436 0.113971 -0.150708 -0.045615 0.096574 0.073067 -0.159938 -0.140887 -0.026667 -0.078554 -0.065873 -0.133918 -0.319054 -0.026561 0.052283 -0.144730 -0.001944 0.004101 0.038574 0.054702 -0.090160 -0.117903 -0.069782 0.242317 -0.104768 -0.074406 -0.019369 -0.119236 -0.007326 0.098120 0.014200 0.089563 -0.041701 -0.047899 -0.086424 0.127924 0.189490 0.282954 -0.208979 0.119345 -0.104156 -0.092242 -0.095110
brigades 0.009915 0.137318 -0.101400 0.049801 0.069997 -0.245042 -0.060345 0.280366 0.135570 -0.230681 0.152223 0.082244 0.068033 -0.084727 0.198522 0.157715 -0.159520 -0.018101 -0.245218 -0.071853 0.025268 -0.251840 0.146517 0.086783 0.127427 -0.170483 0.014769 0.063478 0.060035 0.134675 0.439517 0.130386 0.071752 0.014338 0.011400 -0.041613 0.073386 -0.151586 -0.026115 -0.204041 0.069914 0.156319 -0.124574 0.022295 0.225356 -0.104130 -0.033340 -0.052190 -0.069052 -0.043689
corresponding -0.066735 -0.023629 -0.054212 0.107736 -0.067271 -0.218540 -0.127727 0.186287 0.007508 -0.097628 0.098227 -0.017426 -0.019762 -0.151952 0.131244 0.060409 0.006635 0.014569 -0.202891 0.140937 0.159376 -0.035091 -0.032703 -0.011945 0.008219 -0.117389 -0.000465 0.166341 0.046322 0.118946 0.247429 0.183473 0.272335 0.068049 -0.056899 -0.011402 0.070271 -0.155025 0.026416 -0.006218 0.147677 0.141131 -0.044754 0.026049 0.123257 -0.080908 -0.149020 0.009840 0.031141 -0.027289
creation 0.042600 0.035186 -0.065998 -0.166335 -0.039578 0.123463 0.229565 -0.047232 -0.119877 0.056995 0.107226 0.005234 -0.071476 0.133169 0.018700 -0.117345 0.003879 0.007119 0.153986 0.153521 0.009691 -0.133122 0.165078 0.102669 0.065803 0.022642 -0.051452 0.000083 -0.042881 -0.027554 -0.227324 0.046153 -0.111767 -0.022168 0.137499 -0.152952 -0.070790 -0.046775 0.046443 -0.041258 -0.033032 0.121219 -0.153232 -0.166998 -0.150671 0.121486 0.037039 -0.090048 0.130879 -0.004531
email 0.071409 -0.045876 0.061170 0.009710 0.001188 -0.114535 -0.023915 0.053022 0.136804 -0.081223 0.056246 -0.030047 -0.035383 -0.074989 0.019445 -0.018761 0.013998 -0.022761 -0.078061 -0.144858 0.043721 -0.125568 -0.101944 0.210746 0.015812 -0.066716 0.048369 0.072359 -0.110691 -0.071576 -0.016881 0.006651 -0.069368 0.112734 -0.034316 -0.175594 0.111684 -0.182084 0.125430 -0.016523 -0.102815 -0.042805 -0.028213 0.143836 0.083002 -0.136438 0.097047 -0.070475 0.040632 0.071641
environment -0.071284 0.128089 -0.030898 0.087304 -0.029859 -0.226703 -0.039498 0.200068 0.215171 -0.231276 0.138641 0.031673 0.106198 -0.137377 0.037404 -0.027525 -0.194200 0.048231 -0.199420 -0.228979 -0.054898 -0.181878 0.094055 0.283495 0.137150 -0.090244 -0.027456 -0.110013 -0.085002 0.049700 0.254296 -0.087751 -0.184149 -0.027348 -0.026232 -0.201789 0.098281 -0.103025 0.117810 -0.194082 0.001540 -0.019508 -0.005439 0.111310 0.181002 -0.195119 0.063829 -0.128545 -0.105160 -0.068480
location 0.037182 0.092956 0.073133 -0.165023 -0.100914 0.004955 0.145560 -0.036053 0.095846 -0.035824 -0.031898 -0.018432 0.019403 0.038931 0.002130 -0.106667 -0.033937 -0.015021 0.064651 -0.115473 -0.055821 -0.118437 0.019413 0.229466 0.055798 0.028810 -0.009684 -0.080104 -0.085501 -0.046278 -0.133858 -0.154102 -0.233594 -0.055094 0.060062 -0.145467 -0.017809 -0.010964 0.022848 -0.100418 -0.087751 -0.077927 -0.020979 0.072582 -0.080060 -0.011413 0.094432 -0.084843 -0.017464 -0.021370
mobility -0.016033 0.040745 -0.033844 0.108098 0.000807 -0.183073 -0.060847 0.189427 0.184333 -0.145663 0.055955 0.050190 0.062263 -0.132190 0.078265 0.010396 -0.055551 -0.027417 -0.190404 -0.179712 0.029052 -0.076512 0.021128 0.076707 0.086206 -0.092321 0.047118 -0.048602 -0.034345 0.089609 0.283738 -0.034809 0.011606 -0.015639 -0.068678 -0.051844 0.120950 -0.061096 0.070191 -0.103547 0.035739 -0.016851 0.023284 0.152725 0.213080 -0.096260 0.080684 -0.067087 -0.107754 -0.091670
workers -0.025486 0.049816 -0.022315 0.088173 0.012486 -0.151694 -0.040426 0.163768 0.150581 -0.157033 0.075932 0.043805 0.051357 -0.074898 0.075880 0.056176 -0.088271 -0.029660 -0.142387 -0.108157 0.066640 -0.141207 0.067534 0.093665 0.052467 -0.103229 0.015735 0.023654 -0.008492 0.069716 0.282425 -0.010694 0.037191 -0.000119 -0.005163 -0.024764 0.067560 -0.082305 0.071484 -0.123798 0.061478 0.038874 -0.038848 0.066603 0.222686 -0.076916 -0.005280 -0.006087 -0.075098 -0.074414
assigning -0.015468 -0.078610 -0.265331 -0.132862 0.147233 0.061936 0.118924 -0.051815 -0.514203 0.161248 0.126717 -0.026227 -0.205969 0.091723 0.096208 0.134880 0.223412 0.039626 0.075474 0.628316 0.169162 0.139867 0.056129 -0.400294 -0.060092 -0.054951 0.009626 0.349671 0.200752 -0.018017 -0.223302 0.466248 0.457777 0.108390 0.135336 0.103565 -0.010184 -0.219831 -0.018990 0.304523 0.128333 0.444552 -0.321526 -0.204240 -0.175662 0.222982 -0.108436 0.085012 0.332136 0.024157
description -0.002333 -0.046306 -0.140473 0.152309 0.059216 -0.298526 -0.113050 0.305155 0.110777 -0.210102 0.189761 0.063826 0.013298 -0.243405 0.185372 0.141271 0.002437 -0.093757 -0.278187 -0.019514 0.193892 -0.122512 0.072396 0.034598 0.123756 -0.216917 0.150342 0.218131 0.000254 0.107709 0.404240 0.084212 0.261990 0.083211 -0.093372 -0.060635 0.142762 -0.310746 0.185573 -0.018123 0.126917 0.221955 -0.112468 0.090719 0.313746 -0.082600 0.027532 -0.042257 -0.001666 -0.115645
etc 0.037176 -0.059332 -0.102925 0.180150 0.089954 -0.223062 -0.222203 0.280741 0.094115 -0.204938 0.103751 0.054842 -0.000834 -0.278272 0.130655 0.081924 0.046025 -0.059421 -0.260470 -0.146995 0.092735 -0.026564 -0.049276 0.013087 0.139179 -0.167872 0.183791 0.198448 -0.023027 0.005856 0.327579 0.048398 0.187083 0.106764 -0.184804 -0.042393 0.178800 -0.320362 0.177202 0.080525 0.063326 0.091953 -0.044789 0.143303 0.269956 -0.127805 0.052062 -0.044955 0.010922 -0.037685
generated 0.008966 0.028913 -0.082606 0.132352 0.110667 -0.286769 -0.140951 0.171919 0.079937 -0.168584 0.028883 0.119288 0.029028 -0.224226 0.072643 0.127990 0.011469 -0.047982 -0.291093 -0.125092 0.005697 -0.041048 -0.010956 -0.067759 0.041560 -0.123929 0.039083 0.092471 -0.023644 -0.003626 0.285048 0.190610 0.150588 0.092401 -0.065498 -0.006667 0.188116 -0.135755 0.067638 -0.019212 0.044202 0.075780 -0.052805 0.229267 0.244651 -0.117334 0.065338 -0.076540 0.008280 0.001324
malaga -0.015997 0.103699 -0.065222 0.083093 0.024803 -0.125705 -0.029330 0.284531 0.046458 -0.161708 0.189948 0.054471 0.033086 -0.056871 0.187522 0.083518 -0.157423 -0.012751 -0.168245 -0.006452 0.077033 -0.217271 0.208919 0.105680 0.110674 -0.160272 -0.044015 0.112491 0.040183 0.158460 0.336700 0.047394 0.065575 -0.027686 -0.030537 -0.055120 -0.003944 -0.104805 0.018999 -0.161276 0.120929 0.144939 -0.087520 -0.097626 0.135681 -0.052827 -0.100618 -0.095761 -0.056263 -0.082525
mobile -0.042582 -0.033264 0.100222 0.044576 0.018313 0.008411 -0.091148 0.012873 0.185574 -0.086391 -0.099486 -0.012961 0.015808 0.022104 0.001684 -0.019279 -0.073676 -0.080990 0.009250 -0.243498 -0.042036 0.001442 -0.111759 0.079426 0.004602 0.087858 0.068983 -0.083125 -0.081289 -0.100430 0.039468 -0.250651 -0.184544 -0.030366 -0.064240 0.004556 0.044294 -0.008225 0.076638 -0.066768 -0.090103 -0.057211 0.161042 0.109258 0.102508 -0.154668 0.123973 -0.052318 -0.123482 -0.093688
out 0.002686 -0.123425 -0.092702 0.159330 0.075427 -0.250153 -0.202571 0.222644 0.063673 -0.098932 0.133941 0.056663 -0.018754 -0.269114 0.124846 0.080155 0.069372 -0.051144 -0.299876 0.001815 0.165724 0.046187 -0.072433 -0.088476 0.027051 -0.149785 0.091090 0.180635 -0.003725 0.065623 0.281829 0.174021 0.327955 0.172688 -0.076939 -0.044358 0.142386 -0.275022 0.195619 0.088752 0.104266 0.132913 -0.117231 0.152125 0.275104 -0.103373 0.025357 -0.019629 0.028220 0.035186
sanitation -0.158515 0.082039 -0.045280 0.143716 0.051844 -0.221329 -0.092267 0.269487 0.178524 -0.285611 0.118890 0.043493 0.067502 -0.078287 0.058416 0.035692 -0.242277 -0.029640 -0.178555 -0.092549 0.075064 -0.195592 0.161172 0.122178 0.128260 -0.159188 0.001828 -0.026583 -0.054926 0.158219 0.507182 0.034306 0.024236 0.027465 -0.045861 -0.061352 0.044552 0.017416 0.067355 -0.202346 0.093804 0.049291 -0.039696 -0.005149 0.300089 -0.156320 -0.048223 -0.032996 -0.163409 -0.203464
sends 0.035742 0.017345 0.112190 -0.132216 -0.163135 0.126059 0.102050 -0.097259 0.097309 0.064149 -0.050427 -0.050494 0.042744 0.071923 -0.058600 -0.156781 0.016556 0.022289 0.158637 -0.104029 -0.052737 -0.026435 -0.011524 0.218456 0.000351 0.092648 -0.011822 -0.141894 -0.060969 -0.072750 -0.208937 -0.251957 -0.198515 -0.060734 0.059771 -0.073293 -0.063114 0.130571 0.018857 -0.053773 -0.094787 -0.146934 0.061210 0.011225 -0.115812 0.024851 0.098876 0.023661 -0.045664 -0.001456
these -0.064428 0.061583 -0.101235 0.185623 0.080598 -0.247951 -0.173643 0.326584 0.101332 -0.262711 0.134834 0.106670 0.075807 -0.200696 0.121677 0.061954 -0.088171 -0.058010 -0.256598 -0.110734 0.131212 -0.119303 0.075151 0.027984 0.135543 -0.176309 0.114192 0.094721 -0.055801 0.090246 0.471589 0.036471 0.188291 0.038071 -0.118339 -0.030258 0.158795 -0.157704 0.171239 -0.039792 0.089625 0.135568 -0.037179 0.071788 0.335333 -0.132784 -0.016133 -0.074596 -0.065081 -0.163547
used -0.059757 -0.010928 0.110327 0.038813 0.052201 0.058932 -0.035184 -0.179494 0.059490 0.046061 -0.152548 0.017667 0.054541 0.124208 -0.163803 -0.024558 -0.003343 -0.058650 0.074532 -0.156219 -0.026755 0.173397 -0.116092 -0.111669 -0.091098 0.140677 0.016556 -0.213647 -0.065164 -0.049768 -0.005882 -0.222257 -0.114512 -0.069477 -0.009571 0.133162 -0.037577 0.193994 -0.022589 -0.063005 -0.084728 -0.165400 0.162818 0.114892 0.044046 -0.067398 0.092044 0.021977 -0.122496 -0.083339
another 0.043985 -0.110860 0.057141 -0.025813 -0.124578 0.257363 -0.071710 -0.199423 -0.059140 0.211873 -0.014437 0.001798 -0.030848 0.142826 -0.150610 -0.099185 0.104935 -0.044358 0.198765 0.057278 0.051633 0.213172 -0.087152 -0.106144 -0.076976 0.163233 0.011180 -0.018617 0.049169 -0.032909 -0.216371 -0.054841 0.009694 -0.065842 0.049655 0.135893 -0.123826 0.227916 -0.089683 0.106663 0.061850 -0.161775 0.119023 -0.112668 -0.180665 0.112410 -0.068711 0.169227 0.002557 0.060936
document 0.042051 -0.023338 0.006603 -0.092628 -0.031766 0.061575 0.085967 -0.075157 -0.084153 0.057582 -0.016037 -0.053615 -0.043612 0.005537 -0.005871 -0.042001 0.091058 0.049120 0.090032 0.111496 -0.028496 -0.004523 -0.026310 0.042467 -0.030243 0.003918 -0.007119 0.040202 -0.007126 -0.080666 -0.229095 -0.000602 0.017805 0.033425 0.013284 -0.062366 -0.010581 -0.070290 0.025084 0.088322 -0.058954 0.013147 -0.057056 -0.021565 -0.140185 0.055352 0.019930 -0.007180 0.113784 0.063844
incident 0.032958 0.008662 -0.071642 0.111413 0.043840 -0.224962 -0.096717 0.235737 0.133016 -0.226111 0.100305 0.041609 0.039343 -0.232330 0.128968 0.070282 -0.026157 -0.029342 -0.248826 -0.144926 0.054776 -0.121706 0.034589 0.111674 0.126346 -0.135653 0.077450 0.119319 -0.052384 0.014027 0.250305 0.080985 0.053004 0.109656 -0.095679 -0.131405 0.144848 -0.253783 0.131306 -0.042555 0.020014 0.077283 -0.079159 0.123179 0.228466 -0.128614 0.066123 -0.110646 -0.014286 0.006427
incidents -0.025826 -0.046949 -0.091363 0.229242 0.110004 -0.190319 -0.279184 0.190017 0.054156 -0.161377 0.049022 0.100881 0.044607 -0.235550 0.012472 0.083709 0.002806 -0.065550 -0.209272 -0.140128 0.117703 0.065482 -0.111886 -0.125987 0.027497 -0.132335 0.114340 0.093749 0.005385 -0.005265 0.382928 0.060528 0.229490 0.047359 -0.129992 0.060983 0.149931 -0.114230 0.142464 0.069124 0.089064 0.050153 0.031577 0.082658 0.280299 -0.094962 -0.020117 0.021114 -0.033038 -0.064508
networks -0.101119 0.112866 -0.095055 0.116686 0.059998 -0.204315 -0.028838 0.295881 0.104931 -0.236615 0.168153 0.044030 0.041602 -0.082058 0.140640 0.087373 -0.209032 -0.029388 -0.191534 -0.013476 0.074643 -0.232764 0.228598 0.092426 0.152037 -0.180330 0.000451 0.038121 -0.007496 0.193291 0.457451 0.071317 0.071267 0.016813 -0.037172 -0.060645 0.051412 -0.073505 0.043986 -0.168384 0.111517 0.140051 -0.089222 -0.027079 0.237639 -0.111363 -0.065039 -0.071896 -0.112962 -0.175350
notification 0.062629 0.084643 0.096890 -0.236330 -0.095666 0.177408 0.218815 -0.188997 -0.028198 0.080745 -0.073604 -0.104342 -0.017270 0.149420 -0.051494 -0.094699 -0.017043 0.044843 0.208214 0.028216 -0.134305 -0.095076 0.017401 0.167809 -0.032233 0.100614 -0.099851 -0.135015 -0.062667 -0.077078 -0.338526 -0.120480 -0.248127 -0.062546 0.072496 -0.124445 -0.069206 0.106911 -0.067848 -0.030793 -0.169487 -0.082350 -0.003864 -0.022522 -0.212286 0.073695 0.054899 -0.049772 0.069368 0.038968
open -0.049715 -0.009274 -0.017278 0.133208 0.011995 -0.249385 -0.086437 0.124429 0.173096 -0.185929 0.043126 0.060883 0.074635 -0.138808 -0.026757 -0.007601 -0.028664 -0.043143 -0.219444 -0.171074 0.055296 -0.040284 -0.002184 0.070929 0.051236 -0.093427 0.061872 -0.053079 -0.089549 0.058487 0.266062 -0.069602 0.041452 0.015667 -0.054827 -0.054356 0.058556 -0.063239 0.127658 -0.095669 0.050377 -0.044014 0.015498 0.191410 0.234844 -0.090335 0.044740 -0.058954 -0.096491 -0.123968
report 0.154659 -0.168081 0.040967 -0.114010 -0.033013 0.224936 -0.078865 -0.088604 -0.114181 0.170561 -0.013515 -0.053417 -0.129704 0.072518 0.025463 0.018517 0.149768 -0.019588 0.192592 0.127298 0.014912 0.096770 -0.130305 -0.108104 -0.042294 0.054436 0.091036 0.247723 0.090619 -0.101550 -0.267146 0.067300 0.036984 0.058863 -0.056208 0.042924 -0.049412 -0.111653 -0.071996 0.259631 -0.011584 0.040232 0.011786 -0.089036 -0.222904 0.091230 -0.016243 0.088503 0.138203 0.137888
same 0.055266 0.085217 0.061598 -0.102768 -0.068385 -0.006041 0.056976 -0.025649 0.132771 -0.053049 -0.053916 0.016544 0.027744 0.004024 -0.000550 -0.081852 -0.071710 -0.027383 0.017575 -0.224857 -0.088901 -0.119281 -0.021840 0.182401 0.044154 0.053193 -0.008401 -0.089122 -0.070783 -0.061859 -0.053169 -0.153110 -0.238397 -0.046494 0.037494 -0.108978 -0.001969 0.025042 0.006976 -0.101336 -0.091967 -0.099826 0.033130 0.100635 -0.044415 -0.053583 0.106357 -0.069151 -0.027925 -0.001646
them -0.132670 0.030743 0.005855 0.109841 -0.029293 -0.093417 -0.074671 0.052595 0.122645 -0.107427 0.021547 0.044091 0.104920 -0.015428 -0.128378 -0.057556 -0.131186 -0.012601 -0.031494 -0.101274 0.119103 0.031870 -0.010936 0.061639 0.024003 -0.007130 -0.030009 -0.168636 -0.027391 0.060067 0.234044 -0.048911 0.020178 -0.021564 0.077000 0.039006 0.014664 0.211865 0.027720 -0.163159 0.064137 -0.120968 0.059622 0.004265 0.232279 -0.060373 -0.055114 0.060987 -0.135849 -0.151204
according -0.074953 -0.093092 -0.048950 0.202145 -0.010540 -0.113756 -0.186439 0.067829 0.061310 -0.009406 0.078764 0.024218 0.033699 -0.088298 -0.030703 -0.000622 0.045031 -0.013804 -0.152411 0.036804 0.158174 0.164884 -0.084496 -0.129426 -0.018722 -0.045141 0.006839 0.032930 0.068898 0.093319 0.215159 0.086499 0.268629 0.042504 -0.008312 0.101275 -0.006488 0.069954 0.039098 0.010434 0.161764 -0.060353 0.029265 -0.048726 0.123994 0.021953 -0.127908 0.126888 -0.028606 -0.002968
adds 0.024187 -0.003138 0.046310 -0.069401 -0.076800 0.034288 0.037185 -0.012014 0.090415 -0.044758 0.007811 -0.005544 -0.021155 0.038310 -0.017267 -0.085042 0.007468 -0.038338 0.051605 -0.090185 0.014937 -0.062270 0.000385 0.171424 0.067663 0.023656 0.032450 -0.006820 -0.046945 -0.036717 -0.072983 -0.117389 -0.153596 -0.003631 0.019801 -0.123555 -0.004835 -0.009606 0.085899 -0.061537 -0.044994 -0.028192 0.001166 0.031350 -0.016524 -0.040814 0.100533 -0.048640 -0.034959 -0.008014
closed -0.005691 0.053181 0.031425 0.029651 -0.011639 -0.091905 -0.034617 0.031661 0.058032 -0.072850 -0.044424 0.012835 0.050294 -0.104109 0.005248 -0.003939 -0.018936 -0.018575 -0.094202 -0.099154 -0.029628 -0.056587 -0.045433 0.027680 0.000464 0.012677 0.009868 0.006950 -0.086502 -0.006291 0.060589 -0.003406 0.015958 0.017173 -0.079625 -0.000542 0.058766 -0.042995 0.031773 -0.030456 -0.029716 -0.032349 0.016213 0.149757 0.102037 -0.093481 0.013778 -0.053215 -0.018641 -0.008843
created -0.058005 0.045497 -0.012150 0.019953 0.037972 -0.060554 0.009713 -0.011028 -0.006094 -0.039269 -0.036874 0.022487 0.033912 -0.060560 -0.045764 0.009746 0.010174 -0.011383 -0.034340 -0.026193 0.033262 0.028620 -0.017864 -0.058648 -0.026936 0.019427 -0.003046 -0.034375 -0.043536 -0.024980 0.039869 -0.020319 0.030999 -0.003824 -0.025831 0.064436 0.024044 0.031349 0.039729 0.006792 -0.018793 -0.004994 -0.003662 0.087745 0.094995 -0.038116 0.014850 -0.008081 -0.012224 -0.045617
device 0.001461 -0.101566 0.063419 0.073502 0.063788 -0.022139 -0.173971 0.020963 0.165839 -0.074795 -0.112287 0.004077 -0.036468 -0.077926 0.006160 0.017190 0.026374 -0.133245 -0.014570 -0.268305 -0.010879 0.066202 -0.209984 -0.017429 0.006883 0.085500 0.168409 0.041569 -0.096686 -0.174652 0.034762 -0.221927 -0.106270 0.022408 -0.151289 0.041802 0.086413 -0.115872 0.128047 0.083059 -0.100780 -0.025325 0.139485 0.194161 0.122167 -0.161612 0.170748 -0.042371 -0.058318 -0.060577
distribution -0.014825 -0.152036 -0.102919 0.187918 0.108588 -0.393897 -0.336268 0.415286 0.247026 -0.378253 0.163502 0.020193 -0.044597 -0.357051 0.175201 0.066911 -0.006492 -0.110875 -0.338085 -0.192343 0.210451 -0.093980 -0.041420 0.080124 0.159813 -0.273383 0.247595 0.268974 -0.080901 0.052322 0.580578 0.106766 0.251215 0.180007 -0.233740 -0.085314 0.233569 -0.407258 0.245834 0.041248 0.076834 0.133456 -0.099998 0.187971 0.432394 -0.236334 0.064742 -0.013481 -0.073947 -0.143943
important -0.085174 0.143928 0.009015 0.066485 0.030892 -0.174515 0.040395 0.018114 0.073332 -0.064411 -0.040193 0.090595 0.113092 -0.023554 -0.044341 0.014643 -0.062620 -0.007827 -0.130893 -0.107642 0.006966 -0.071095 0.046923 0.016125 -0.026600 -0.021813 -0.081626 -0.148396 -0.065719 0.059778 0.208585 0.107003 0.043061 -0.020988 0.056344 0.047044 0.059705 0.140327 -0.034323 -0.164732 0.036017 -0.066598 0.041428 0.173562 0.163599 -0.063135 -0.017878 -0.063102 -0.079779 -0.026335
make 0.002381 -0.098870 -0.039193 0.206011 0.112287 -0.250186 -0.163697 0.215496 0.090800 -0.177170 0.047694 0.041881 -0.006471 -0.227843 0.133542 0.120454 0.051680 -0.006065 -0.256437 -0.040123 0.081793 -0.008546 -0.044768 -0.057348 0.048698 -0.138004 0.053920 0.103043 0.050819 0.056800 0.270122 0.104283 0.168444 0.096344 -0.080575 -0.039636 0.121253 -0.196816 0.075495 0.020144 0.074812 0.085826 -0.013275 0.160199 0.241854 -0.118283 0.039965 -0.037211 -0.044423 0.005487
matching -0.029402 -0.071852 -0.113283 0.104541 0.061643 -0.311203 -0.162981 0.253445 0.195385 -0.266921 0.108406 0.110499 0.059440 -0.232072 0.026539 -0.015179 0.033091 -0.159834 -0.247312 -0.219291 0.160246 -0.047007 -0.031396 0.039463 0.161491 -0.117359 0.228561 0.079496 -0.119068 0.023592 0.400698 -0.168742 0.118405 0.005871 -0.146820 -0.064108 0.099016 -0.217195 0.247894 -0.010434 0.095582 0.049822 -0.020048 0.242961 0.349234 -0.090160 0.129629 -0.074791 -0.109934 -0.255103
method -0.016976 0.100503 0.064288 -0.031739 -0.037820 -0.001389 0.103759 -0.034677 0.086999 -0.015296 -0.059038 0.004310 0.041107 0.040144 -0.021931 -0.023259 -0.090287 0.032887 -0.015381 -0.108357 -0.081664 -0.095063 0.034676 0.104243 -0.008082 0.010859 -0.090759 -0.168810 -0.025260 0.016223 -0.003981 -0.070941 -0.172070 -0.047654 0.046322 -0.046976 -0.000084 0.091645 -0.046277 -0.120475 -0.074623 -0.092941 0.027377 0.042345 -0.014904 0.001939 0.063383 -0.051186 -0.038258 0.029581
more 0.007951 -0.143683 -0.023808 0.180327 0.178377 -0.231625 -0.283782 0.188715 0.110647 -0.158993 0.017352 0.023156 0.017307 -0.235027 0.091881 0.112599 0.065210 -0.154441 -0.209341 -0.191248 0.080140 0.059708 -0.153338 -0.082276 0.059602 -0.106808 0.232137 0.154855 -0.094906 -0.047374 0.352734 -0.029746 0.129896 0.099487 -0.228183 0.038164 0.166452 -0.272947 0.175201 0.026974 0.022442 0.042836 0.041228 0.246420 0.334527 -0.184425 0.079450 -0.042291 -0.117926 -0.110761
municipal 0.025361 -0.084271 -0.056461 0.147638 0.074223 -0.290268 -0.248254 0.302347 0.252006 -0.294830 0.144189 0.022722 -0.012049 -0.272262 0.137193 0.065071 -0.037521 -0.109405 -0.285657 -0.214644 0.136751 -0.118542 -0.065946 0.145688 0.113611 -0.204483 0.132867 0.166873 -0.070995 0.030474 0.414669 0.006199 0.091339 0.127259 -0.176653 -0.112965 0.166483 -0.318758 0.196104 -0.051592 0.027468 0.082144 -0.058147 0.167261 0.330563 -0.198712 0.067415 -0.065270 -0.038934 -0.058152
necessary -0.025818 0.030221 0.038879 0.022281 -0.086654 -0.060134 -0.046828 0.034568 0.185281 -0.091817 0.005426 0.024871 0.058245 -0.049839 -0.067739 -0.081651 -0.087038 -0.021700 -0.039645 -0.174777 0.007406 -0.072447 0.017137 0.181719 0.056598 0.037517 -0.007512 -0.121432 -0.092035 0.017010 0.104507 -0.117345 -0.116529 -0.033925 0.015715 -0.062452 -0.016098 0.105357 0.038840 -0.144224 0.010988 -0.148683 0.049943 0.050584 0.093669 -0.057239 0.017472 0.003786 -0.105303 -0.049117
number 0.086927 -0.073433 -0.002810 -0.025035 -0.070728 -0.007210 -0.006930 0.086029 0.107748 -0.075559 0.061030 -0.034501 -0.028844 -0.072062 0.074575 0.005729 0.058022 -0.052550 -0.050483 -0.098536 0.052695 -0.088068 -0.025813 0.162017 0.099388 -0.055312 0.109222 0.147192 -0.040064 -0.061627 -0.011988 -0.087313 -0.069918 0.032782 -0.044570 -0.155932 0.062711 -0.183819 0.141049 -0.002541 -0.018080 0.036488 -0.059463 0.027637 0.046066 -0.042423 0.128618 -0.063758 -0.015980 0.023893
one 0.039031 -0.081744 0.013294 0.018245 0.057813 -0.053191 -0.113893 0.032526 0.053691 -0.045089 -0.001893 0.015948 -0.021103 -0.091298 0.024654 0.052771 0.083006 -0.098929 -0.042691 -0.101169 0.007276 0.040852 -0.107229 -0.011615 0.031257 -0.020612 0.133083 0.099291 -0.041291 -0.056731 0.084263 -0.032319 -0.000307 0.031458 -0.118019 -0.009890 0.051488 -0.158912 0.086776 0.053007 -0.037009 -0.019845 0.018992 0.130768 0.110332 -0.050477 0.091466 -0.010110 -0.019687 -0.010516
ot 0.033695 -0.037127 -0.090997 0.148309 0.097751 -0.273571 -0.170668 0.188951 0.074021 -0.172076 0.080848 0.074802 -0.005501 -0.241814 0.105882 0.118575 0.025324 -0.066698 -0.272798 -0.100148 0.067245 -0.035392 -0.043280 -0.058051 0.043367 -0.141134 0.085017 0.190987 -0.022917 0.006333 0.283060 0.204144 0.249115 0.109239 -0.109781 -0.003065 0.179471 -0.215535 0.099433 0.037410 0.059123 0.087338 -0.056076 0.217762 0.235612 -0.121928 0.015533 -0.054090 0.035918 0.006446
registered -0.100655 0.287159 0.049537 0.017430 0.019092 -0.160901 0.117225 -0.012450 0.190173 -0.125089 -0.133971 0.121683 0.192884 -0.014267 -0.111716 -0.003584 -0.167005 0.023387 -0.152414 -0.375294 -0.170448 -0.133495 0.072942 0.075126 0.004583 0.006573 -0.139792 -0.420152 -0.146547 0.040551 0.247309 -0.118586 -0.259783 -0.119839 0.036556 0.013933 0.079597 0.221829 -0.082926 -0.278656 -0.100611 -0.188199 0.100262 0.256122 0.180884 -0.088273 0.149611 -0.116512 -0.167677 -0.038001
so -0.101559 0.145383 0.023721 0.112001 0.058941 -0.213979 -0.021553 0.076129 0.161134 -0.151363 -0.088236 0.141125 0.149063 -0.080750 -0.056903 -0.026475 -0.049583 -0.057916 -0.168839 -0.239497 -0.027815 0.013979 -0.048756 -0.009501 -0.000258 -0.039718 -0.029493 -0.241402 -0.125165 0.006871 0.298586 -0.079505 -0.042284 -0.011039 0.015142 0.041418 0.132518 0.114902 0.020001 -0.176454 -0.039254 -0.098857 0.131248 0.252456 0.301598 -0.104516 0.145421 -0.071015 -0.134943 -0.120039
technology 0.042527 -0.103233 -0.028017 0.120095 0.030448 -0.125765 -0.204403 0.149187 0.105248 -0.058394 0.050738 0.070243 -0.030447 -0.185528 0.046049 0.061392 0.120572 -0.072284 -0.169278 -0.173780 0.130964 0.123213 -0.146189 -0.051963 0.006045 -0.059691 0.134913 0.132243 -0.017417 0.004539 0.173804 -0.002042 0.199723 0.019168 -0.125335 0.069719 0.093915 -0.091636 0.065766 0.067220 0.076439 -0.039573 0.063732 0.140558 0.174828 -0.068597 -0.003408 0.052927 -0.025134 0.033715
they -0.051092 0.049785 -0.123943 0.035919 0.113952 -0.166659 -0.010384 0.088251 -0.014718 -0.164300 0.011232 0.061628 0.056445 -0.127743 -0.028352 0.022884 0.012154 -0.061845 -0.143403 -0.049976 0.096708 -0.032030 0.010865 -0.056376 0.016341 -0.079569 0.066740 -0.012057 -0.076923 0.011976 0.208689 0.043674 0.094219 0.046974 -0.046351 -0.018383 0.123136 -0.131285 0.091333 -0.013476 -0.035949 0.108783 -0.104894 0.139231 0.299052 -0.045151 0.078101 -0.044703 -0.008515 -0.108959
up -0.021793 0.010467 -0.086498 0.021933 0.067645 -0.111257 0.012587 0.177331 -0.037341 -0.090852 0.077282 0.012386 -0.015036 -0.088153 0.091531 0.073392 -0.009492 0.035687 -0.080012 0.019794 0.042787 -0.066202 0.028738 -0.005128 0.047737 -0.124955 0.018965 0.069048 0.053416 0.023027 0.156119 0.116559 0.101641 0.026178 0.019912 -0.043437 0.048401 -0.127500 0.015311 -0.008848 0.040135 0.113400 -0.072784 0.056906 0.117736 -0.021897 -0.008685 -0.046378 0.007248 -0.004269
users -0.047079 -0.001641 -0.073933 0.209561 0.059253 -0.242110 -0.211142 0.281922 0.161425 -0.213508 0.134363 0.061837 0.043834 -0.176233 0.094775 0.097639 -0.091026 -0.027879 -0.231097 -0.104576 0.126489 -0.096131 0.027568 0.027761 0.097629 -0.173532 0.063862 0.085901 0.007909 0.108557 0.435824 0.090551 0.178260 0.059529 -0.078321 0.006355 0.132572 -0.111368 0.110727 -0.050940 0.138832 0.062206 -0.031953 0.050624 0.252770 -0.118314 -0.070110 0.010675 -0.078617 -0.089675
web -0.004664 -0.144921 0.008812 0.076063 0.030615 -0.059576 -0.220682 0.087598 0.144940 -0.095845 -0.058782 -0.000382 -0.020534 -0.034914 0.015748 0.056620 0.033876 -0.084586 -0.034431 -0.144878 0.033011 0.087347 -0.147551 -0.021202 0.035647 -0.012393 0.161253 0.060756 -0.032680 -0.054073 0.137665 -0.095135 0.028751 0.034660 -0.092498 0.064340 0.083953 -0.108300 0.105258 0.060331 -0.014157 -0.011033 0.067380 0.058338 0.155839 -0.138636 0.049995 0.015177 -0.055689 -0.080300
who 0.002708 0.056305 -0.018106 0.066919 0.013919 -0.152513 -0.050899 0.121126 0.093590 -0.110506 0.046975 0.047294 0.035719 -0.090819 0.032665 0.042865 -0.063321 0.002476 -0.146867 -0.130844 0.006663 -0.104827 0.015824 0.087666 0.049922 -0.086998 -0.012682 -0.001058 -0.015817 0.032060 0.188583 0.050401 0.005130 0.017617 -0.013837 -0.069760 0.082478 -0.074606 0.043079 -0.090323 0.019508 -0.029957 -0.016032 0.071319 0.140881 -0.056386 0.001780 -0.035574 -0.025851 0.004378
aborts 0.002429 -0.059587 -0.092478 -0.068340 0.060801 0.066690 -0.016886 0.001094 -0.119073 0.019351 0.038380 0.022609 -0.096582 0.014948 -0.027559 0.004483 0.131517 -0.071962 0.059321 0.075691 0.114039 0.081205 -0.028678 -0.141595 0.028227 0.037149 0.114301 0.136394 -0.027989 -0.102003 -0.064106 0.048272 0.070253 0.043981 -0.025859 0.020136 0.051222 -0.122558 0.074118 0.162551 0.000887 0.129292 -0.049343 0.013651 0.011978 0.066469 0.055615 0.003828 0.094266 -0.031603
about 0.020381 0.062213 0.060161 -0.060597 -0.097498 0.009191 0.022203 -0.002477 0.110946 -0.021022 0.002643 -0.011098 0.018134 -0.000576 -0.053765 -0.119430 -0.089997 -0.012573 0.047511 -0.155570 -0.052937 -0.082834 -0.007246 0.195568 0.050798 0.063639 -0.018769 -0.079638 -0.064548 -0.028429 -0.047511 -0.161593 -0.224041 -0.060479 0.009105 -0.110517 -0.019278 0.038806 0.021072 -0.091455 -0.053323 -0.106060 0.061384 0.004368 -0.010752 -0.047344 0.051632 -0.070737 -0.027144 -0.022163
asks 0.078870 -0.053478 0.092912 -0.054834 -0.112543 0.108105 -0.001292 -0.048959 0.070321 0.065405 -0.006023 -0.025833 -0.021499 0.032549 -0.009190 -0.078092 0.054255 -0.027770 0.087714 -0.103213 -0.014839 0.031042 -0.072514 0.124193 0.009239 0.043463 0.031930 -0.012354 -0.037138 -0.066969 -0.139842 -0.165666 -0.119411 -0.005703 -0.003378 -0.057473 -0.030715 -0.006271 0.033226 0.056814 -0.056212 -0.103368 0.071507 0.001423 -0.087425 -0.000108 0.083373 0.027487 0.001694 0.056337
at -0.001377 -0.028007 -0.041924 0.074021 0.010145 -0.170704 -0.087750 0.178281 0.093435 -0.137149 0.072531 0.020640 -0.000234 -0.125146 0.069142 0.019397 -0.014311 -0.038358 -0.160359 -0.048174 0.061389 -0.067519 0.028215 0.075947 0.075899 -0.095235 0.070042 0.068102 -0.006306 0.050279 0.227145 0.050484 0.047638 0.055333 -0.047163 -0.079926 0.068935 -0.144879 0.088621 -0.038293 0.031933 0.054243 -0.051436 0.063282 0.160860 -0.067896 0.019608 -0.036035 -0.023728 -0.066562
automatically -0.029852 0.056960 -0.001223 -0.009031 0.051161 -0.039469 0.007519 -0.003811 0.029873 -0.026448 -0.054701 0.047212 0.016531 -0.016034 -0.015214 0.020856 0.014878 -0.028074 -0.014149 -0.071677 -0.017798 -0.009154 -0.016316 -0.013977 -0.013479 0.002506 -0.018861 -0.021856 -0.028032 -0.039528 0.051761 0.029345 -0.027950 0.005645 -0.023171 0.031690 0.037771 0.003000 0.008873 -0.023801 -0.032194 -0.004236 0.006671 0.083042 0.038629 -0.018936 0.048021 -0.042797 -0.008216 -0.003357
back 0.008447 -0.120506 -0.096298 0.320166 0.063627 -0.342025 -0.361398 0.311706 0.214824 -0.199114 0.124512 0.062968 0.049635 -0.352941 0.060947 0.141571 0.065465 -0.034439 -0.406201 -0.157367 0.128411 0.070923 -0.131046 -0.091153 0.064418 -0.140533 0.146354 0.128309 -0.027636 0.061002 0.433832 0.093255 0.215879 0.140296 -0.204785 -0.010809 0.155176 -0.250991 0.147786 0.036363 0.124909 -0.033675 0.011090 0.199109 0.341879 -0.181932 -0.006040 0.052323 -0.050367 0.002418
being 0.031572 -0.139902 -0.040072 0.141253 0.046668 -0.121884 -0.218922 0.094041 0.077698 -0.097383 0.054167 0.010133 -0.033084 -0.164257 0.050814 0.047558 0.068628 -0.046335 -0.126542 -0.055750 0.115531 0.061804 -0.121276 -0.050479 0.027143 -0.047566 0.141830 0.172236 0.027679 -0.003439 0.161026 0.033100 0.147336 0.063938 -0.113297 0.015037 0.069308 -0.158064 0.097469 0.068215 0.068093 0.032807 0.006283 0.089749 0.149597 -0.097323 0.007334 0.057778 0.006967 -0.006767
but -0.013437 -0.062534 -0.051551 0.195019 0.093158 -0.259563 -0.277957 0.253263 0.191706 -0.229425 0.059214 0.069880 0.022217 -0.253218 0.030956 0.050075 -0.034112 -0.090127 -0.258610 -0.252342 0.063129 -0.031294 -0.100559 0.029330 0.081482 -0.095000 0.124926 0.106273 -0.044741 0.012259 0.341585 -0.006276 0.067731 0.074008 -0.136259 -0.057097 0.151587 -0.219554 0.145070 -0.004145 0.018753 0.017202 0.024060 0.203353 0.320497 -0.209339 0.064193 -0.063046 -0.078588 -0.058982
cancels 0.081782 -0.106477 0.028925 -0.070078 -0.061640 0.070028 -0.073550 0.009404 0.065641 0.000364 0.032622 -0.005615 -0.088689 -0.013225 0.005204 -0.069781 0.071951 -0.086873 0.051466 -0.105091 0.060217 -0.015792 -0.082991 0.050206 0.052884 0.030647 0.111954 0.121542 -0.037664 -0.079111 -0.057303 -0.114875 -0.098038 0.013780 -0.038642 -0.094620 0.002496 -0.126365 0.100082 0.089263 -0.042160 0.011051 0.033546 0.024925 -0.021704 -0.015819 0.115679 -0.021380 0.047288 0.016831
carried 0.009409 -0.091492 -0.105251 0.157226 0.089687 -0.276415 -0.220714 0.242311 0.107069 -0.143015 0.120170 0.070978 -0.006350 -0.311589 0.127144 0.085930 0.057464 -0.073128 -0.332169 -0.065481 0.153419 0.009321 -0.076191 -0.068248 0.046416 -0.160294 0.130470 0.173217 -0.044378 0.045628 0.320834 0.164623 0.298031 0.172007 -0.108820 -0.040379 0.167599 -0.287803 0.205896 0.079755 0.100559 0.123007 -0.116804 0.209517 0.316681 -0.139470 0.053652 -0.029916 0.010840 0.015861
handling 0.027594 -0.015101 -0.044224 -0.011005 0.011030 0.032064 0.035094 0.038293 -0.107500 0.056855 0.069781 -0.023978 -0.038873 0.031860 0.139808 0.094497 -0.002114 0.057316 -0.012431 0.188518 -0.003290 -0.037317 0.086487 -0.066213 0.014121 -0.061006 -0.044030 0.122764 0.103223 0.073177 -0.037760 0.121780 0.107404 0.012749 0.021726 0.032735 -0.024040 -0.069084 -0.074973 0.017701 0.044934 0.126001 -0.061364 -0.126632 -0.090204 0.075007 -0.098114 -0.002016 0.056690 0.023351
he 0.077153 -0.096141 -0.093775 0.152517 0.095936 -0.216042 -0.231101 0.214155 0.142475 -0.180258 0.067302 0.048164 0.001111 -0.297460 0.109437 0.104964 0.028935 -0.094693 -0.220385 -0.176610 0.127494 -0.064867 -0.116392 -0.016958 0.096121 -0.112804 0.209878 0.215580 -0.054001 -0.013275 0.303634 0.027427 0.140541 0.132348 -0.180068 -0.001645 0.146959 -0.274346 0.147659 0.088851 0.046997 0.080013 -0.038326 0.229598 0.250604 -0.153757 0.077724 -0.006260 -0.029370 -0.033261
interface 0.023724 -0.107735 -0.007382 0.184776 0.083033 -0.315484 -0.275850 0.236574 0.236068 -0.263265 0.067569 0.006969 -0.024401 -0.297634 0.062414 0.056464 0.055468 -0.137713 -0.245564 -0.226122 0.171492 -0.039184 -0.131174 0.074326 0.120724 -0.114328 0.234287 0.164873 -0.039314 -0.033387 0.316840 -0.068270 0.112096 0.096275 -0.185718 -0.090354 0.191985 -0.364474 0.234444 0.048949 0.012409 0.053548 0.010189 0.217869 0.337156 -0.211179 0.119362 -0.012008 -0.029639 -0.078116
materials 0.093565 -0.022760 -0.103590 0.152033 -0.043001 -0.280519 -0.103988 0.314223 0.155208 -0.211998 0.153540 0.042115 0.033431 -0.355833 0.178737 -0.053113 0.168518 -0.108229 -0.366393 -0.305166 0.168805 0.024069 -0.013775 0.068720 0.120654 -0.150166 0.272197 0.083154 -0.075991 0.080709 0.336341 -0.126472 0.176313 0.018995 -0.194125 -0.063332 0.267558 -0.273786 0.170224 0.077557 0.021314 0.035701 0.000838 0.339875 0.278034 -0.176298 0.180182 -0.024023 -0.105323 -0.084055
modification 0.031325 -0.055168 -0.019683 0.065167 -0.000378 -0.071319 -0.130891 0.140592 0.064710 -0.085907 0.075408 0.002018 -0.021639 -0.079378 0.074578 0.023584 -0.008394 -0.037328 -0.107192 -0.056424 0.079338 -0.051648 -0.008393 0.018573 0.064558 -0.059889 0.067309 0.145341 0.020346 0.013040 0.164794 -0.031162 0.039242 0.024886 -0.052531 -0.052002 0.039627 -0.123298 0.066979 0.004684 0.036228 0.059122 0.016855 0.025038 0.079525 -0.058237 0.019153 -0.017722 -0.010166 -0.025513
modified 0.017110 0.014196 0.067868 0.016560 0.008951 0.001819 -0.038886 0.034211 0.134939 -0.020501 -0.037969 0.012499 0.006873 -0.032092 -0.006308 -0.043125 -0.029920 -0.052357 -0.019970 -0.210796 -0.008103 -0.039039 -0.063644 0.122458 0.053433 0.043795 0.051582 -0.050116 -0.079641 -0.023279 0.061392 -0.179110 -0.121594 -0.022871 -0.055638 -0.039214 -0.000063 -0.023314 0.041723 -0.050791 -0.055342 -0.068291 0.075820 0.127018 0.057778 -0.074267 0.104324 -0.053738 -0.084166 -0.031180
office -0.050767 0.046454 -0.062174 0.099381 -0.005538 -0.205852 -0.062193 0.164935 0.172062 -0.175466 0.050735 0.043519 0.072432 -0.132226 0.057789 0.019899 -0.078970 -0.006401 -0.195624 -0.144703 0.046362 -0.092862 0.050497 0.079008 0.094607 -0.115333 0.015976 -0.060899 -0.022914 0.089285 0.286625 0.012428 -0.005793 -0.000730 -0.047907 -0.067884 0.090449 -0.045641 0.057839 -0.106127 0.055202 -0.007827 -0.029077 0.115329 0.223920 -0.100342 0.050983 -0.041608 -0.118256 -0.085280
only 0.023929 -0.169038 -0.074601 0.260267 0.156395 -0.294045 -0.278352 0.237602 0.128939 -0.210600 0.060248 0.049022 -0.030172 -0.300128 0.099121 0.106925 0.104764 -0.076817 -0.300740 -0.114937 0.174237 0.081544 -0.125681 -0.102816 0.069427 -0.112118 0.187603 0.188029 0.027219 0.022020 0.332108 0.056605 0.229002 0.123064 -0.170692 -0.018906 0.155121 -0.290315 0.152771 0.070668 0.073809 0.076060 -0.009283 0.244598 0.340351 -0.197249 0.080528 0.002778 -0.062859 -0.049006
potentially 0.013923 -0.091393 -0.053732 0.135291 0.050383 -0.318550 -0.189851 0.252148 0.261898 -0.255405 0.082636 0.092520 0.045319 -0.283223 0.048550 -0.004032 0.039497 -0.146602 -0.263093 -0.301422 0.132122 -0.051928 -0.101445 0.101191 0.133872 -0.148215 0.241890 0.092293 -0.121508 0.010832 0.374914 -0.142672 0.108735 0.040364 -0.170094 -0.083477 0.132235 -0.257298 0.244004 -0.017692 0.050951 -0.018295 0.018109 0.265791 0.341302 -0.151322 0.129697 -0.057431 -0.104338 -0.159845
produced 0.050146 0.118173 0.066136 -0.076918 -0.052778 0.017195 0.086449 -0.054532 0.055024 -0.032469 -0.101759 0.013558 0.024770 0.034602 0.024240 0.020011 -0.070804 -0.002963 -0.014849 -0.135815 -0.140767 -0.088964 0.018182 0.058630 0.008030 0.013886 -0.064455 -0.096552 -0.020831 0.003035 -0.008501 -0.082736 -0.183336 -0.085410 0.003340 -0.032896 0.013027 0.061987 -0.096265 -0.083680 -0.051750 -0.085631 0.025700 0.055700 -0.056393 0.031489 0.079095 -0.047893 -0.027589 0.051081
responsible 0.011610 -0.062793 -0.053297 0.103129 0.010434 -0.206030 -0.053461 0.149073 0.117430 -0.067798 0.062485 0.026570 0.032255 -0.192493 0.093263 0.072429 0.110487 -0.073989 -0.178890 -0.092214 0.072904 0.002464 -0.040826 -0.015845 0.065569 -0.109544 0.101439 0.032690 -0.032367 0.030934 0.219069 -0.030913 0.159412 0.058685 -0.095817 -0.023702 0.071003 -0.189802 0.122331 0.034087 0.057069 0.057936 0.021529 0.112251 0.165468 -0.040942 0.064728 0.003968 -0.008600 -0.040071
should -0.095914 -0.094441 0.038746 0.205034 0.140680 -0.100846 -0.234515 0.004264 0.154112 -0.091272 -0.120629 0.032907 0.059073 -0.038032 -0.131566 0.032844 -0.003040 -0.112417 -0.102495 -0.313499 0.058289 0.200920 -0.169241 -0.170561 0.005036 0.062946 0.149945 -0.101590 -0.091621 -0.065759 0.259365 -0.238634 0.015517 -0.016405 -0.143391 0.160888 0.049830 0.048279 0.080211 -0.019581 -0.012552 -0.124611 0.209584 0.190663 0.265172 -0.175384 0.072953 0.009445 -0.196067 -0.150593
such 0.135051 -0.116792 -0.019594 -0.026889 -0.022749 0.102435 -0.174960 -0.000188 0.005107 0.077697 -0.013132 0.012484 -0.095024 -0.088551 0.026030 0.014499 0.074900 -0.077129 0.140463 -0.070250 0.084625 0.061749 -0.180903 -0.073734 -0.029255 -0.047122 0.078003 0.211379 0.094847 -0.136347 -0.043120 0.017612 0.081882 0.060773 -0.127110 0.080716 -0.038458 -0.095266 0.042544 0.194741 0.031401 -0.048321 0.028110 -0.108118 -0.101947 0.036444 -0.108226 0.114924 0.086435 0.068183
treatment -0.048693 -0.026242 -0.124086 0.176692 0.121720 -0.268581 -0.224576 0.303925 0.134009 -0.228436 0.153582 0.059173 0.021530 -0.221209 0.159624 0.118497 -0.039562 -0.067854 -0.251489 -0.066687 0.170537 -0.079640 0.008213 0.005861 0.095425 -0.201475 0.142800 0.163234 -0.014046 0.110608 0.446309 0.108567 0.249630 0.113102 -0.115608 -0.013339 0.168593 -0.226946 0.141061 0.001856 0.114158 0.162753 -0.091325 0.099975 0.321519 -0.154682 -0.014780 0.031270 -0.057358 -0.127899
using -0.008242 -0.070526 -0.095292 0.270611 0.070241 -0.333646 -0.340186 0.272314 0.198876 -0.232985 0.094172 0.139883 0.018521 -0.286307 0.074939 0.143844 0.005719 -0.101025 -0.392164 -0.159012 0.158517 0.060800 -0.033808 -0.148220 0.039527 -0.113723 0.181451 0.185622 0.027700 0.037629 0.500492 0.186790 0.321159 0.129957 -0.110985 0.089299 0.194143 -0.099151 0.086384 0.004428 0.217188 0.017356 0.011172 0.178283 0.312931 -0.201700 -0.055704 0.040434 -0.083590 -0.036643
want -0.130307 -0.033954 -0.079196 0.244525 0.003085 -0.160484 -0.242194 0.115170 0.094307 -0.082691 0.051577 0.100103 0.067922 -0.106023 -0.093347 0.033273 -0.036416 -0.033763 -0.213717 -0.056187 0.127038 0.212187 -0.030563 -0.189400 -0.027580 -0.032229 0.028031 -0.050419 0.042667 0.091334 0.382262 0.106243 0.277954 0.036185 0.012179 0.193489 0.055930 0.206020 0.003364 -0.053780 0.236901 -0.085876 0.096241 0.022126 0.228581 -0.052108 -0.133532 0.138574 -0.135064 -0.080448
without 0.024770 -0.059576 -0.044880 0.097239 0.030876 -0.171789 -0.129397 0.137290 0.116085 -0.132574 0.042467 0.023983 -0.018342 -0.162153 0.104216 0.064958 0.040000 -0.045735 -0.167103 -0.090072 0.074056 -0.039998 -0.049600 -0.003148 0.038213 -0.083485 0.118495 0.141622 -0.027554 -0.016837 0.175083 0.041550 0.104187 0.065732 -0.087061 -0.018747 0.116348 -0.183533 0.114693 0.043416 0.032513 0.065315 -0.034177 0.150898 0.161760 -0.096040 0.052315 -0.010220 0.004251 -0.002591
actions -0.022469 -0.016633 -0.044276 0.069465 0.011230 -0.152960 -0.110975 0.149598 0.119552 -0.112922 0.059961 0.027579 0.021222 -0.168531 0.033589 -0.002680 -0.018682 -0.038253 -0.189320 -0.068909 0.090004 -0.011147 -0.007148 0.049780 0.057350 -0.069390 0.057193 0.004500 -0.060854 0.050272 0.197458 0.024372 0.101193 0.066503 -0.043138 -0.056933 0.072717 -0.088391 0.129410 -0.025374 0.054667 0.007054 -0.060914 0.100468 0.202050 -0.070073 0.033991 0.001601 -0.043268 -0.030241
adding 0.074670 -0.134981 -0.076356 0.066379 0.062176 -0.069664 -0.154022 0.098877 -0.005828 -0.012998 0.068304 0.002495 -0.063223 -0.117858 0.059003 0.102359 0.103332 -0.032622 -0.092550 0.020114 0.079646 0.025366 -0.077922 -0.101203 0.070400 -0.066991 0.172620 0.235718 0.048616 0.022123 0.105910 0.151152 0.193220 0.079271 -0.113773 0.033744 0.020377 -0.201765 0.035575 0.106085 0.102995 0.059552 -0.031319 0.047145 0.020557 -0.024886 -0.038189 0.066422 0.014881 0.012955
additional 0.012278 0.010776 -0.019848 0.034278 0.011214 -0.098903 -0.026588 0.068920 0.030076 -0.078762 0.046121 0.012025 0.015663 -0.080844 0.037876 0.032127 -0.018213 0.001694 -0.066239 -0.026376 0.022460 -0.056806 0.025038 0.048865 0.027165 -0.056083 0.034523 0.030424 -0.031935 -0.000865 0.107483 0.048216 0.062692 0.029763 -0.024476 -0.039019 0.041627 -0.068835 0.049384 -0.008447 0.014375 0.009878 -0.026294 0.058871 0.073575 -0.073839 -0.001360 -0.025288 0.018071 -0.039399
address 0.010308 0.058284 -0.006896 0.018363 -0.004856 -0.044340 0.023329 0.093438 0.062828 -0.074259 0.052209 0.031109 0.016346 0.004347 0.054998 0.017367 -0.095161 0.000257 -0.050337 -0.014012 0.010417 -0.134191 0.083706 0.099461 0.043133 -0.056183 -0.038743 0.016016 -0.008871 0.043860 0.096344 0.033464 -0.038584 0.009207 0.015104 -0.065641 -0.009191 -0.013112 0.020509 -0.093689 0.041414 0.016184 -0.022051 -0.047178 0.035223 -0.041010 -0.021141 -0.042677 -0.014664 -0.027784
among 0.024773 -0.046855 -0.075837 0.000928 -0.009735 -0.106047 -0.065332 0.112231 0.064755 -0.103039 0.073403 0.042942 0.001570 -0.094096 0.050573 -0.014270 0.051151 -0.083635 -0.098312 -0.051392 0.076706 -0.027585 -0.015884 0.021797 0.093922 -0.038336 0.095499 0.093235 -0.020329 -0.003305 0.141005 -0.065638 0.045821 -0.005807 -0.061237 -0.058175 0.055077 -0.132895 0.111140 0.035877 0.048831 0.057329 -0.019748 0.063839 0.122903 -0.009709 0.057200 -0.026401 -0.014224 -0.085198
appropriate 0.047213 -0.045420 -0.033999 0.136204 0.032575 -0.214626 -0.174916 0.172141 0.216711 -0.203472 0.051389 0.030842 0.038361 -0.227386 0.078760 0.030542 -0.031232 -0.082626 -0.201882 -0.245215 0.063564 -0.104134 -0.060827 0.107539 0.087254 -0.088520 0.138634 0.065073 -0.105971 0.004917 0.268578 -0.065076 0.014735 0.073670 -0.126287 -0.062634 0.107778 -0.170030 0.133237 -0.042253 0.005042 -0.018128 0.006721 0.223875 0.246296 -0.186634 0.096471 -0.051476 -0.072142 -0.052505
area 0.037301 -0.067141 -0.063417 0.102535 0.044774 -0.227562 -0.138169 0.192851 0.157741 -0.183480 0.115019 0.009368 -0.009318 -0.191822 0.093812 0.033404 0.012641 -0.072830 -0.209437 -0.133712 0.097962 -0.065342 -0.031778 0.093260 0.096650 -0.152396 0.100147 0.112793 -0.054443 0.013934 0.242388 0.011681 0.087605 0.090429 -0.122301 -0.081508 0.130771 -0.234587 0.145834 -0.012602 0.022523 0.058660 -0.044747 0.140686 0.202480 -0.118254 0.080370 -0.055324 -0.021029 -0.028643
assigns 0.007565 -0.056773 -0.073765 -0.023816 0.041349 0.060471 -0.004834 -0.035174 -0.076108 0.030215 0.015667 -0.020596 -0.046370 0.007559 -0.016617 0.012049 0.081444 -0.034708 0.056044 0.097002 0.049152 0.070148 -0.056035 -0.125639 -0.014215 0.006147 0.061863 0.098466 0.011242 -0.076274 -0.075020 0.060005 0.087927 0.037121 -0.007681 0.037099 0.018507 -0.059853 0.028313 0.148166 0.013134 0.109663 -0.043418 -0.043861 -0.021232 0.052337 -0.000598 0.055710 0.096175 -0.014459
