the 0.482060 0.113587 0.195329 -0.493281 0.130952 0.411244 -0.169493 0.186355 -0.546515 -0.367409 0.706635 1.448762 -0.000246 -0.414804 -0.382890 -0.002550 -0.035392 0.866967 0.900605 -0.178963 0.854259 -0.206637 -0.670261 0.182074 -0.956133 -0.120150 -0.519714 -0.076923 -0.438296 -0.182259 0.053304 0.545889 0.180440 -0.504544 -0.162691 0.016033 -0.152742 0.626694 0.674795 0.166214 -0.227403 0.628750 -0.102252 -0.136334 0.283095 -0.051139 -0.275115 0.808482 0.484274 -0.247232
a 0.284379 0.018678 0.258178 -1.077216 0.102654 0.652638 0.050283 0.649488 0.172689 0.232544 0.589837 0.753287 0.878668 -0.253803 0.489147 0.433371 -0.041027 0.482908 -0.212839 0.421177 0.179913 -0.209527 0.008934 0.490039 -0.357098 0.018166 -0.364367 -0.180241 -0.235359 0.330292 0.399600 0.038254 0.498776 -0.832387 -0.551450 -0.968301 0.224883 -0.139265 0.313306 -0.933303 -0.869935 0.207840 0.149983 -0.327803 0.250961 0.760091 -0.792469 0.328692 0.623413 -0.817002
of 0.245330 0.789117 -0.740070 -0.126701 0.130837 0.495074 -0.254127 0.119051 0.286859 0.097020 0.049984 0.927315 0.259340 -0.611187 0.558566 0.236457 -0.735356 1.105044 0.577113 -0.422785 0.117398 0.149299 0.380602 0.766226 -0.234650 -0.288399 -0.408349 -0.526866 -1.078465 -0.119569 0.285205 0.425795 0.131248 -0.006881 -0.017768 -0.359490 -0.270305 0.540060 0.108331 -0.192391 -0.332141 0.150406 -0.069076 -0.177676 -0.232297 -0.034635 -0.093646 0.374794 0.107372 -0.230021
notice 0.305303 0.236692 -0.159438 -0.812192 0.073730 0.660720 -0.154345 0.463767 -0.022070 0.186014 0.374316 0.627515 0.806905 -0.336515 0.455079 0.304514 -0.264068 0.493001 0.028918 0.092582 0.153192 0.014942 0.006859 0.407554 -0.400187 -0.026504 -0.502428 -0.161035 -0.196565 0.288167 0.272965 0.061491 0.224642 -0.485969 -0.428369 -1.195679 0.085075 0.018221 0.287616 -0.472683 -0.595951 0.304773 0.075952 -0.171159 0.282375 0.315123 -0.650798 0.213874 0.606316 -0.828866
to -0.350134 0.345032 -0.217505 -0.257712 -0.034266 0.669290 0.145168 0.950277 0.047329 0.406989 0.247317 0.284589 0.506825 -0.077064 0.399425 0.113025 0.396746 0.606433 -0.452199 -0.433957 -0.209262 0.460191 0.203533 0.405281 0.143928 -0.225307 -0.423635 -0.526121 -0.761193 -0.155221 0.307450 0.506696 -0.154412 -0.687169 -0.142818 0.142224 0.207878 -0.200294 0.670499 0.123821 -0.675408 -0.119731 -0.379290 -0.328683 -0.173593 0.636789 -0.829355 0.120231 0.512430 -0.447381
system 0.554956 -0.219638 0.569322 -0.399012 -0.157638 0.530304 0.001173 0.549160 -0.453122 -0.423260 0.635120 0.947037 -0.066818 -0.258677 -0.536330 0.208380 0.302792 0.455046 0.760499 0.124074 0.524993 -0.394965 -0.649284 0.113401 -0.733526 0.094784 -0.453221 0.333298 -0.225583 -0.025414 -0.025586 0.224529 0.169985 -0.504580 0.085800 0.093264 -0.109647 0.181011 0.823730 0.176161 -0.219358 0.292462 -0.124990 -0.247334 0.314371 0.068047 -0.253090 0.489617 0.468751 -0.232880
work 0.368178 -0.053655 0.756853 -0.305889 0.720816 -0.076782 0.244725 -0.105026 0.496661 0.029217 0.235925 1.084704 0.591124 -0.615157 0.262986 0.611580 -0.034679 0.843378 0.052416 1.068059 0.350259 -0.814136 -0.251650 0.599272 -0.072313 -0.206518 0.055019 0.038186 -0.454019 0.320934 0.737235 -0.026763 0.638437 -0.624168 -0.100506 0.076842 0.057080 0.579271 0.313240 -1.259631 -0.329308 -0.150787 0.659440 -0.408003 -0.411448 0.545169 -0.509941 -0.059099 0.328905 0.023469
and 0.034631 0.485166 -0.459840 0.627795 0.029996 0.104244 -0.010480 0.179318 0.008374 -0.067477 -0.297751 0.651837 -0.264098 -0.345623 0.042325 0.104422 -0.319223 0.488679 0.373551 -0.646091 0.113691 0.148280 0.047886 0.416838 -0.013199 -0.259896 -0.180272 -0.485665 -1.117474 -0.555167 0.315234 0.664321 -0.279822 0.090934 0.053616 0.583782 -0.411148 0.597224 0.494224 0.501860 -0.146877 -0.199808 -0.324228 -0.167473 -0.369834 -0.093985 0.021753 0.442967 0.137768 0.196086
order 0.338083 -0.004510 0.707552 -0.309951 0.635819 -0.023526 0.116978 -0.224471 0.511055 0.031887 0.194654 0.829727 0.664276 -0.545467 0.279416 0.505799 0.047538 0.688057 -0.043443 1.030218 0.254146 -0.711903 -0.182868 0.503448 -0.006234 -0.121621 0.077248 0.158788 -0.248424 0.333379 0.614634 -0.157371 0.726308 -0.564547 -0.156468 -0.125775 0.103973 0.404710 0.166446 -1.258778 -0.323628 -0.065032 0.633595 -0.348533 -0.295554 0.477734 -0.304404 -0.170639 0.399607 -0.038957
is 0.074372 0.135391 0.022866 0.278148 0.114489 0.489672 -0.136680 0.168227 -0.092975 -0.089625 -0.273511 0.816818 0.345503 -0.470853 -0.196123 0.446931 0.180148 0.433995 -0.246910 0.022303 0.028719 0.107522 -0.024660 0.241973 0.025363 0.000088 -0.125118 0.068836 -0.801652 -0.474125 0.658361 0.463719 0.110986 -0.349979 -0.106327 0.227826 -0.301712 0.418106 0.699444 -0.248328 -0.395226 -0.024658 0.233755 -0.555809 -0.465175 0.232024 -0.031893 0.096941 0.804418 -0.261548
in 0.338316 0.299253 0.059249 0.013794 -0.398565 0.776011 -0.105568 0.191765 -0.422977 -0.073196 -0.132641 1.034308 0.379165 -0.206366 -0.685129 0.400269 -0.152159 0.500685 0.636291 -0.303817 0.513633 -0.193678 -0.491006 0.272622 -0.415173 0.135730 -0.140251 0.119129 -0.739460 -0.440321 0.493020 0.249847 -0.316789 -0.522810 -0.012340 -0.060807 -0.401854 0.436870 1.071531 0.295856 -0.274369 0.276995 0.005147 -0.325076 0.025768 -0.077666 0.086141 0.356760 0.640036 -0.228811
supervisor 0.080945 -0.224904 0.535464 -0.902619 0.099641 0.236705 0.570853 0.529037 -0.180013 0.024805 0.676335 0.414087 0.415680 -0.155959 -0.067378 0.266355 0.377573 0.572157 0.030557 0.534615 0.160467 -0.516233 -0.353207 -0.127059 -0.387491 -0.131429 -0.497393 0.225156 0.302249 0.509718 -0.046823 -0.154096 0.107533 -0.639889 -0.089938 -0.413129 0.433765 -0.157916 0.293834 -0.311624 -0.413015 0.050366 0.048943 -0.187386 0.439906 0.287696 -1.052833 0.109258 0.365716 -0.435925
be -0.373733 -0.245898 0.220889 -0.625716 -0.636360 0.863406 0.526781 0.740750 -0.935913 0.212612 0.152424 0.095733 0.545541 0.458310 -0.542000 0.538201 0.238355 0.482601 0.086217 -0.246382 0.149677 -0.160537 -0.481040 0.043248 -0.044348 -0.051665 -0.273436 -0.023943 -0.178451 -0.170459 0.530131 -0.008163 -0.943557 -0.727026 0.192076 0.191769 -0.181480 -0.162688 0.853421 0.529326 -0.511558 0.023883 -0.442670 -0.903765 0.233688 0.532927 -0.674775 0.263692 0.305712 -0.178400
with 0.459420 -0.360944 0.354261 -0.289155 0.120102 0.163254 0.057016 0.425372 -0.229074 -0.372364 0.364011 0.770677 -0.043265 -0.205491 -0.149616 0.284594 0.036889 0.078703 0.203656 0.281625 0.357307 -0.308949 -0.326276 0.163975 -0.640125 0.131718 -0.230401 0.180031 -0.051219 0.049556 0.091679 0.072550 0.198290 -0.311751 -0.172937 -0.034312 0.012521 0.214889 0.419514 -0.309078 -0.159032 0.166732 0.153920 -0.066888 0.031443 0.130184 -0.288783 0.368518 0.325797 -0.394619
warning 0.426468 -0.332588 0.587920 -0.901558 -0.321871 0.676952 0.422234 0.861494 -0.514698 -0.177105 0.618388 0.647022 0.531289 0.012635 -0.434099 0.345617 0.151194 0.303929 0.383070 0.343364 0.394094 -0.564487 -0.622951 0.003453 -0.793792 0.245239 -0.521916 0.411961 0.290273 0.332854 0.016752 -0.171535 -0.117425 -0.797205 -0.202130 -0.648366 0.204602 -0.262973 0.777841 -0.220758 -0.455729 0.281583 0.030550 -0.220737 0.556646 0.313979 -0.744138 0.347469 0.585943 -0.719886
displays 0.595905 -0.513884 0.763845 -0.761143 -0.007847 0.247228 0.234621 0.590998 -0.381374 -0.382762 0.773656 0.656434 0.097062 -0.124181 -0.318034 0.137124 0.288126 0.081075 0.473179 0.519099 0.530129 -0.607242 -0.672919 -0.078215 -0.858093 0.202582 -0.416246 0.459275 0.428852 0.389359 -0.151613 -0.136976 0.303426 -0.526262 -0.168569 -0.375722 0.191556 -0.099196 0.445826 -0.270098 -0.168909 0.276744 0.105399 0.025745 0.538929 0.216316 -0.496729 0.335947 0.367250 -0.435088
worker 0.160521 -0.378433 0.634307 -0.825902 -0.017799 0.145760 0.379215 -0.006035 -0.375129 -0.109682 0.390903 0.382414 0.342641 -0.188949 -0.536268 0.401100 0.011553 0.451934 0.454158 0.762620 0.317128 -0.715478 -0.591317 -0.120043 -0.419215 -0.088592 -0.282459 0.480604 0.537659 0.450772 0.134712 -0.280639 -0.060651 -0.431430 0.076266 -0.347672 0.129650 0.120681 0.328476 -0.296445 -0.111187 0.158631 0.216806 -0.384407 0.447547 -0.015189 -0.601870 -0.037055 0.180719 -0.131963
status 0.061355 0.433030 -0.257945 -0.153801 0.404526 0.180925 -0.205430 0.225989 0.605821 0.356303 0.107257 0.457267 0.625759 -0.426956 0.907349 0.287028 -0.135399 0.591546 -0.332987 0.179962 -0.115382 0.183334 0.401584 0.782485 0.080068 -0.194466 -0.017625 -0.333879 -0.688831 0.202380 0.509303 0.147661 0.609066 -0.242838 -0.264037 -0.462983 0.047810 0.127711 -0.043407 -0.786867 -0.411739 -0.198240 0.235191 -0.063778 -0.502759 0.483272 -0.241570 -0.168029 0.469953 -0.382373
it -0.101284 0.200190 -0.411146 0.240961 -0.110490 0.376600 -0.105747 0.311921 -0.331294 -0.046905 -0.342240 0.433353 -0.049824 -0.158149 -0.209174 0.195401 0.090500 0.171668 -0.119918 -0.655191 0.015729 0.403771 0.068132 -0.045159 0.008778 -0.089687 -0.230885 -0.243155 -0.712375 -0.651219 0.297228 0.606340 -0.281374 -0.150383 -0.082680 0.306962 -0.291841 0.294850 0.620787 0.452424 -0.396894 0.091645 -0.309703 -0.368551 -0.113803 0.047297 -0.084800 0.383780 0.452641 -0.170228
must -0.136444 -0.422063 0.484866 -0.710298 -0.589934 0.773640 0.599054 0.475565 -0.878972 -0.013157 0.285988 0.286544 0.495402 0.288630 -0.872293 0.575508 0.136247 0.491808 0.243173 0.229373 0.275278 -0.502256 -0.629325 -0.111408 -0.271945 0.100071 -0.308951 0.367352 0.233321 0.017093 0.387448 -0.268507 -0.750035 -0.707261 0.141195 -0.074169 -0.079328 -0.158392 0.730513 0.170540 -0.406614 0.174889 -0.156294 -0.860448 0.347910 0.327788 -0.550387 0.173539 0.377736 -0.239739
use 0.169169 0.278936 -0.125242 -0.445079 0.171113 0.239038 -0.648199 0.072137 0.434672 0.387838 0.366574 -0.012226 0.525750 0.136590 0.642792 -0.222162 -0.120965 -0.007349 -0.076691 -0.010665 0.047496 0.333968 0.228876 0.851964 -0.092152 0.116956 0.255158 -0.494474 -0.254688 0.297907 -0.131642 0.100742 0.688567 -0.241800 -0.289673 -0.586103 0.063588 -0.207447 -0.154319 -0.489428 -0.277993 0.332732 0.060486 0.067741 0.007021 0.465470 0.418766 0.013517 0.067972 -0.089074
are 0.028765 0.235146 0.142166 0.433032 -0.307930 0.429194 -0.042649 -0.163941 -0.129622 -0.030940 -0.340171 0.559407 0.177494 -0.112296 -0.661398 0.255757 -0.005544 0.224223 0.279675 -0.162264 0.364187 -0.195413 -0.281390 0.011530 0.005993 0.131186 0.135261 0.168945 -0.555027 -0.551511 0.433615 0.129428 -0.340424 -0.364116 0.048858 0.328012 -0.332918 0.338123 0.745076 0.218589 -0.092497 0.092570 0.098392 -0.189465 -0.248826 -0.133994 0.343611 0.105443 0.336047 -0.008889
case 0.166948 0.246339 -0.109224 -0.453455 0.269510 0.066322 -0.521304 0.015366 0.608857 0.443783 0.295315 -0.144563 0.596317 0.053551 0.830514 -0.137737 -0.140955 -0.075036 -0.269320 0.232701 -0.102201 0.252337 0.353553 0.769993 0.028524 0.081122 0.263727 -0.380538 -0.064951 0.453071 -0.095517 -0.083363 0.772245 -0.169345 -0.315819 -0.761576 0.207159 -0.292079 -0.364062 -0.733837 -0.256155 0.167058 0.192843 0.170501 -0.034102 0.445539 0.227570 -0.192598 0.060137 -0.159332
that -0.141362 0.209356 -0.147511 0.317783 -0.313642 0.454445 -0.018812 0.131336 -0.404434 -0.049001 -0.327990 0.465595 0.014064 -0.072619 -0.477254 0.217715 0.017243 0.296100 0.228679 -0.387127 0.207137 0.078248 -0.125313 -0.064516 0.021783 -0.014831 -0.044554 0.011778 -0.581598 -0.588618 0.348565 0.296575 -0.490368 -0.195157 0.057544 0.468361 -0.360786 0.266557 0.692779 0.434496 -0.128469 0.051407 -0.138535 -0.339897 -0.190313 -0.058729 0.041841 0.154442 0.312405 -0.025800
as 0.131067 -0.139179 0.102519 -0.758089 -0.192373 0.460492 0.252154 0.836605 -0.200650 0.027722 0.368548 0.134251 0.394225 0.040664 0.236416 0.038854 0.008659 -0.013223 -0.170294 0.033071 -0.098873 -0.069609 -0.061313 -0.183560 -0.431031 0.148994 -0.501626 -0.018339 0.369809 0.352850 -0.209914 -0.021111 -0.175755 -0.470865 -0.423208 -0.887720 0.406728 -0.466351 0.262046 -0.216871 -0.495365 0.075376 -0.028329 0.241170 0.481783 0.196294 -1.019225 0.332511 0.445087 -0.916232
assign -0.026728 0.319143 -0.086058 -0.411238 0.431272 0.095084 -0.161971 0.248346 0.793543 0.570061 0.190518 0.032904 0.865578 -0.255555 1.115032 0.211817 -0.015546 0.336843 -0.645403 0.446612 -0.276325 0.158210 0.472248 0.767774 0.258304 -0.147221 0.100221 -0.336347 -0.332670 0.485148 0.376794 -0.089071 0.748926 -0.325508 -0.339685 -0.760869 0.303631 -0.219108 -0.286557 -1.064398 -0.490939 -0.223496 0.303347 0.003891 -0.343205 0.674168 -0.343646 -0.406001 0.359060 -0.437202
notices 0.002255 0.060223 0.044643 0.080293 0.119503 -0.241764 0.163219 -0.019413 0.020356 -0.010733 0.071734 0.404473 -0.234632 -0.183099 -0.092520 0.032755 -0.151405 0.413448 0.404239 0.060630 0.180691 -0.176359 -0.118630 -0.001916 -0.043472 -0.254687 0.056434 -0.058776 -0.346778 -0.032913 0.104833 0.204820 -0.112527 0.019315 0.232146 0.418784 -0.111341 0.388430 0.106487 0.120873 0.145075 -0.202637 0.070136 0.081013 -0.171387 -0.078126 -0.255086 0.119357 -0.200354 0.290665
not -0.575844 -0.070850 -0.142022 0.222435 -0.197804 0.209398 0.255781 -0.084424 -0.220088 -0.138427 -0.241089 -0.041701 -0.509469 0.124823 -0.763723 -0.081046 0.249334 0.069858 -0.555209 -0.377723 -0.052066 0.221070 0.292050 -0.586808 0.330723 -0.022197 -0.086797 -0.038109 -0.241625 -0.836974 0.128060 0.559386 -0.376066 -0.166915 -0.031225 0.788361 -0.063356 0.041376 0.098680 0.271046 -0.409029 0.133182 -0.327300 -0.490762 -0.097845 0.087644 0.078215 0.442833 -0.030553 -0.019372
for 0.110704 0.198481 -0.143510 0.104902 -0.078481 0.220427 -0.147154 0.178247 -0.100720 -0.086888 0.083768 0.351154 -0.195220 -0.097772 -0.067765 -0.023542 -0.063314 0.268609 0.398006 -0.312441 0.125421 0.094495 -0.073062 0.225785 -0.173485 -0.007831 -0.091599 -0.110615 -0.456531 -0.172443 -0.029337 0.260913 -0.032416 -0.001318 0.102462 0.199843 -0.214933 0.240564 0.252476 0.294468 -0.033022 0.040741 -0.160262 -0.035721 -0.032812 -0.039415 0.109620 0.222058 0.106692 0.063338
change 0.334172 0.210054 -0.272384 -0.297211 0.046426 0.159647 -0.205165 0.023608 0.030681 -0.005105 0.205303 0.450732 0.163392 -0.200350 0.362886 0.064950 -0.335033 0.274044 0.364111 -0.051925 0.224338 0.034864 0.075451 0.252053 -0.343805 -0.002888 -0.187303 -0.077374 -0.128501 0.181816 -0.041421 -0.018034 0.272054 0.056440 -0.123739 -0.599858 -0.092115 0.114870 -0.152398 -0.167124 -0.001048 0.206099 0.110344 0.210917 0.121913 -0.086860 -0.048266 0.178489 0.120236 -0.218826
there 0.030956 -0.243214 0.484217 -0.339277 -0.338878 0.655387 0.400937 0.342768 -0.422488 0.004489 0.010595 0.465772 0.634383 0.011350 -0.623586 0.589546 0.059443 0.369203 0.087554 0.414975 0.240022 -0.508113 -0.431543 0.066407 -0.157884 0.172602 -0.140820 0.424495 -0.012020 -0.045802 0.506608 -0.228045 -0.406347 -0.670131 0.006001 -0.151173 -0.095784 -0.033299 0.742795 -0.248423 -0.376449 0.080383 0.191283 -0.659566 0.013986 0.313762 -0.316408 -0.018774 0.496291 -0.329911
by -0.003128 0.262410 0.019160 -0.070838 0.117351 0.196760 -0.137063 0.054884 0.274949 0.262896 -0.054774 0.273200 0.573810 -0.221857 0.366205 0.241679 0.061675 0.296927 -0.324026 0.141220 -0.005088 0.090682 0.106137 0.344494 0.133017 -0.041058 0.035935 -0.109739 -0.419045 -0.000234 0.501622 0.129635 0.321482 -0.241401 -0.170088 -0.289447 -0.085226 0.043927 0.125359 -0.414784 -0.346118 -0.140767 0.236232 -0.208315 -0.275106 0.389661 -0.026493 -0.070811 0.403297 -0.229733
changes 0.314002 0.289156 0.302946 0.184565 0.007341 0.333890 -0.165909 -0.166455 0.184652 -0.023120 -0.020379 0.818780 0.354886 -0.358286 -0.241617 0.264134 0.049545 0.380505 0.349391 0.121824 0.367014 -0.268370 -0.246654 0.283765 -0.165882 0.113032 0.058178 0.119372 -0.592161 -0.254350 0.417671 0.117788 0.233087 -0.468610 -0.013969 0.083260 -0.197358 0.370439 0.631101 -0.210527 -0.113611 0.092589 0.230874 -0.037454 -0.227733 0.009432 0.174549 0.054465 0.425731 -0.083669
data 0.137151 0.086871 0.044734 -0.280854 0.041343 0.232771 0.064099 0.100424 0.118569 0.112356 0.035328 0.396202 0.422848 -0.260114 0.106939 0.291596 -0.372268 0.423245 0.203845 0.264276 0.056522 -0.215251 0.006138 0.254714 -0.085272 -0.100775 -0.180154 0.075225 -0.150888 0.161308 0.241384 -0.041133 0.047047 -0.167138 -0.044037 -0.431597 0.028500 0.128553 0.040598 -0.336866 -0.226978 0.037591 0.098827 -0.187541 -0.002719 0.064963 -0.223295 -0.041925 0.128503 -0.192441
will -0.262796 -0.061057 -0.127317 -0.049825 -0.355715 0.351508 0.109514 0.398540 -0.474981 0.113631 -0.005054 -0.039048 -0.076326 0.329826 -0.255661 0.056390 0.162895 0.109839 0.109751 -0.556333 0.081912 0.198979 -0.156945 0.003504 0.034712 -0.069401 -0.061673 -0.196867 -0.313586 -0.331050 0.111365 0.297825 -0.506226 -0.193625 0.182100 0.467943 -0.210052 -0.022048 0.441520 0.659711 -0.168585 0.016348 -0.461739 -0.356553 0.060588 0.242953 -0.154965 0.264466 0.019168 0.117415
history 0.373773 0.069922 0.389912 -0.327858 0.196994 0.201059 -0.041782 -0.111690 0.048613 -0.063028 0.183881 0.770714 0.379350 -0.384959 -0.139992 0.318569 -0.030466 0.493824 0.379603 0.447195 0.399040 -0.459214 -0.325403 0.255007 -0.321371 -0.037707 -0.103707 0.181233 -0.174123 0.111367 0.299591 -0.002817 0.317989 -0.405102 -0.079894 -0.267718 -0.042561 0.360591 0.394547 -0.462090 -0.181038 0.184552 0.302541 -0.142972 0.066209 0.057296 -0.143888 0.109200 0.345852 -0.145946
brigade 0.135080 0.218285 0.068381 0.032136 0.472626 0.023652 -0.046739 0.058762 0.426465 0.066974 0.015885 0.685084 0.358137 -0.476618 0.407268 0.295778 0.014507 0.493017 -0.213057 0.315576 -0.031491 -0.072842 0.142818 0.466884 0.052217 -0.155848 -0.031480 -0.179000 -0.611231 -0.011822 0.396943 0.216505 0.453421 -0.303145 -0.124025 0.081616 0.032481 0.361030 0.216665 -0.699799 -0.264261 -0.103937 0.322362 -0.158800 -0.425744 0.316655 -0.313944 -0.036413 0.378683 -0.174917
an 0.142537 -0.137909 0.056429 0.217660 -0.024599 -0.146552 -0.084146 -0.369552 -0.338267 -0.257712 -0.027676 0.047368 -0.343747 0.031927 -0.207611 -0.114785 -0.026280 -0.199080 0.241589 -0.088674 0.318334 -0.003431 -0.301383 -0.315064 -0.174824 0.120007 -0.000473 0.074231 0.251224 -0.144531 -0.030490 -0.102691 -0.074718 0.282816 -0.043604 0.116874 -0.219791 0.189505 -0.166309 0.334365 0.272109 0.169900 -0.047225 0.123264 0.193685 -0.240140 0.326635 0.153978 -0.051189 0.157235
information 0.074192 0.139539 -0.206403 0.160281 -0.118263 0.195461 -0.072950 0.163903 -0.215087 -0.127466 -0.011715 0.316157 -0.149630 -0.097250 -0.166475 0.012194 -0.050308 0.171975 0.261357 -0.364567 0.049587 0.070327 -0.086632 -0.024727 -0.137813 -0.031530 -0.244422 -0.038214 -0.315924 -0.245312 0.010952 0.303790 -0.184069 0.060291 0.101739 0.132053 -0.180100 0.195894 0.325847 0.367742 -0.018521 0.078753 -0.192613 -0.109060 0.022585 -0.155911 -0.075422 0.209083 0.166751 -0.008550
or -0.114437 0.230092 -0.299412 -0.163587 -0.018070 0.283596 0.051195 0.238692 -0.103345 0.032482 0.050660 0.277047 0.075683 -0.146367 0.020545 0.070487 -0.102554 0.382744 -0.052223 -0.318195 -0.021444 0.174071 0.121514 0.046510 0.009513 -0.195044 -0.311903 -0.243289 -0.361742 -0.213276 0.133196 0.261086 -0.194865 -0.124482 -0.046696 -0.003755 -0.001656 0.099142 0.209869 0.129723 -0.299769 0.131897 -0.192382 -0.250929 -0.002424 0.057503 -0.306109 0.254234 0.058200 -0.192355
included 0.077880 0.274064 0.025557 -0.125905 0.264551 0.083414 -0.354659 -0.087626 0.561652 0.372130 0.028350 0.118024 0.685899 -0.195738 0.660195 0.141645 -0.006226 0.152229 -0.422532 0.313455 -0.086496 0.153665 0.257940 0.601852 0.194548 0.020072 0.209073 -0.193834 -0.357010 0.205625 0.386487 0.039027 0.686805 -0.183768 -0.248218 -0.497179 -0.009651 -0.058084 -0.131095 -0.747942 -0.314564 -0.093626 0.350860 -0.101824 -0.322920 0.495030 0.193972 -0.215409 0.316423 -0.185582
linked 0.225955 -0.301985 0.419676 -0.482546 -0.250305 0.409467 0.438801 0.725264 -0.480300 -0.198431 0.472185 0.291901 0.212853 0.074843 -0.454109 0.104798 0.309536 0.158758 0.253752 0.138123 0.213287 -0.346331 -0.502935 -0.207929 -0.555558 0.166840 -0.474121 0.400505 0.315728 0.226246 -0.143340 -0.053335 -0.234342 -0.532158 -0.015625 -0.225081 0.193928 -0.289659 0.614927 0.144659 -0.184054 0.132644 -0.095067 -0.116370 0.401066 0.168879 -0.595789 0.158045 0.398796 -0.436272
sap 0.261409 -0.182542 0.156404 0.380880 -0.197148 -0.154432 -0.403294 0.166078 0.070181 -0.413215 0.075425 -0.559738 -0.630612 0.001896 -0.192852 -0.190796 0.325032 -0.361334 0.349264 0.095267 -0.308386 0.040967 -0.052924 -0.025420 -0.056573 0.203837 -0.046958 0.374368 0.306383 0.319982 -0.789008 -0.209095 0.165631 0.407356 0.421395 0.201190 0.169243 -0.248812 -0.000897 0.439846 0.514478 -0.094477 -0.059105 0.383416 0.061299 -0.633808 0.502661 -0.210574 -0.148274 0.089036
message 0.360243 -0.512420 0.467958 -0.556894 -0.094163 0.099197 0.144191 0.456224 -0.280263 -0.298506 0.485650 0.216794 -0.070786 0.074528 -0.203559 0.053321 0.164012 -0.298010 0.152325 0.313765 0.289436 -0.333848 -0.374148 -0.142255 -0.604122 0.234793 -0.200609 0.312433 0.477706 0.245896 -0.215153 -0.185407 0.153889 -0.247736 -0.203813 -0.291055 0.185617 -0.192556 0.157031 -0.180956 -0.109793 0.188213 0.034872 0.106758 0.432992 0.130056 -0.272769 0.264079 0.130076 -0.384170
can -0.108588 -0.040388 0.013267 -0.095769 -0.171791 0.230220 0.110636 0.290018 -0.394466 0.131492 -0.023213 0.053309 0.121293 0.118581 -0.079211 0.167399 0.107632 0.121666 0.015997 -0.277604 0.062429 0.015966 -0.186644 0.002715 0.016780 -0.133391 -0.096404 -0.135512 -0.204081 -0.146460 0.173509 0.114856 -0.336596 -0.198533 0.114856 0.189546 -0.105736 0.023584 0.337036 0.361164 -0.158303 -0.018650 -0.249132 -0.252987 0.064424 0.131544 -0.308078 0.152836 0.064918 -0.002346
from -0.056210 0.094536 -0.093412 -0.013086 -0.091226 0.111742 0.095611 0.160723 -0.218945 0.004341 0.093878 0.209101 -0.132854 -0.017048 -0.087380 -0.034352 0.013123 0.245848 0.164105 -0.322564 0.124944 0.090939 -0.081668 -0.040142 -0.058890 -0.171909 -0.134922 -0.142465 -0.275493 -0.195576 0.038106 0.217110 -0.200146 -0.041119 0.084590 0.269848 -0.094234 0.084504 0.200224 0.363251 -0.051438 0.019652 -0.233385 -0.072365 0.001935 0.000739 -0.180761 0.230370 -0.057529 0.064738
have -0.352155 -0.063552 -0.122291 0.060862 -0.283734 0.280987 0.178279 0.139720 -0.380429 -0.066953 -0.080224 0.075382 -0.275916 0.213733 -0.499808 0.003553 0.196977 0.156494 -0.124602 -0.435553 0.119668 0.188019 -0.008572 -0.332111 0.138887 -0.029920 -0.083494 -0.060650 -0.206928 -0.543531 0.086076 0.362045 -0.447369 -0.160763 0.027932 0.601239 -0.161064 0.005597 0.279827 0.469082 -0.242115 0.094959 -0.351193 -0.363924 0.002738 0.130742 -0.060082 0.338608 0.035998 0.032473
may 0.156375 -0.168987 0.312294 -0.726976 0.095848 0.091333 0.238793 0.197823 0.046601 0.121628 0.371271 0.080810 0.432247 -0.072969 0.202820 0.212527 0.014592 0.130372 -0.004479 0.570803 0.031658 -0.341655 -0.107646 0.044312 -0.220498 -0.008628 -0.185874 0.178759 0.398952 0.563814 -0.054193 -0.344432 0.254607 -0.267437 -0.154970 -0.712192 0.304991 -0.206413 -0.083595 -0.473935 -0.194061 0.025448 0.210381 -0.009641 0.330691 0.172571 -0.541500 -0.097022 0.130072 -0.278447
on 0.034085 0.136154 -0.176198 0.048823 -0.127693 0.132984 -0.062655 0.016268 -0.118742 -0.062709 -0.034021 0.323243 -0.050499 -0.043220 -0.136553 0.061622 -0.104377 0.137526 0.154718 -0.262172 0.179678 0.046470 -0.064088 0.007352 -0.082987 -0.087850 -0.085544 -0.125678 -0.324747 -0.251308 0.108209 0.177273 -0.148777 -0.037000 -0.058362 0.072947 -0.125468 0.184775 0.234693 0.165004 -0.103918 0.104703 -0.087944 -0.085447 0.018990 -0.055057 0.008633 0.268948 0.074687 -0.077797
duplicate 0.203396 -0.238910 0.311038 -0.834647 -0.079201 0.289880 0.368179 0.747593 -0.140557 -0.009077 0.569911 0.190856 0.367426 0.011437 0.178856 0.081188 0.150311 0.098809 -0.056056 0.296434 0.001948 -0.276604 -0.188953 -0.135815 -0.477308 0.093099 -0.468627 0.129345 0.432437 0.511805 -0.232802 -0.142157 0.015932 -0.515138 -0.302631 -0.760444 0.468504 -0.408651 0.211624 -0.332759 -0.397818 0.070894 0.028979 0.165861 0.483073 0.245321 -0.986649 0.220424 0.373641 -0.757289
emasa -0.056541 0.254304 -0.325183 0.381099 0.027857 -0.198356 -0.044666 -0.202371 0.117042 0.058943 -0.242789 -0.021129 -0.155140 -0.107708 0.089079 -0.048516 -0.158226 -0.002350 0.089814 -0.268961 -0.044611 0.113507 0.120380 0.131914 0.057355 -0.058233 0.124585 -0.201247 -0.246365 -0.147645 0.034232 0.064382 -0.073852 0.312176 0.071763 0.119938 -0.180470 0.185263 -0.100695 0.208709 0.228127 -0.085336 -0.027766 0.143004 -0.194395 -0.193292 0.241236 -0.052442 -0.164151 0.214732
orders 0.174602 -0.095130 0.268176 0.169373 0.523661 -0.409832 0.123781 -0.249642 0.396552 -0.046698 -0.032421 0.441887 -0.004083 -0.333729 0.188007 0.248395 -0.141736 0.241397 -0.025713 0.550749 0.060079 -0.380294 -0.004662 0.248755 0.038004 -0.155486 0.195520 -0.010840 -0.224322 0.147212 0.303459 -0.009682 0.302941 -0.014096 0.073933 0.279136 0.010468 0.400407 -0.033966 -0.658098 0.128252 -0.221708 0.438132 -0.021752 -0.448938 0.089101 -0.166209 -0.097234 -0.112084 0.178722
requirements -0.344237 -0.106852 -0.015054 0.349176 -0.166266 -0.061305 0.164443 -0.296348 -0.159113 -0.193685 -0.186269 -0.251310 -0.598524 0.153435 -0.629513 -0.258972 0.093160 -0.163454 -0.255611 -0.196669 -0.038801 0.055703 0.137290 -0.448043 0.160235 0.077544 0.012689 0.058591 0.051512 -0.523529 -0.054390 0.298399 -0.224435 0.135942 0.044516 0.594033 -0.070611 0.039988 -0.134292 0.236199 -0.042184 0.098867 -0.206164 -0.181253 -0.025528 -0.108910 0.349863 0.264005 -0.181161 0.179972
associated 0.303001 -0.217770 0.387493 0.043013 0.491633 -0.243480 0.106248 -0.076567 0.260633 -0.187465 0.046317 0.604781 0.076724 -0.353063 0.088863 0.330794 -0.036455 0.187498 -0.067921 0.631781 0.113943 -0.413408 -0.102837 0.250099 -0.139921 -0.031671 0.079617 0.139763 -0.126973 0.134228 0.279639 -0.021057 0.374430 -0.164208 -0.021031 0.182136 0.045399 0.369182 0.125128 -0.762958 0.024620 -0.096713 0.485376 -0.097862 -0.380932 0.141544 -0.210020 -0.048129 0.125330 -0.050667
cu 0.017241 -0.128708 0.079017 0.044855 0.135723 -0.285975 -0.270447 -0.388373 0.058133 -0.131735 0.019917 -0.490578 -0.222247 0.294536 0.112507 -0.352594 0.001093 -0.441773 -0.022687 0.044470 0.038252 0.061918 -0.067760 -0.029792 -0.007446 0.106228 0.276077 -0.075988 0.494134 0.188566 -0.348602 -0.233226 0.157093 0.269494 -0.080269 -0.024681 0.052982 -0.095305 -0.459462 0.035083 0.327941 0.196643 0.025607 0.228855 0.158699 -0.124449 0.540490 -0.087164 -0.383866 0.223449
error 0.061272 -0.277217 0.023821 0.308768 -0.151059 -0.288504 -0.136136 -0.380186 -0.386818 -0.276160 -0.064982 -0.312969 -0.551770 0.236603 -0.288441 -0.266407 0.012758 -0.593413 0.174105 -0.199660 0.222091 0.087464 -0.258123 -0.467038 -0.098568 0.213369 0.114411 0.133200 0.483339 -0.163885 -0.214862 -0.211531 -0.162752 0.462763 0.014165 0.170931 -0.181271 0.037472 -0.328343 0.530891 0.454233 0.156898 -0.127563 0.272659 0.267535 -0.358792 0.508526 0.088371 -0.244748 0.239465
manage 0.045156 -0.116864 0.266595 -0.400994 -0.057003 0.225348 0.411363 0.657293 -0.217495 -0.000038 0.482876 0.191176 0.180470 0.023816 -0.086491 -0.008703 0.351406 0.279102 0.049542 0.076267 0.057922 -0.134865 -0.257220 -0.137760 -0.325250 -0.009405 -0.396990 0.109880 0.136359 0.254658 -0.158230 0.065715 -0.131185 -0.493914 -0.025079 -0.078004 0.316715 -0.263067 0.407895 0.086077 -0.180064 -0.005404 -0.127438 0.028429 0.235846 0.245477 -0.736778 0.091039 0.282429 -0.325580
management 0.156339 0.123234 -0.181377 0.314739 -0.086251 -0.002512 -0.276416 0.071392 -0.051921 -0.269142 -0.019583 0.003514 -0.437330 -0.112102 -0.102020 -0.085014 -0.052487 0.080721 0.428016 -0.258627 -0.088080 0.103552 -0.011635 0.114754 -0.098790 -0.003643 -0.092661 0.037489 -0.217578 -0.051412 -0.296867 0.142482 -0.020868 0.268339 0.224334 0.243707 -0.100343 0.133211 0.092220 0.393382 0.250156 -0.019552 -0.161717 0.145653 -0.075072 -0.399937 0.310786 0.110336 -0.060354 0.114945
customer 0.226613 0.112901 -0.185454 0.016297 0.101893 0.070933 -0.169572 0.004625 -0.024872 -0.053168 0.028072 0.273586 0.002963 -0.180298 0.114266 0.031803 -0.115410 0.092453 0.180643 -0.091104 0.011109 0.107172 0.053037 0.143799 -0.158903 -0.050683 -0.112229 -0.028243 -0.221617 -0.054871 -0.071943 0.158266 0.157342 -0.003563 -0.010918 -0.150391 -0.091392 0.157590 0.073062 0.039880 -0.006197 0.123274 -0.013675 0.042070 -0.025379 -0.098699 -0.004947 0.124635 0.198525 -0.083883
identified -0.109250 -0.412269 0.412481 -0.496648 -0.491407 0.536207 0.424686 0.308246 -0.856495 -0.076438 0.233266 0.166933 0.264468 0.290247 -0.781157 0.351062 0.192804 0.271066 0.272925 0.077213 0.234409 -0.340838 -0.609010 -0.192611 -0.259566 0.080883 -0.215053 0.286850 0.239499 -0.006288 0.233979 -0.178988 -0.651770 -0.472609 0.183262 0.078126 -0.122462 -0.072938 0.573588 0.373714 -0.169410 0.171731 -0.178569 -0.619742 0.338076 0.141957 -0.362563 0.159163 0.253888 -0.069855
if 0.048393 0.058973 -0.231618 0.156694 0.025673 0.106394 -0.104292 0.066675 -0.244902 -0.101121 -0.182185 0.247452 -0.093922 -0.157075 -0.088727 0.064431 0.028553 0.005799 -0.040896 -0.315358 0.026142 0.213568 -0.002327 -0.108110 -0.050277 -0.066061 -0.133513 -0.074702 -0.279338 -0.343839 0.080251 0.325100 -0.083586 -0.006601 -0.057480 0.114212 -0.171372 0.212060 0.252013 0.234957 -0.142696 0.106646 -0.135705 -0.153419 -0.014668 -0.068650 -0.052383 0.228521 0.248330 -0.091822
modify 0.092524 0.060357 0.038178 -0.414634 0.203993 0.001518 0.045610 0.029494 0.417704 0.218234 0.071316 0.065861 0.469640 -0.243557 0.453909 0.213909 -0.418603 0.240928 -0.055484 0.481866 -0.154703 -0.196352 0.212651 0.238166 0.086525 -0.113343 -0.101906 0.025904 0.093832 0.438391 0.158611 -0.221249 0.234102 -0.037690 -0.121204 -0.681028 0.226270 -0.001959 -0.337044 -0.648801 -0.176510 -0.088274 0.233384 -0.046580 0.015220 0.115252 -0.340036 -0.259638 -0.083372 -0.219291
you -0.229093 0.007577 -0.191990 0.173604 -0.261457 0.171176 0.064139 0.263418 -0.393533 0.140355 -0.186268 -0.162693 -0.078977 0.215552 -0.134671 0.022635 0.118023 -0.068427 -0.037894 -0.556550 -0.039926 0.211880 -0.076661 -0.070160 0.120200 -0.124749 -0.038568 -0.218667 -0.270463 -0.328760 0.041365 0.242527 -0.462292 -0.073025 0.163950 0.386771 -0.160435 -0.002519 0.309657 0.640288 -0.081901 -0.040109 -0.407287 -0.158666 0.017440 0.048002 -0.148048 0.162375 -0.019054 0.106852
selects 0.282551 -0.316866 0.601398 -0.799015 0.052230 0.148020 0.291907 0.243946 -0.266078 -0.142828 0.538789 0.442372 0.293435 -0.175672 -0.280726 0.248528 0.184994 0.334668 0.330498 0.591186 0.322758 -0.595456 -0.505233 -0.100206 -0.545152 -0.018548 -0.350869 0.381452 0.437727 0.428829 -0.035332 -0.174270 0.151530 -0.478768 -0.065484 -0.435100 0.211579 0.010214 0.321383 -0.326618 -0.195552 0.187530 0.159321 -0.151372 0.471720 0.085372 -0.632851 0.121621 0.292867 -0.331690
application -0.125176 0.045507 -0.101143 0.044567 -0.176402 0.033177 0.097563 0.082333 -0.296839 -0.010091 -0.072143 -0.135615 -0.053230 0.242271 -0.143635 0.017269 0.065119 -0.052923 0.061315 -0.315985 0.025999 0.040913 -0.115149 -0.096048 0.040400 -0.027010 -0.007953 -0.064998 -0.054557 -0.162863 0.023608 0.071036 -0.362899 0.018945 -0.002926 0.171917 -0.117797 -0.029337 0.185749 0.398194 -0.028769 -0.039482 -0.273601 -0.118175 0.064205 -0.029542 -0.007384 0.165069 0.018023 0.054527
recorded 0.177737 0.219675 0.150079 0.350761 -0.261219 0.330346 -0.139904 -0.235141 -0.122124 -0.071254 -0.262358 0.488626 0.117441 -0.096674 -0.624748 0.162868 -0.022974 0.108783 0.400700 -0.158405 0.378453 -0.197713 -0.342989 -0.000612 -0.104988 0.163004 0.148026 0.192545 -0.390227 -0.399623 0.280006 0.053028 -0.207802 -0.250954 0.063515 0.156359 -0.302235 0.334791 0.639335 0.250721 0.032778 0.144659 0.103145 -0.015688 -0.097769 -0.244468 0.406925 0.078451 0.290895 0.025444
related -0.186690 -0.018423 -0.030433 -0.391896 -0.223030 0.401320 0.209569 0.528228 -0.168071 0.165734 0.090867 -0.116555 0.295292 0.130153 0.158672 0.021084 0.082997 0.050691 -0.270083 -0.096247 -0.159786 0.114346 0.055853 -0.131527 0.005182 0.031622 -0.262181 -0.100350 0.152066 0.085600 0.000386 0.010947 -0.340651 -0.324346 -0.193091 -0.362790 0.209319 -0.363695 0.204340 0.018531 -0.352768 -0.043977 -0.112880 0.013182 0.189790 0.218723 -0.665997 0.090772 0.254964 -0.463338
create 0.067049 -0.017143 0.274352 -0.265949 0.358271 -0.171129 0.054959 -0.056365 0.480423 0.195824 0.120649 0.008012 0.355205 -0.168471 0.430227 0.114060 0.023045 0.112113 -0.312440 0.553093 -0.074344 -0.267882 0.155995 0.221276 0.192427 -0.048306 0.105221 -0.077430 0.094929 0.353896 0.208768 -0.167580 0.460921 -0.199997 -0.131750 -0.259919 0.228553 -0.063720 -0.233110 -0.734837 -0.165326 -0.147046 0.315860 -0.006302 -0.106057 0.329550 -0.241791 -0.219842 0.018953 -0.001774
decides -0.068670 -0.175125 0.258655 -0.491272 -0.154095 0.205831 0.484176 0.652658 -0.269333 0.044617 0.472689 -0.024927 0.184653 0.147656 -0.108906 -0.001939 0.403572 0.200494 -0.039829 0.072314 -0.022921 -0.147084 -0.226134 -0.237941 -0.257046 -0.000021 -0.400979 0.143421 0.308436 0.313543 -0.248512 -0.057353 -0.216386 -0.449879 -0.006442 -0.162106 0.381387 -0.378841 0.300207 0.138788 -0.205375 -0.010212 -0.190079 0.011648 0.348897 0.211007 -0.782941 0.043073 0.224466 -0.365650
when 0.068656 -0.252104 -0.019095 0.146045 -0.136128 -0.210135 -0.085107 -0.419974 -0.437611 -0.129518 0.018944 -0.143666 -0.294942 0.117964 -0.131450 -0.126910 -0.069947 -0.429014 0.163243 -0.082409 0.259407 0.098170 -0.244770 -0.504807 -0.035669 0.199103 0.024865 0.138747 0.500202 -0.074927 0.003848 -0.296563 -0.148739 0.392707 -0.045358 -0.192241 -0.231273 0.091391 -0.443459 0.382558 0.373571 0.176859 -0.047219 0.239807 0.289605 -0.253662 0.297857 0.051739 -0.079859 0.117669
client 0.120185 -0.037802 0.050032 -0.075239 -0.006094 0.134297 0.004448 0.042120 -0.201191 -0.146843 0.074677 0.413968 -0.013590 -0.163495 -0.215035 0.101560 0.012577 0.207290 0.184764 -0.003006 0.190310 -0.087709 -0.145648 -0.042201 -0.229680 -0.021242 -0.156778 0.100111 -0.099858 -0.098620 0.079283 0.124260 -0.010969 -0.112786 -0.025410 0.023071 -0.060897 0.194190 0.234298 0.020149 -0.061990 0.109593 0.029842 -0.102511 0.020957 -0.078318 -0.114365 0.192218 0.185603 -0.112119
elements -0.020051 0.196586 -0.247901 -0.084178 0.173136 -0.132686 -0.179534 -0.091953 0.345629 0.110623 0.071853 -0.143006 0.146283 -0.119389 0.451505 -0.078950 -0.299586 0.043678 -0.132230 -0.028307 -0.249447 0.178534 0.285313 0.055642 0.177843 -0.056083 -0.018126 -0.127220 0.039982 0.191369 0.022825 -0.124647 0.079605 0.217944 -0.044459 -0.369123 0.159763 0.012544 -0.408249 -0.289637 0.031732 -0.083591 0.072778 0.075255 -0.068875 0.026716 -0.128427 -0.210980 -0.243809 -0.124041
performs -0.007787 -0.327702 0.445991 -0.405662 0.121761 -0.271787 0.315850 -0.140889 0.121074 -0.009863 0.167827 -0.366103 0.118002 0.031445 -0.075767 0.105794 0.183526 -0.160769 -0.174000 0.664126 -0.077322 -0.424434 -0.122892 -0.247923 0.038580 0.014458 0.047535 0.356693 0.721790 0.519586 -0.136662 -0.449119 0.203716 -0.042770 -0.002397 -0.302528 0.271110 -0.218951 -0.293299 -0.353885 0.061850 -0.075298 0.238287 -0.001506 0.294126 0.012155 -0.254207 -0.334581 -0.119896 -0.013541
saves 0.256856 -0.108565 0.368701 -0.150213 -0.084764 0.220415 -0.025915 0.065635 -0.175595 -0.156043 0.281296 0.436909 0.071516 -0.070071 -0.260378 0.083507 0.152771 0.137464 0.348559 0.140774 0.287583 -0.206124 -0.345048 0.037894 -0.297726 0.078049 -0.103083 0.201331 -0.044320 -0.020561 0.064034 0.034457 0.139111 -0.256522 0.024128 0.033868 -0.078648 0.064730 0.331139 0.010340 -0.046680 0.137744 0.016614 -0.090661 0.103123 0.043179 -0.005251 0.148888 0.181617 -0.036487
subordinate 0.135928 -0.068724 0.454753 -0.149297 0.489738 -0.189323 0.116707 -0.172226 0.449168 0.015510 0.072772 0.365470 0.284031 -0.321514 0.206066 0.231430 0.046757 0.324953 -0.182089 0.699263 0.055601 -0.476781 0.023341 0.195841 0.140727 -0.078837 0.085859 0.043121 -0.052006 0.229500 0.340155 -0.072765 0.484294 -0.287466 -0.084200 0.023617 0.160303 0.199307 -0.057247 -0.863179 -0.184031 -0.118645 0.421480 -0.156989 -0.229491 0.289545 -0.224608 -0.135053 0.111025 0.078010
through -0.138129 0.012896 -0.152336 -0.039797 0.009568 -0.177275 -0.407865 -0.183814 0.200909 0.034229 0.061964 -0.602682 -0.135086 0.440734 0.164281 -0.550864 0.049224 -0.499377 -0.120163 -0.197194 -0.114756 0.339650 0.134629 0.123364 0.054360 0.074027 0.350120 -0.237078 0.315998 0.142039 -0.542064 -0.028420 0.167574 0.208123 -0.102996 -0.013824 0.122567 -0.279272 -0.383142 0.085396 0.232785 0.266275 -0.077184 0.242217 0.113832 -0.065389 0.618388 -0.090074 -0.442166 0.198081
any -0.113494 0.013424 -0.121889 0.062358 -0.089341 0.082714 0.069252 -0.028764 -0.117749 -0.092830 -0.027553 0.148778 -0.191159 -0.032059 -0.278648 0.003185 -0.074357 0.199922 0.049713 -0.145168 0.042287 0.019540 0.057284 -0.132707 -0.011170 -0.052413 -0.061215 -0.001211 -0.174322 -0.261378 0.048281 0.166666 -0.181825 0.009555 0.079333 0.257982 -0.095410 0.108326 0.046588 0.122224 -0.057238 0.052867 -0.088647 -0.132391 -0.060425 -0.082582 0.041097 0.178001 -0.079910 0.030551
gis -0.013600 0.134198 -0.213983 -0.068410 0.184870 -0.199217 -0.177562 -0.124477 0.362091 0.098310 0.055685 -0.222322 0.121358 -0.092574 0.446894 -0.102463 -0.300458 -0.064518 -0.170411 0.033272 -0.277838 0.150733 0.276275 -0.004625 0.204370 -0.031583 0.003698 -0.074423 0.147488 0.229604 -0.008986 -0.175105 0.095160 0.272651 -0.044049 -0.404914 0.176690 -0.014570 -0.476555 -0.314264 0.073151 -0.098158 0.095912 0.096528 -0.035672 0.008257 -0.121677 -0.267335 -0.283569 -0.099478
has 0.056221 0.007277 -0.164119 0.156470 0.127413 -0.147248 -0.123814 -0.176427 0.044018 -0.035736 -0.183720 -0.029382 -0.104121 -0.036305 0.043814 -0.021111 -0.042677 -0.165395 -0.092658 -0.059338 -0.060259 0.123412 0.108529 -0.091666 0.065070 -0.036566 0.091395 -0.025229 -0.052032 -0.127225 -0.043293 0.092458 0.111301 0.118306 -0.038713 0.035214 -0.062674 0.076088 -0.069853 0.005456 0.069294 0.028302 0.018241 0.074272 -0.076968 -0.086261 0.171850 -0.004394 0.020154 0.065921
network -0.048755 0.093744 -0.148928 0.273734 -0.017714 -0.072889 -0.040008 -0.103706 0.014841 -0.010202 -0.221970 -0.065841 -0.187044 0.002983 0.000850 -0.125490 -0.096267 -0.058469 0.033025 -0.257326 -0.016691 0.122477 0.090034 -0.017590 0.077138 0.004085 0.011245 -0.108024 -0.135403 -0.231965 -0.000146 0.134709 -0.055266 0.097344 0.009208 0.211431 -0.089301 0.100569 -0.040454 0.169757 0.044586 -0.033107 -0.118006 0.026890 -0.105126 -0.113158 0.165229 0.052775 -0.060573 0.122157
notified 0.059532 0.018371 -0.091946 0.338903 0.111870 -0.053656 -0.166151 -0.130061 -0.034911 -0.114416 -0.201199 0.147434 -0.095897 -0.137426 -0.070642 0.030207 0.026830 -0.063956 -0.064325 -0.055165 -0.051837 0.132555 0.042501 0.030419 0.033466 0.022377 0.089215 0.073994 -0.187442 -0.195753 0.069126 0.127680 0.065829 0.114582 0.032513 0.187210 -0.136066 0.203542 0.087566 0.024977 0.130768 -0.019218 0.117974 -0.014011 -0.246951 -0.117859 0.172777 -0.042194 0.155497 0.043741
step -0.187383 0.028266 -0.180626 -0.066819 0.054540 -0.181444 -0.456301 -0.127065 0.337421 0.182677 0.093635 -0.735173 -0.029240 0.454336 0.308854 -0.543200 0.070240 -0.546282 -0.285766 -0.142595 -0.231159 0.427822 0.296231 0.242421 0.172462 0.107459 0.390531 -0.314389 0.285598 0.203925 -0.510679 -0.034125 0.292661 0.179822 -0.116792 -0.102731 0.189881 -0.397084 -0.465972 -0.034963 0.160529 0.202923 -0.062848 0.245507 0.056455 0.072161 0.595761 -0.196570 -0.404200 0.195974
water -0.059770 0.115364 -0.190029 0.274590 -0.004444 -0.217404 0.000286 -0.216043 0.081451 -0.015472 -0.158935 -0.211547 -0.264110 0.009406 0.065503 -0.208676 -0.164910 -0.143669 0.017741 -0.194980 -0.073578 0.144517 0.143373 -0.030955 0.095101 -0.026222 0.055513 -0.144624 0.013633 -0.082635 -0.130191 0.002807 -0.064078 0.308169 0.049653 0.161210 -0.035729 0.021918 -0.237817 0.196542 0.187050 -0.061042 -0.060819 0.169599 -0.070785 -0.207561 0.237589 -0.025561 -0.295000 0.232127
ends 0.026634 -0.063349 0.005587 0.127399 0.132415 -0.293769 -0.260570 -0.432393 0.053485 -0.048862 -0.035155 -0.461390 -0.190251 0.223591 0.185014 -0.284395 -0.056475 -0.381207 -0.049796 0.020900 0.012775 0.110311 -0.022529 -0.031432 0.053456 0.102437 0.254377 -0.102748 0.414534 0.157720 -0.246971 -0.235061 0.138935 0.301178 -0.065474 -0.068354 0.004937 -0.063718 -0.482102 0.034968 0.290998 0.126828 0.029522 0.241015 0.105007 -0.111427 0.469526 -0.095121 -0.296803 0.221288
includes -0.012238 0.134091 -0.001800 -0.107288 0.370417 -0.141194 -0.041519 -0.039539 0.601878 0.321814 -0.026171 -0.098745 0.468547 -0.186479 0.737498 0.166696 -0.066673 0.109056 -0.462628 0.465557 -0.243006 -0.014445 0.331626 0.417379 0.291146 -0.117128 0.178429 -0.127681 -0.099681 0.344483 0.260535 -0.199778 0.488809 -0.084232 -0.181213 -0.414551 0.201365 -0.107112 -0.345739 -0.819800 -0.186811 -0.237573 0.307405 0.045001 -0.293447 0.355353 -0.173289 -0.395455 0.124462 -0.145376
its -0.050605 0.058068 -0.228836 0.255904 0.001094 -0.064932 -0.099518 0.045810 -0.031221 -0.079268 -0.113131 -0.010984 -0.244760 0.011723 0.033948 -0.032437 -0.062533 -0.041045 0.017705 -0.261353 -0.047784 0.171198 0.088102 0.093509 0.025986 -0.027435 0.055470 -0.092150 -0.194897 -0.151288 -0.002188 0.134192 -0.071492 0.184815 0.018324 0.250416 -0.132614 0.095297 0.003694 0.215782 0.084351 -0.095599 -0.139400 0.034034 -0.163426 -0.073374 0.161963 0.042101 -0.018492 0.101345
made 0.151043 0.100005 0.192346 -0.053566 0.022314 0.123537 -0.112451 -0.087378 0.221828 0.056918 0.097871 0.227984 0.261742 -0.139823 0.087163 0.070541 0.042115 0.049583 0.056264 0.154602 0.076036 -0.059374 -0.013042 0.157877 -0.072029 0.116043 0.045040 0.011417 -0.142113 0.021613 0.154975 -0.007064 0.289819 -0.213890 -0.053049 -0.137983 -0.028217 -0.008928 0.115530 -0.233808 -0.058584 0.017095 0.111813 0.048732 -0.049644 0.121762 0.057400 -0.048564 0.141910 -0.081488
notify 0.083301 0.217984 -0.171990 0.056932 0.267163 -0.121694 -0.222973 -0.172296 0.387404 0.173542 -0.049145 -0.000463 0.177183 -0.128130 0.460862 -0.013109 -0.138690 0.040232 -0.111197 0.121891 -0.145658 0.123137 0.272579 0.347513 0.129489 -0.064312 0.152731 -0.183913 -0.203170 0.106399 -0.006302 0.009613 0.371850 0.026697 -0.058406 -0.166516 0.034175 0.042491 -0.238481 -0.355671 -0.006436 -0.016579 0.150269 0.112208 -0.198323 0.075298 0.105499 -0.145975 0.036262 0.046302
type 0.011653 0.199628 -0.320839 0.037475 0.058995 0.025474 -0.107611 -0.047326 0.054904 0.010028 -0.035569 0.033926 -0.041511 -0.103584 0.188813 -0.032037 -0.171857 0.146369 0.002109 -0.199300 -0.049726 0.158957 0.213988 0.087491 0.035860 -0.096686 -0.077061 -0.174085 -0.167905 -0.049186 -0.030630 0.081270 0.021021 0.142647 -0.012793 -0.080169 -0.033265 0.075378 -0.112581 -0.017622 -0.021768 0.071335 -0.055261 0.009498 -0.088036 -0.083409 0.014411 0.093802 -0.094866 -0.058369
which 0.039278 0.199112 -0.160156 0.177816 -0.097926 0.242035 -0.093338 0.097652 -0.084974 0.008140 -0.221861 0.381108 0.066368 -0.133549 -0.184214 0.178665 -0.044798 0.202398 0.114989 -0.238600 0.072694 0.094896 -0.047772 0.107509 -0.025617 0.010349 -0.052870 -0.045521 -0.466925 -0.303687 0.265643 0.243975 -0.129855 -0.101604 0.014851 0.120378 -0.206021 0.255117 0.412813 0.212434 -0.130025 0.035895 -0.033852 -0.146513 -0.104121 -0.030789 0.053125 0.122167 0.270714 -0.050742
add -0.095769 0.086470 -0.186157 -0.132902 0.175679 -0.126813 -0.126146 0.017788 0.410111 0.278633 0.034415 -0.416798 0.253889 -0.024829 0.545666 -0.104244 -0.157285 -0.181291 -0.447924 0.119632 -0.380121 0.211466 0.380094 0.148614 0.301309 -0.017431 0.047191 -0.166567 0.176208 0.294986 -0.032606 -0.194729 0.207796 0.121221 -0.146271 -0.441859 0.272388 -0.248321 -0.403458 -0.403993 -0.046524 -0.111321 0.102899 0.110434 -0.020935 0.158480 -0.159944 -0.348579 -0.188049 -0.114729
occurs -0.012518 -0.233572 -0.061256 0.328548 -0.161885 -0.300235 -0.080218 -0.500811 -0.412547 -0.145900 -0.133687 -0.326965 -0.430557 0.190908 -0.185779 -0.202376 -0.053112 -0.549965 0.090918 -0.166224 0.184783 0.157243 -0.200197 -0.563362 0.069888 0.204330 0.117390 0.128308 0.504449 -0.162870 -0.048970 -0.290622 -0.226162 0.509149 0.005186 0.010571 -0.245808 0.062201 -0.467931 0.490245 0.455628 0.110967 -0.082822 0.259843 0.235322 -0.319776 0.430774 0.003001 -0.187508 0.228115
specified -0.431721 -0.128457 -0.058069 0.398258 -0.164647 -0.193230 0.159527 -0.400724 -0.080238 -0.130783 -0.255287 -0.491829 -0.632142 0.228589 -0.565445 -0.307440 0.087743 -0.303318 -0.368077 -0.179418 -0.134482 0.108209 0.215991 -0.543862 0.306910 0.083936 0.122249 0.069583 0.191958 -0.479738 -0.133725 0.179015 -0.253064 0.236939 0.084454 0.566751 -0.021197 -0.047949 -0.324872 0.244679 0.066742 0.032205 -0.186595 -0.096763 -0.026987 -0.163589 0.403324 0.122840 -0.340800 0.238251
this -0.079598 0.106694 -0.165967 0.207896 -0.014848 -0.007881 -0.060033 -0.110724 0.013345 -0.005010 -0.132878 -0.038660 -0.180646 -0.001079 -0.066003 -0.055232 -0.027100 -0.014949 -0.028019 -0.210214 -0.043198 0.158895 0.123040 -0.030260 0.075533 -0.012548 0.044899 -0.074748 -0.164788 -0.190213 0.019736 0.145768 -0.047727 0.125557 0.040569 0.189342 -0.089402 0.103056 -0.029020 0.128781 0.028759 0.019696 -0.070210 -0.031758 -0.106148 -0.089454 0.215210 0.034613 -0.053046 0.092703
able -0.348622 -0.088041 -0.032902 -0.119810 -0.335879 0.336555 0.229000 0.405639 -0.347806 0.247085 0.001326 -0.322408 0.170849 0.364830 -0.075616 0.070383 0.233556 0.015753 -0.166296 -0.302211 -0.112189 0.176866 -0.070842 0.007864 0.180324 -0.028072 -0.046569 -0.150026 -0.077792 -0.111087 0.141850 0.021070 -0.514415 -0.264882 0.132505 0.240232 -0.032399 -0.234411 0.292666 0.443872 -0.168854 -0.086740 -0.343370 -0.300908 0.065538 0.291687 -0.315559 0.012012 0.030069 -0.008278
all 0.032256 0.103355 -0.117488 0.090791 -0.056250 0.071114 -0.070138 0.037188 -0.080674 -0.066676 0.012581 0.157436 -0.080515 -0.046585 -0.068564 -0.018739 -0.051010 0.118239 0.158617 -0.176119 0.075596 0.040729 -0.036479 0.028627 -0.069054 -0.043479 -0.071465 -0.055872 -0.177597 -0.123361 -0.019909 0.151588 -0.083580 0.016943 0.032495 0.106075 -0.072718 0.108794 0.147184 0.158055 -0.011953 0.061491 -0.087686 -0.019735 -0.024741 -0.093290 0.066789 0.139084 0.025748 0.015803
close 0.167214 -0.013411 0.238396 -0.543634 0.266019 0.046166 0.044836 0.132409 0.382624 0.191377 0.279838 0.102648 0.518834 -0.152988 0.454563 0.185181 -0.015342 0.103241 -0.222354 0.544716 -0.047802 -0.239596 0.118785 0.287480 -0.054526 -0.020261 -0.069729 0.000201 0.130154 0.453264 0.114787 -0.197345 0.468583 -0.283769 -0.252710 -0.671715 0.258482 -0.139379 -0.102038 -0.766175 -0.296665 -0.031174 0.272278 -0.015633 0.112056 0.371410 -0.384445 -0.109078 0.158135 -0.307418
company -0.005902 0.057744 -0.097346 0.025469 -0.064327 -0.057315 -0.022282 -0.017004 0.002980 0.018639 -0.016558 -0.159814 -0.085572 0.016155 0.093692 -0.126786 -0.085329 -0.100227 0.025383 -0.148142 -0.070339 0.097913 0.086745 -0.000796 -0.058091 0.049826 -0.032919 -0.105140 0.122948 0.067158 -0.185362 -0.032452 -0.017323 0.133684 -0.004250 -0.081986 0.065239 -0.066356 -0.127959 0.097417 0.081754 -0.006377 -0.041663 0.190143 0.049592 -0.128813 0.025301 -0.007298 -0.107707 -0.030091
consult 0.015651 -0.092216 0.141278 -0.067491 0.238322 -0.377478 0.040479 -0.270135 0.252831 0.064211 0.019715 -0.057110 0.003223 -0.085927 0.158746 0.053299 -0.064605 -0.027467 -0.042208 0.434882 -0.003534 -0.168711 0.033524 0.013147 0.121317 -0.077049 0.220684 0.081587 0.173092 0.258660 0.022187 -0.152657 0.235098 0.102493 0.035567 -0.047932 0.084188 0.093401 -0.272604 -0.348666 0.117505 -0.129371 0.274654 0.122500 -0.086546 0.012843 -0.054975 -0.200742 -0.202878 0.164548
no 0.098464 -0.126319 0.268358 0.129911 0.145108 -0.005244 0.115687 -0.032774 0.100921 -0.059015 -0.132452 0.275217 0.191846 -0.168334 -0.107468 0.271451 0.032654 0.114882 -0.095283 0.392899 0.046872 -0.266888 -0.082293 0.089867 0.069568 0.037656 0.070266 0.210722 -0.084380 0.002078 0.274171 -0.073363 0.063450 -0.158965 0.017895 0.126044 -0.036344 0.141047 0.197815 -0.397279 -0.041405 -0.092161 0.328162 -0.196669 -0.269458 0.108359 -0.028385 -0.168173 0.174036 -0.025293
our 0.095065 -0.078358 0.143057 0.090317 -0.107309 0.042801 -0.000990 0.115527 -0.077877 -0.154285 0.077539 -0.006984 -0.225172 -0.006310 -0.232489 -0.042398 0.144536 -0.054028 0.190717 -0.005153 0.027392 -0.066385 -0.094238 -0.085502 -0.078410 0.039314 -0.056219 0.151309 0.043424 -0.019932 -0.166592 -0.001722 -0.018754 0.019326 0.115236 0.170428 -0.007677 -0.064064 0.130907 0.218396 0.092411 -0.010353 -0.086175 0.034381 0.069271 -0.117770 0.096806 0.024739 -0.027259 0.060586
assigned -0.034883 0.158378 -0.082850 0.229624 0.201849 0.075950 -0.098777 0.034770 0.145925 0.031657 -0.125719 0.263327 0.122205 -0.249882 0.155961 0.097375 0.067004 0.200681 -0.202975 -0.011690 -0.103947 0.151319 0.121407 0.217846 0.132093 -0.074487 -0.005435 -0.115537 -0.414008 -0.150003 0.230823 0.211799 0.131690 -0.059270 -0.025959 0.178043 -0.083950 0.190412 0.151589 -0.178098 -0.090168 -0.094786 0.116030 -0.119264 -0.302006 0.118148 -0.036474 -0.069027 0.257382 -0.039363
continues -0.192933 -0.067506 -0.140943 0.150025 -0.002500 -0.319762 -0.336486 -0.290342 0.147992 -0.048757 -0.072225 -0.815599 -0.339785 0.493464 0.082339 -0.577362 0.069173 -0.654938 -0.152546 -0.211251 -0.179667 0.314639 0.140787 -0.049683 0.138784 0.085837 0.394550 -0.165753 0.450215 0.101169 -0.586166 -0.101260 0.055616 0.375120 -0.023049 0.137749 0.104614 -0.292855 -0.494187 0.235590 0.388149 0.170425 -0.110427 0.289890 0.103339 -0.183420 0.702388 -0.155743 -0.574963 0.317299
does -0.301278 -0.112515 -0.068150 0.085920 -0.107032 0.039665 0.177219 -0.035372 -0.194761 -0.159276 -0.076513 -0.034100 -0.395553 0.078537 -0.490002 -0.085133 0.198301 -0.011184 -0.252592 -0.249639 -0.005162 0.129881 0.113434 -0.457723 0.109430 -0.027944 -0.084090 0.030571 -0.020277 -0.442319 -0.042746 0.290814 -0.223983 -0.043482 0.009541 0.468044 -0.000653 0.004885 0.029972 0.281599 -0.158246 0.098634 -0.225751 -0.197562 0.032419 -0.048950 -0.006347 0.284265 -0.077175 0.005724
product -0.036096 -0.006039 -0.060127 0.142989 -0.049528 -0.074391 -0.062284 -0.113734 -0.120550 -0.067925 -0.040837 -0.033144 -0.257135 0.036166 -0.151154 -0.127314 0.023963 -0.058759 0.134611 -0.159592 0.075605 0.057808 -0.042851 -0.127616 -0.023456 0.006025 0.048290 0.029245 -0.003722 -0.133192 -0.118162 0.077891 -0.063783 0.129040 0.086424 0.216645 -0.090404 0.077747 -0.040200 0.251420 0.147221 0.048744 -0.105765 0.080095 0.029870 -0.144855 0.141132 0.062734 -0.092034 0.144702
supply -0.047947 0.189392 -0.279393 0.407225 -0.024136 -0.105552 -0.019261 -0.159987 0.032318 -0.042969 -0.238590 -0.037708 -0.268397 -0.041494 0.038519 -0.131216 -0.226236 -0.027062 0.131493 -0.334956 -0.020666 0.137683 0.125032 0.075253 0.093743 -0.080036 0.036780 -0.193275 -0.267224 -0.247637 -0.004651 0.174682 -0.149994 0.261679 0.057000 0.268553 -0.169924 0.166544 -0.066546 0.295005 0.120249 -0.109824 -0.176723 0.044852 -0.130524 -0.173693 0.259249 0.073398 -0.126192 0.254216
urgency 0.123669 0.397454 -0.431979 -0.066824 0.159275 0.091714 -0.175944 -0.037335 0.358166 0.077009 -0.056745 0.253142 0.152673 -0.248478 0.569914 0.069631 -0.388935 0.427590 0.166570 -0.114023 -0.040305 0.099445 0.369779 0.382224 -0.008692 -0.138924 -0.113938 -0.258911 -0.373826 0.093071 0.051507 0.088109 0.213123 0.139882 -0.042865 -0.320663 -0.122209 0.144812 -0.217771 -0.284768 -0.062428 0.007390 0.092367 0.100783 -0.139212 -0.011766 0.011708 0.035600 -0.052158 -0.101513
degree 0.116452 0.329107 -0.412599 0.007187 0.118055 0.016250 -0.171197 -0.096392 0.278388 0.034374 -0.063554 0.180895 0.035809 -0.180355 0.468361 0.003072 -0.342529 0.314007 0.213436 -0.154266 -0.015280 0.106402 0.311188 0.281707 -0.013930 -0.118234 -0.063077 -0.216217 -0.285360 0.071774 -0.033724 0.069714 0.177723 0.203246 0.001727 -0.218408 -0.135022 0.132124 -0.254105 -0.166256 0.059305 0.022044 0.061906 0.168263 -0.118595 -0.092655 0.097211 0.036725 -0.100371 -0.004094
different -0.028992 0.003117 -0.085277 0.125674 -0.059723 -0.048501 -0.013321 -0.054443 -0.044108 -0.049183 -0.039559 -0.018213 -0.139085 0.060674 -0.095897 -0.106472 -0.013177 -0.031793 0.115259 -0.178863 0.043500 0.057368 -0.038235 -0.063111 -0.005787 -0.020235 0.062294 0.010393 -0.015959 -0.080883 -0.086874 0.038434 -0.096856 0.083279 0.055531 0.171605 -0.068328 0.043886 0.021744 0.191455 0.090295 0.006903 -0.073078 0.075941 0.003290 -0.126211 0.140583 0.042710 -0.082616 0.106214
documentation -0.104584 0.060130 -0.127893 -0.157560 0.092927 -0.002092 -0.036038 0.164419 0.250231 0.242706 0.104855 -0.273373 0.223132 -0.012191 0.387914 -0.095781 0.012005 -0.090125 -0.394646 0.035866 -0.258311 0.204326 0.258658 0.123263 0.185243 -0.011912 -0.035106 -0.155940 0.079957 0.180968 -0.016087 -0.071495 0.171651 -0.037764 -0.157984 -0.280569 0.236943 -0.246954 -0.149397 -0.243817 -0.146021 -0.049052 0.014501 0.062988 0.031643 0.207186 -0.221242 -0.199283 -0.032940 -0.156320
existing -0.091328 -0.080318 0.028427 0.062709 0.039060 -0.340453 0.071099 -0.222738 0.024022 0.006077 -0.005583 -0.115187 -0.208627 0.042431 -0.074610 -0.086956 -0.045611 -0.046081 0.119935 0.139954 0.047515 -0.045869 -0.027195 -0.165146 0.082098 -0.079571 0.195392 0.072540 0.133828 0.072676 -0.066417 -0.028436 -0.053836 0.189217 0.154888 0.200486 -0.020432 0.099809 -0.187199 0.090481 0.232290 -0.115909 0.095188 0.157613 -0.040000 -0.112853 0.022896 -0.100183 -0.290073 0.273249
generate 0.068665 -0.087605 0.220643 -0.423784 0.151052 -0.003827 0.126515 0.140531 0.256542 0.183548 0.180708 -0.041893 0.369537 -0.043040 0.347575 0.134244 0.021892 0.000950 -0.230398 0.411576 -0.096661 -0.175211 0.077672 0.117870 0.019801 -0.017491 -0.030097 0.018384 0.188716 0.384368 0.052243 -0.247440 0.316580 -0.217554 -0.186810 -0.480097 0.243636 -0.204092 -0.149169 -0.501370 -0.207718 -0.072006 0.163124 0.011366 0.102457 0.250560 -0.337003 -0.129911 0.079707 -0.194597
maintenance -0.002112 0.143697 -0.242617 0.402944 -0.058378 -0.121640 -0.161289 -0.084488 0.051678 -0.119172 -0.173069 -0.105841 -0.377473 -0.036294 -0.004724 -0.135970 -0.062962 -0.048190 0.150951 -0.286162 -0.080763 0.167810 0.099549 0.016853 0.070250 -0.013865 0.019367 -0.093595 -0.209610 -0.174454 -0.179379 0.155729 -0.060883 0.289869 0.122549 0.281922 -0.126743 0.118258 -0.061879 0.344357 0.169424 -0.071704 -0.145132 0.110769 -0.098755 -0.266236 0.326676 0.064423 -0.132489 0.184457
making 0.055460 -0.191282 -0.071593 0.250372 -0.156160 -0.222783 -0.097199 -0.342121 -0.353829 -0.142971 -0.037035 -0.166710 -0.371043 0.112689 -0.165232 -0.138806 -0.056347 -0.380551 0.186131 -0.149021 0.165747 0.110830 -0.169240 -0.422445 -0.006267 0.160885 0.064389 0.140050 0.370943 -0.091275 -0.093482 -0.204215 -0.157824 0.398833 0.045294 -0.029053 -0.209341 0.067821 -0.364779 0.416844 0.390692 0.109092 -0.064516 0.249263 0.177206 -0.304849 0.325833 0.028370 -0.126105 0.188718
mark 0.006683 -0.108751 0.053476 -0.490550 -0.059593 0.139597 0.147231 0.385531 0.071846 0.131380 0.162520 -0.237605 0.275713 0.094673 0.343348 -0.002308 -0.014956 -0.187899 -0.299385 0.190375 -0.235766 -0.009174 0.131976 -0.103697 -0.050230 0.090281 -0.172763 -0.030836 0.388473 0.371232 -0.171504 -0.163822 0.000151 -0.171483 -0.265730 -0.676323 0.323130 -0.424314 -0.116381 -0.292478 -0.248226 -0.053359 0.050557 0.197369 0.284387 0.161289 -0.575820 0.006234 0.133507 -0.487497
policy 0.089771 -0.085617 0.083121 -0.008950 0.053440 -0.150304 0.006196 -0.045426 -0.021535 -0.085323 0.096046 0.009621 -0.099308 -0.016350 -0.092207 -0.101108 0.039284 -0.060295 0.095437 0.009943 0.039987 -0.060376 -0.046584 -0.080390 -0.098230 -0.020298 -0.039814 0.074720 0.141699 0.030764 -0.158971 0.001767 0.055550 0.068726 0.034059 0.001221 0.061605 -0.027838 -0.022872 0.035259 0.086361 0.081084 -0.024238 0.080968 0.068171 -0.076856 -0.006981 0.034281 -0.039829 0.065487
requests 0.083711 -0.183906 0.290038 -0.398850 -0.032333 0.086162 0.171399 0.080312 -0.276022 -0.108744 0.284179 0.243892 0.082332 -0.093173 -0.305750 0.118432 0.090469 0.228145 0.279399 0.263844 0.198617 -0.302064 -0.357283 -0.110400 -0.300075 -0.039647 -0.236186 0.233940 0.267658 0.181097 -0.009714 -0.057414 -0.030277 -0.239495 0.047473 -0.097592 0.082471 0.042341 0.242512 -0.010330 -0.050852 0.101748 0.021111 -0.103848 0.273791 -0.031385 -0.348092 0.067281 0.147762 -0.101300
their -0.093246 0.167459 -0.225818 0.193784 0.043878 -0.070181 -0.034044 -0.058147 0.170352 0.061810 -0.108275 -0.093204 -0.073289 -0.020060 0.174523 -0.087209 -0.113586 0.038951 -0.047430 -0.165416 -0.107867 0.152433 0.144645 0.047909 0.150641 -0.044136 0.045102 -0.129300 -0.159753 -0.067429 -0.017406 0.074929 -0.012884 0.143966 0.021956 0.103694 0.006999 0.012293 -0.141235 0.094481 0.034637 -0.073604 -0.039151 0.085628 -0.142260 -0.059991 0.076146 -0.038457 -0.131530 0.110292
user -0.047193 -0.035936 -0.058239 0.051694 -0.100028 0.013682 -0.045206 0.057864 -0.121462 0.006935 -0.014201 -0.091826 -0.125665 0.098856 -0.055721 -0.064317 0.044775 -0.081886 0.066467 -0.206472 0.029258 0.082304 -0.029651 -0.065468 0.000054 0.009640 0.025624 -0.038877 -0.018415 -0.068955 -0.063249 0.088654 -0.103004 0.046700 0.074234 0.120511 -0.050962 -0.009034 0.042975 0.239851 0.055915 0.024696 -0.141260 0.017669 0.028565 -0.034735 0.035895 0.044903 -0.029316 0.066541
we -0.217356 -0.063094 -0.055084 0.121812 -0.158304 0.013103 0.098337 -0.082226 -0.143240 -0.024693 -0.127993 -0.192796 -0.170433 0.197909 -0.271798 -0.043574 0.081616 -0.062859 -0.093924 -0.131494 0.001358 0.059020 0.036632 -0.243120 0.184031 0.017426 0.063857 0.079480 0.112456 -0.203220 -0.022663 0.003051 -0.255708 0.041927 0.049844 0.294142 -0.051862 -0.081221 -0.031891 0.229057 0.018788 -0.003140 -0.113425 -0.093969 -0.006063 -0.027477 0.113813 -0.011235 -0.111702 0.129652
brigades -0.025633 0.190784 -0.291149 0.328245 0.037791 -0.201478 -0.110369 -0.285736 0.144655 0.048129 -0.225286 -0.113565 -0.136478 -0.055864 0.080020 -0.084192 -0.180234 -0.076628 0.069254 -0.177265 -0.070116 0.074672 0.122066 0.089364 0.063749 -0.019027 0.175591 -0.100804 -0.132031 -0.079372 0.011983 -0.030962 -0.020462 0.312891 0.087524 -0.008268 -0.113958 0.100054 -0.177674 0.100617 0.244933 -0.042969 0.020856 0.143098 -0.155427 -0.205711 0.311101 -0.067042 -0.184217 0.181892
corresponding -0.064487 0.054514 -0.200002 0.207257 0.111841 -0.202513 -0.130095 -0.074580 0.158787 0.027491 -0.089881 -0.148260 -0.129947 -0.017260 0.238260 -0.073832 -0.046374 -0.093600 -0.146864 -0.078885 -0.118217 0.187366 0.183697 0.091932 0.090199 -0.042142 0.131954 -0.072275 -0.053670 0.002187 0.005642 0.015935 0.123543 0.227433 -0.026622 0.070481 -0.027935 0.015759 -0.227358 -0.014150 0.129630 -0.116625 0.000338 0.153770 -0.230521 -0.047188 0.165586 -0.126311 -0.051813 0.051498
creation 0.074907 0.060451 0.062085 -0.048004 0.174457 -0.059182 0.029318 -0.152427 0.091626 -0.061773 0.075024 0.271107 0.024163 -0.205282 0.036484 0.033803 -0.065003 0.284372 0.170300 0.159253 0.095024 -0.146582 -0.021716 0.035169 -0.074779 -0.076146 -0.088186 0.009492 -0.085233 0.054938 0.027735 0.039342 0.144775 -0.031832 -0.012856 0.036397 -0.003124 0.163227 0.014283 -0.220399 0.006222 0.047555 0.095512 -0.010191 -0.036634 -0.065737 -0.063445 0.030623 0.010105 0.023422
email 0.027896 -0.069741 0.074279 0.062946 0.011146 -0.133205 -0.035114 -0.172214 -0.116363 -0.095947 0.019408 -0.046492 -0.147679 0.057596 -0.080173 -0.111540 0.093677 -0.070400 0.047327 -0.023650 0.104637 0.012686 -0.118761 -0.187405 -0.051470 0.018601 0.029297 0.046219 0.181448 -0.025640 -0.052891 -0.013584 0.002415 0.117697 0.011666 0.096414 -0.029012 0.033873 -0.104012 0.154751 0.115976 0.037332 -0.006338 0.086030 0.071509 -0.094658 0.119315 0.037785 -0.059262 0.102034
environment -0.061436 0.045473 -0.104550 0.242624 -0.070932 -0.060322 -0.041753 -0.145335 -0.075489 -0.110612 -0.099477 -0.048755 -0.333765 0.034726 -0.262922 -0.165291 -0.025525 -0.023538 0.091194 -0.199366 0.056596 0.099475 0.012292 -0.174208 0.038424 0.037850 0.055993 0.018551 -0.061353 -0.244282 -0.105864 0.146377 -0.092219 0.151186 0.107592 0.302316 -0.070014 0.119062 -0.072422 0.285118 0.099814 0.058242 -0.126977 0.054309 0.010668 -0.173696 0.228802 0.112600 -0.141371 0.133163
location 0.075167 -0.092568 0.092227 0.006366 -0.011435 -0.044917 0.002197 -0.044847 -0.137140 -0.108301 0.054233 0.189153 -0.114607 -0.052744 -0.190789 0.020163 0.010013 0.064719 0.204053 0.016609 0.177874 -0.107335 -0.177922 -0.073617 -0.149465 0.004827 -0.030795 0.089781 0.025892 -0.031482 -0.026733 0.031121 -0.015031 -0.015904 0.058734 0.092083 -0.043832 0.119110 0.098207 0.074551 0.069862 0.055381 0.008526 0.010005 0.044744 -0.105126 0.009037 0.094958 0.034460 0.044240
mobility -0.014411 0.022453 -0.061625 0.152700 -0.061813 -0.069917 -0.051977 -0.061433 -0.049616 -0.074711 -0.099544 -0.134322 -0.165511 0.078599 -0.105391 -0.064965 -0.012920 -0.121954 0.085407 -0.113308 -0.057669 0.027560 -0.004655 -0.060818 0.049459 0.024767 0.050970 0.038982 0.042092 -0.077818 -0.080188 -0.005989 -0.096655 0.131865 0.060926 0.129472 -0.042068 0.002897 -0.028583 0.166810 0.140518 -0.020976 -0.059115 0.063754 -0.001534 -0.125782 0.173145 -0.014258 -0.121263 0.091753
workers -0.046893 0.081436 -0.156509 0.177187 -0.006997 -0.147583 -0.015877 -0.110519 0.021962 0.039784 -0.113395 -0.108404 -0.100743 0.031651 0.033438 -0.080374 -0.037763 -0.087496 0.044216 -0.161437 -0.030775 0.068463 0.022653 0.022611 0.032689 -0.038255 0.090964 -0.091226 -0.036290 -0.060610 -0.031909 0.002977 -0.065579 0.218964 0.076338 0.074081 -0.078058 0.052188 -0.111741 0.190676 0.173852 -0.032821 -0.038572 0.112516 -0.037899 -0.110399 0.131652 -0.048374 -0.136185 0.156262
assigning 0.097198 0.088486 0.070073 -0.030453 0.378901 -0.190463 -0.032461 -0.149125 0.476333 0.136878 -0.002943 0.117626 0.285515 -0.242365 0.480935 0.154138 -0.078866 0.171137 -0.235073 0.421129 -0.085632 -0.124100 0.203429 0.293677 0.129980 -0.085214 0.136089 -0.030299 -0.114853 0.263137 0.261857 -0.115500 0.441687 -0.022843 -0.113603 -0.231211 0.088740 0.082425 -0.220344 -0.682060 -0.050412 -0.188615 0.337284 0.026156 -0.285230 0.228447 -0.058224 -0.202674 0.070357 -0.035661
description -0.064231 0.063171 -0.188891 0.274936 0.095842 -0.305512 -0.038759 -0.270740 0.205342 0.040183 -0.144641 -0.272273 -0.230896 0.013566 0.160297 -0.145517 -0.092886 -0.167172 -0.045435 -0.036855 -0.143710 0.083220 0.191360 0.019423 0.156023 -0.006416 0.195108 -0.079668 0.043166 0.042934 -0.123096 -0.082996 0.027226 0.343853 0.069566 0.093929 -0.046553 0.032457 -0.345283 -0.001343 0.255024 -0.130560 0.030845 0.210066 -0.134944 -0.120428 0.249019 -0.171057 -0.292286 0.238386
etc -0.098075 -0.015459 -0.082424 0.176538 0.016813 -0.224317 -0.065265 -0.238584 0.104447 0.000424 -0.103584 -0.378033 -0.184430 0.120056 0.020510 -0.142458 -0.032491 -0.227099 -0.073948 -0.015226 -0.139763 0.070993 0.107385 -0.130071 0.169791 0.037355 0.186864 0.071002 0.208610 0.048785 -0.143668 -0.119012 -0.006982 0.244015 0.079797 0.065800 0.033723 -0.097564 -0.324443 0.067147 0.206468 -0.041119 0.019538 0.157928 -0.046088 -0.159142 0.256120 -0.139134 -0.241565 0.172651
generated -0.060316 -0.012826 -0.103480 0.274758 0.030863 -0.163002 -0.099954 -0.233911 0.068105 -0.017368 -0.254659 -0.205322 -0.124776 0.049570 -0.009024 -0.050238 0.001581 -0.240033 -0.135366 -0.030222 -0.097286 0.132907 0.093856 -0.097539 0.165764 0.025459 0.210172 0.023783 0.005501 -0.125169 0.011380 0.018332 0.032452 0.207739 0.026776 0.156922 -0.064337 0.012638 -0.127914 0.019441 0.169875 -0.072767 0.054644 0.051148 -0.133910 -0.096456 0.300201 -0.148080 -0.083204 0.171194
malaga -0.005720 0.194635 -0.258534 0.189749 0.014915 -0.070640 -0.071912 -0.155999 0.108861 0.030280 -0.157263 -0.059240 -0.125867 -0.084629 0.150203 -0.073966 -0.216098 0.035351 0.075092 -0.202385 -0.067629 0.107255 0.180772 0.100168 0.045564 -0.030134 0.016013 -0.160880 -0.143028 -0.066078 -0.041031 0.034944 0.001908 0.240022 0.064491 0.018192 -0.062942 0.106894 -0.187582 0.067598 0.118411 -0.039782 -0.027119 0.099422 -0.099546 -0.142986 0.199930 -0.026626 -0.162568 0.102126
mobile -0.042593 -0.035869 0.001119 -0.064112 -0.133364 -0.003195 0.072477 0.010187 -0.210577 -0.049734 0.021419 -0.117957 -0.048164 0.148757 -0.169579 0.019315 0.022005 -0.025791 0.099867 -0.070452 0.031605 -0.058573 -0.115327 -0.087436 -0.013655 0.004330 -0.022343 0.047611 0.155655 -0.010455 -0.039308 -0.086195 -0.194308 0.042543 0.048314 0.035424 -0.012657 -0.069179 0.031507 0.197088 0.053407 0.027921 -0.089683 -0.058283 0.080980 -0.079654 0.045147 0.034819 -0.069580 0.071886
out -0.122645 0.025909 -0.040384 0.183981 0.044944 -0.229777 -0.023293 -0.194240 0.226673 0.055934 -0.137375 -0.318306 -0.022652 0.084396 0.130578 -0.161670 0.080586 -0.225977 -0.165028 0.015928 -0.156802 0.103436 0.123616 -0.021687 0.155702 -0.021362 0.130525 -0.012773 0.160829 -0.016921 -0.090100 -0.093466 0.063432 0.187771 0.046857 0.092986 0.089473 -0.125141 -0.238899 0.054336 0.166407 -0.110830 0.066237 0.152588 -0.050297 -0.069473 0.256598 -0.151387 -0.167646 0.189056
sanitation -0.065164 0.133584 -0.256975 0.323951 -0.006936 -0.103317 -0.037209 -0.146151 0.082134 0.017836 -0.223980 -0.150168 -0.183830 0.015865 0.110240 -0.147170 -0.186870 -0.055728 0.040327 -0.274496 -0.069896 0.126522 0.179561 0.065900 0.125328 -0.058340 0.066387 -0.169578 -0.172856 -0.176575 -0.009878 0.101442 -0.098040 0.240584 0.047463 0.163391 -0.118197 0.089958 -0.123766 0.188318 0.105308 -0.081525 -0.134497 0.060012 -0.115117 -0.121192 0.241909 0.002980 -0.144937 0.199763
sends 0.124355 -0.127904 0.165772 -0.117105 -0.073719 0.075316 0.090701 0.172638 -0.203071 -0.110033 0.169796 0.165882 -0.044232 -0.011109 -0.180099 -0.005841 0.122376 0.036710 0.183829 -0.019612 0.125093 -0.105271 -0.185477 -0.090063 -0.220640 -0.016390 -0.128623 0.098287 0.069975 -0.002781 -0.077268 0.042437 -0.021897 -0.090528 0.041580 0.028828 -0.001413 -0.025708 0.177476 0.156629 -0.031616 0.085673 -0.090223 -0.028874 0.157946 -0.008699 -0.154541 0.125244 0.090421 -0.036352
these -0.110518 0.091936 -0.205445 0.308360 -0.017777 -0.211087 -0.061769 -0.214257 0.143121 -0.005554 -0.216380 -0.302006 -0.241985 0.077702 0.080616 -0.132601 -0.096099 -0.140220 -0.021183 -0.139704 -0.134464 0.112973 0.153511 -0.035455 0.199645 -0.010804 0.178376 -0.056468 0.016768 -0.055450 -0.098933 -0.014051 -0.066902 0.277423 0.095318 0.200886 -0.063383 -0.004386 -0.273393 0.148274 0.186455 -0.120432 -0.023811 0.121533 -0.135393 -0.141177 0.295428 -0.070663 -0.269049 0.222660
used -0.078197 -0.069938 0.069194 -0.084692 -0.176981 0.135408 0.115520 0.117320 -0.237791 0.034820 0.011970 -0.066505 0.069487 0.152108 -0.124712 0.067284 0.080655 0.010306 0.027336 -0.090879 0.034887 -0.014617 -0.145142 -0.067808 0.010337 -0.019885 -0.024348 0.018336 0.016553 -0.046271 0.106159 -0.024917 -0.243937 -0.089895 0.059830 0.068086 -0.063702 -0.059194 0.178980 0.201852 -0.027142 -0.025327 -0.105765 -0.170207 0.073980 0.088656 -0.104001 0.033160 0.000211 0.024316
another -0.049359 -0.008338 0.026623 -0.202597 0.023949 0.147574 0.096827 0.240414 -0.005825 0.053094 0.135674 0.020714 0.151300 -0.041103 0.062889 0.048735 0.124703 0.133692 -0.133930 0.051278 -0.060344 0.009429 0.024950 0.019166 -0.013481 -0.039129 -0.183092 -0.038416 0.014803 0.092577 -0.008884 0.017633 -0.011028 -0.177064 -0.027169 -0.117440 0.148249 -0.121906 0.127717 -0.055390 -0.167488 0.018323 -0.043074 -0.058185 0.069186 0.103035 -0.317877 0.014756 0.122440 -0.188520
document 0.074303 -0.064234 0.120833 -0.075410 0.045083 -0.030357 -0.005688 -0.001680 0.020647 -0.040225 0.132160 0.119293 -0.010256 -0.049182 -0.007510 0.033452 0.072734 0.031513 0.040057 0.125329 0.071329 -0.055238 -0.078950 -0.020036 -0.101934 0.010797 -0.013985 0.066421 0.058873 0.073783 -0.002966 -0.015759 0.112412 -0.055181 -0.031373 -0.023507 0.040018 0.023854 -0.012580 -0.087879 0.001360 0.054210 0.041376 0.031158 0.022601 0.016523 -0.025584 0.026136 0.037933 -0.021892
incident -0.029173 -0.004765 -0.067795 0.198183 0.036569 -0.204311 -0.072121 -0.227669 0.029897 -0.045226 -0.103594 -0.194908 -0.193795 0.055228 -0.022972 -0.140485 -0.033449 -0.187319 -0.009221 -0.063837 -0.061510 0.091534 0.074236 -0.136442 0.092505 0.005196 0.132043 0.039214 0.112800 -0.035104 -0.111694 -0.019695 -0.014113 0.243950 0.068570 0.114962 -0.032707 0.010816 -0.202275 0.076215 0.186526 0.018431 0.020934 0.116461 -0.042400 -0.171097 0.262908 -0.067513 -0.169515 0.138166
incidents -0.191448 0.044467 -0.138359 0.132600 -0.072888 -0.101606 0.003803 -0.114982 0.108315 0.090470 -0.163292 -0.384618 -0.080200 0.146982 0.101298 -0.140969 -0.008806 -0.163652 -0.174213 -0.081315 -0.145913 0.129249 0.152287 -0.097999 0.233381 0.011740 0.159321 -0.030181 0.130706 -0.014177 -0.068158 -0.069050 -0.118702 0.131940 0.020201 0.077588 0.025925 -0.163386 -0.209214 0.080844 0.065191 -0.083248 -0.005941 0.104761 -0.076748 -0.030031 0.135653 -0.120502 -0.179226 0.110432
networks -0.013506 0.153006 -0.269172 0.295786 0.022294 -0.101964 -0.082139 -0.174549 0.129840 0.004996 -0.190172 -0.132822 -0.170612 -0.025416 0.149954 -0.120240 -0.217258 -0.043104 0.068832 -0.208662 -0.078991 0.107829 0.193554 0.098269 0.101684 -0.048193 0.074525 -0.147709 -0.159929 -0.102042 -0.036844 0.055112 -0.024941 0.272436 0.061462 0.073192 -0.106570 0.097547 -0.164073 0.113958 0.136568 -0.062658 -0.080375 0.094673 -0.108508 -0.145935 0.282260 -0.025967 -0.153979 0.179121
notification 0.161690 -0.073071 0.171072 -0.142960 -0.013318 0.078268 0.037245 0.068291 -0.122939 -0.103999 0.136625 0.280541 0.020417 -0.049632 -0.124381 0.090694 0.035785 0.077012 0.181104 0.084764 0.163184 -0.154537 -0.183503 0.028137 -0.242914 0.031639 -0.079364 0.100168 0.002834 0.003348 0.033954 0.016964 0.049144 -0.125553 -0.018242 -0.051163 -0.014158 0.089485 0.179036 -0.018618 -0.042041 0.087463 0.047872 -0.033417 0.088681 0.003448 -0.076415 0.131877 0.121273 -0.076198
open -0.118747 -0.021666 -0.061597 0.200842 -0.035348 -0.146605 -0.036132 -0.115498 -0.021404 0.011474 -0.117130 -0.164358 -0.206779 0.093081 -0.065053 -0.121996 0.015859 -0.136725 -0.000441 -0.123968 -0.048846 0.113939 0.030109 -0.108774 0.116453 -0.032125 0.140036 -0.022952 -0.013009 -0.127417 -0.057258 0.028367 -0.085457 0.159726 0.103487 0.245221 -0.058522 0.035631 -0.096038 0.208860 0.161765 -0.060530 -0.041132 0.071439 -0.064000 -0.108692 0.170041 -0.016291 -0.143634 0.188273
report 0.058199 -0.117868 0.148257 -0.240408 0.007262 0.015970 0.128837 0.134509 0.049563 0.022456 0.143592 -0.023254 0.151290 0.003580 0.059887 0.060047 0.041801 -0.048690 -0.062926 0.203812 -0.020488 -0.112485 -0.029090 -0.051873 -0.060598 0.026212 -0.081413 0.096363 0.204676 0.217990 -0.029407 -0.166166 0.116406 -0.111373 -0.103635 -0.284034 0.143734 -0.154977 -0.048599 -0.176731 -0.070596 0.007384 0.044902 0.031747 0.145948 0.075346 -0.202840 -0.031809 0.063257 -0.160452
same 0.018939 -0.083036 0.046293 0.030567 -0.108603 -0.023621 0.013380 -0.025123 -0.158181 -0.107642 -0.005893 0.092010 -0.121178 0.021710 -0.256491 0.007604 0.019165 -0.018838 0.137935 -0.035623 0.101974 -0.073280 -0.138815 -0.139525 -0.095210 0.031241 -0.021950 0.124666 0.068977 -0.063047 -0.041099 -0.005033 -0.099990 0.008981 0.042743 0.058363 -0.025845 0.038276 0.101082 0.120785 0.048768 0.050964 -0.012017 0.006827 0.067158 -0.138920 0.035594 0.057926 0.020556 0.012345
them -0.087737 0.079897 -0.113232 0.194106 -0.033702 -0.018427 0.024288 0.031235 -0.064419 0.053012 -0.099156 -0.045539 -0.104542 0.001228 0.013081 -0.043608 0.022770 -0.023826 -0.027792 -0.227833 -0.021929 0.125010 0.045230 -0.004063 0.082482 -0.112839 -0.001244 -0.117825 -0.161200 -0.157422 0.004780 0.124008 -0.118288 0.073823 0.061744 0.230334 -0.060680 0.036407 0.018411 0.267930 0.022775 -0.065841 -0.162604 0.013984 -0.061282 -0.035742 -0.019975 0.017377 -0.043534 0.108266
according -0.135062 0.076654 -0.116798 0.080197 0.021139 -0.023357 0.014372 0.048544 0.106345 0.106807 -0.030913 -0.187638 -0.006722 0.059607 0.146025 -0.115098 0.071937 -0.036830 -0.173806 -0.116854 -0.140786 0.183262 0.115769 0.012402 0.139194 -0.045833 0.013431 -0.121969 -0.011002 -0.003259 -0.052122 0.020473 -0.020869 0.017235 -0.005494 0.073555 0.101284 -0.133434 -0.072260 0.102921 0.003657 -0.090383 -0.058907 0.074701 -0.045879 0.050683 -0.031739 -0.085389 -0.050336 0.018976
adds 0.028855 -0.063977 0.068448 -0.018066 0.025825 -0.074443 0.021591 -0.064826 -0.090652 -0.073120 0.035337 0.046263 -0.071112 -0.043298 -0.130709 -0.031935 0.002869 0.023980 0.119280 0.004776 0.076117 -0.061597 -0.107457 -0.086953 -0.084926 -0.039888 -0.058900 0.070574 0.093666 -0.014787 -0.031423 0.012983 -0.025606 0.032689 0.034256 0.070825 0.003838 0.054252 0.044594 0.093745 0.051528 0.065088 -0.028720 -0.013670 0.047806 -0.088381 -0.038372 0.041385 -0.002334 0.067616
closed -0.015903 -0.090169 -0.027648 0.107107 -0.032502 -0.032035 -0.040505 -0.034154 -0.074799 -0.051506 -0.045719 -0.088988 -0.080604 0.065486 -0.058883 -0.016224 0.036453 -0.131297 -0.009857 -0.050333 -0.026185 0.071637 0.006211 -0.035170 -0.018695 0.021665 0.051022 0.050483 0.057555 -0.054096 -0.021057 -0.008068 -0.052173 0.080612 0.027433 0.096713 -0.027336 -0.009469 -0.011767 0.096229 0.089847 -0.010854 -0.006958 0.007193 -0.050354 -0.058652 0.119087 -0.038152 -0.043662 0.050370
created -0.028390 -0.036656 0.028562 0.048017 -0.007932 -0.023844 0.023211 0.025079 -0.017599 0.004895 -0.033636 -0.039773 -0.017088 0.028103 -0.011570 0.025070 0.041291 -0.066581 -0.068929 -0.002912 -0.021992 0.006235 0.008274 0.020054 0.032441 -0.001653 0.048013 0.007436 -0.019792 -0.021375 0.030621 0.004916 -0.028490 -0.009178 0.005127 0.097364 -0.031782 -0.009485 0.020332 0.004437 0.009860 -0.029043 0.012191 -0.036045 -0.057937 0.045139 0.028168 -0.005684 -0.007612 0.037365
device -0.111560 -0.162989 0.062523 -0.072879 -0.149866 -0.052837 0.114850 -0.022161 -0.203683 -0.033635 -0.001066 -0.291467 -0.061748 0.252524 -0.216952 -0.000191 0.057614 -0.154215 -0.020346 0.042285 -0.023698 -0.079684 -0.106946 -0.174546 0.040238 0.062522 0.039445 0.126959 0.337191 0.051512 -0.062220 -0.187687 -0.219756 0.065971 0.069229 0.040397 0.037740 -0.160331 -0.080124 0.145788 0.089515 -0.016459 -0.048145 -0.055044 0.101060 -0.047046 0.052747 -0.065964 -0.110132 0.086862
distribution -0.112927 -0.026466 -0.109772 0.361932 0.019442 -0.361147 -0.033583 -0.288977 0.145389 -0.002912 -0.257144 -0.508205 -0.328262 0.150150 0.089730 -0.260971 -0.097403 -0.400630 -0.103266 -0.083256 -0.160987 0.124206 0.169182 -0.124413 0.228220 0.028481 0.189937 -0.043083 0.216300 -0.038535 -0.222231 -0.086987 -0.001301 0.355912 0.069403 0.193863 0.017616 -0.085624 -0.406801 0.135874 0.276288 -0.153894 -0.049738 0.219038 -0.088187 -0.203863 0.331732 -0.157047 -0.324768 0.285316
important -0.027707 0.060414 -0.095358 0.255531 -0.005149 0.014324 -0.068090 -0.081233 -0.079835 -0.049746 -0.182550 0.049480 -0.067296 -0.054751 -0.060131 0.004748 0.018831 -0.009746 -0.015965 -0.104107 -0.002785 0.116487 0.016871 -0.046503 0.071447 0.007810 0.049583 0.017599 -0.138124 -0.184687 0.072867 0.091312 -0.062087 0.089169 0.017175 0.214135 -0.143326 0.092979 0.085115 0.119126 0.062147 -0.027285 0.005493 -0.051098 -0.127972 -0.061433 0.119912 -0.032962 0.074470 0.067769
make -0.104759 0.034125 -0.100643 0.181695 0.003290 -0.168660 -0.113079 -0.161181 0.055811 0.066333 -0.140098 -0.283554 -0.103389 0.104931 0.094876 -0.119780 -0.027274 -0.224259 -0.057753 -0.098047 -0.059651 0.143067 0.153875 -0.050586 0.134665 0.015741 0.198605 -0.061865 0.035692 -0.006674 -0.086672 -0.036528 0.035745 0.186966 0.047882 0.079822 -0.031052 -0.035934 -0.186385 0.074383 0.167374 -0.049867 -0.017343 0.109815 -0.063729 -0.053264 0.231203 -0.142683 -0.189554 0.165317
matching -0.158558 -0.079814 -0.029821 0.214484 -0.002920 -0.312430 0.036184 -0.176448 0.033881 0.002989 -0.122568 -0.260141 -0.293530 0.102100 -0.090082 -0.163441 -0.022994 -0.154949 -0.008234 -0.031845 -0.106318 0.046509 0.066641 -0.194415 0.181740 -0.092715 0.212822 0.023176 0.070376 -0.082040 -0.120285 -0.020824 -0.100383 0.241303 0.176784 0.307467 -0.033689 0.025438 -0.239137 0.170108 0.240526 -0.163941 0.003149 0.147688 -0.085707 -0.156402 0.151553 -0.064463 -0.306571 0.283035
method 0.060240 0.026915 -0.010410 -0.012237 -0.067193 0.066375 -0.055635 0.020021 -0.125991 -0.068783 0.004013 0.193944 -0.000748 -0.022726 -0.166559 0.013064 -0.012190 0.065948 0.176755 -0.079259 0.118304 -0.025017 -0.134411 -0.001250 -0.107008 0.011173 -0.028116 0.021888 -0.079276 -0.068723 0.031391 0.057449 -0.067602 -0.048598 0.024523 0.027723 -0.088187 0.107429 0.151236 0.127843 0.019668 0.090688 -0.037808 -0.027962 0.056775 -0.068753 0.036442 0.087293 0.070223 -0.000150
more -0.114224 -0.035710 -0.067596 0.136130 -0.101061 -0.166687 0.038231 -0.114495 -0.045641 0.049247 -0.086594 -0.487408 -0.103966 0.228131 -0.042018 -0.087767 0.024755 -0.288748 -0.108564 -0.027207 -0.110642 0.107888 0.091841 -0.180659 0.230722 0.031425 0.126428 -0.018402 0.240185 0.019632 -0.078747 -0.163857 -0.175997 0.181531 0.161672 0.121334 0.018962 -0.195264 -0.193886 0.119560 0.208332 -0.055750 -0.108549 0.042413 0.063370 -0.016901 0.159593 -0.146299 -0.300582 0.208322
municipal -0.097530 -0.010106 -0.082325 0.225477 -0.045571 -0.251558 -0.020123 -0.255620 0.009426 0.014767 -0.186092 -0.357062 -0.253304 0.123493 -0.007582 -0.198295 -0.072468 -0.296874 -0.035670 -0.107275 -0.057083 0.088697 0.091075 -0.130626 0.110727 0.037163 0.163724 -0.042176 0.188204 -0.039881 -0.148411 -0.080021 -0.055008 0.284814 0.071351 0.137151 -0.011385 -0.040495 -0.270477 0.160199 0.230333 -0.048358 -0.024880 0.184425 -0.042941 -0.180110 0.271417 -0.100020 -0.254691 0.204789
necessary -0.056405 -0.023186 -0.074079 0.112179 -0.063618 -0.039713 0.008934 0.004063 -0.110482 -0.049633 -0.042401 -0.032365 -0.130821 0.026000 -0.118952 -0.059258 0.018765 -0.053476 0.008714 -0.154827 0.004478 0.092209 -0.006175 -0.137565 0.000563 -0.017377 -0.055861 -0.001357 0.014349 -0.121727 -0.067609 0.080077 -0.127370 0.072092 0.042821 0.136429 -0.020213 0.035823 0.043772 0.237625 0.047311 0.017331 -0.105631 0.026083 0.043560 -0.095807 0.006107 0.072225 -0.041151 0.054013
number 0.051387 -0.090032 0.083625 -0.027881 0.032821 -0.141498 0.011694 -0.097260 -0.039842 -0.071973 0.104556 -0.040749 -0.091093 0.029750 -0.115125 -0.105841 0.030070 -0.060056 0.103301 0.028999 0.035970 -0.061583 -0.060547 -0.102265 -0.085902 0.007798 -0.016433 0.102513 0.198747 0.060043 -0.139341 -0.056899 0.009645 0.090119 0.052371 0.001927 0.054474 -0.034292 -0.064576 0.036624 0.127772 0.082108 -0.007209 0.088321 0.074911 -0.090296 0.041782 -0.002973 -0.088847 0.086336
one -0.020037 -0.089394 0.059653 -0.000784 -0.066365 -0.085444 0.096943 -0.025547 -0.086328 -0.027788 0.014283 -0.191745 -0.084589 0.109340 -0.141612 -0.046222 0.066034 -0.158337 -0.010337 0.062071 -0.002823 -0.027571 -0.057616 -0.171118 0.040654 0.037785 0.041622 0.091516 0.223647 0.034485 -0.084902 -0.113657 -0.095706 0.058250 0.087006 0.049146 0.038783 -0.125577 -0.072118 0.059742 0.114309 0.008955 -0.026222 0.037812 0.087828 -0.018816 0.035276 -0.056661 -0.151680 0.087747
ot -0.086384 -0.036385 -0.093620 0.245822 0.034111 -0.186056 -0.070323 -0.215850 0.096958 -0.014622 -0.207448 -0.268277 -0.131617 0.065950 0.053821 -0.080561 0.029189 -0.260790 -0.170605 -0.022984 -0.134452 0.137522 0.123627 -0.083980 0.150322 0.032156 0.179707 0.026168 0.082961 -0.065553 -0.034265 -0.037523 0.039738 0.247241 0.026074 0.106140 -0.023134 -0.030237 -0.221732 0.012276 0.185952 -0.085363 0.062774 0.083921 -0.113451 -0.102276 0.245724 -0.172975 -0.118919 0.144843
registered 0.015261 0.020698 -0.028001 0.263429 -0.203201 0.147925 -0.048710 -0.069104 -0.226173 -0.106260 -0.201993 0.115418 -0.103512 0.039989 -0.389957 0.021025 0.020125 -0.047503 0.150646 -0.233391 0.073433 0.047401 -0.148487 -0.093702 -0.022690 0.083906 0.051237 0.098507 -0.180032 -0.275209 0.078846 0.115179 -0.247485 0.018936 0.087178 0.243379 -0.209845 0.132178 0.302888 0.323599 0.059335 0.050147 -0.061505 -0.079946 -0.040360 -0.174253 0.219687 0.068675 0.096449 0.092647
so -0.128214 0.012090 -0.051030 0.230395 -0.140871 0.015580 -0.027743 -0.051945 -0.137068 -0.029177 -0.222096 -0.102939 -0.120568 0.090523 -0.184651 0.002660 0.041809 -0.104647 0.050177 -0.103867 0.004900 0.044106 -0.005196 -0.137694 0.127159 0.004077 0.119183 0.046611 -0.060780 -0.196416 0.021647 -0.004872 -0.216164 0.087955 0.074239 0.293218 -0.122837 0.002109 0.107293 0.209003 0.118946 -0.028689 -0.046028 -0.055842 -0.081049 -0.102225 0.159739 -0.083648 -0.062019 0.126748
technology -0.108436 -0.031137 -0.076565 0.073920 -0.054667 -0.046616 -0.003842 -0.033378 0.055749 0.028208 -0.111166 -0.296795 -0.050319 0.115214 0.065846 -0.085995 0.062983 -0.219560 -0.143713 -0.025247 -0.211274 0.076229 0.116069 -0.130724 0.157910 0.028947 -0.006284 0.038433 0.183577 0.022062 -0.099966 -0.043344 -0.031034 0.163057 0.035812 -0.054077 0.051673 -0.149430 -0.136084 0.070154 0.087714 -0.060048 -0.036481 0.046530 0.020631 -0.056625 0.010714 -0.172487 -0.023410 0.068755
they -0.055041 -0.022463 0.004198 0.253597 0.051952 -0.170946 -0.031650 -0.205283 0.103151 0.029410 -0.149857 -0.096747 -0.101273 0.035214 -0.019089 -0.018909 -0.042703 -0.123017 -0.022586 -0.000917 -0.012890 -0.015267 0.025204 -0.019691 0.131151 -0.035842 0.182889 -0.024077 -0.046604 -0.073509 0.020084 -0.042823 -0.039389 0.134828 0.076742 0.207005 -0.033890 0.062346 -0.082181 0.016592 0.166832 -0.077781 0.058378 0.057420 -0.137020 -0.091462 0.172045 -0.067167 -0.162894 0.184623
up -0.009665 0.077415 -0.020552 0.144170 0.041957 -0.107438 -0.046320 -0.178846 0.148996 0.008267 -0.086840 -0.090818 -0.044016 -0.052607 0.095976 -0.043888 -0.069831 -0.069726 0.011427 0.009101 -0.044238 0.031345 0.126898 0.007279 0.060356 0.016004 0.089219 -0.039657 -0.013933 0.005579 -0.012054 -0.026104 0.082328 0.116712 0.048534 0.036358 -0.048766 0.002225 -0.146539 -0.026777 0.128562 -0.072659 0.021265 0.099320 -0.071127 -0.049795 0.131476 -0.103259 -0.118615 0.101400
users -0.108477 0.113080 -0.251768 0.275712 -0.005134 -0.174712 -0.034760 -0.128144 0.137683 0.027253 -0.178097 -0.249573 -0.180310 0.047560 0.106388 -0.152171 -0.083125 -0.167080 -0.094594 -0.205974 -0.149927 0.164443 0.182222 -0.024216 0.174380 -0.016337 0.094723 -0.121869 -0.036944 -0.092239 -0.095580 0.045751 -0.061347 0.239301 0.029762 0.129484 -0.029893 -0.015506 -0.206009 0.143177 0.094063 -0.116480 -0.088274 0.110772 -0.073811 -0.111331 0.178285 -0.046796 -0.189664 0.141244
web -0.078908 -0.024242 -0.016524 -0.003415 -0.045035 -0.124792 0.062215 -0.039883 -0.083536 0.017722 -0.056427 -0.264724 -0.039633 0.200010 0.008237 -0.036470 0.051502 -0.160979 -0.046480 -0.061513 -0.057017 -0.002573 -0.016351 -0.112900 0.082419 0.000794 0.097965 0.023151 0.154871 0.034799 -0.062106 -0.082709 -0.146186 0.094767 -0.005005 0.024899 -0.004231 -0.109595 -0.073579 0.120862 0.062356 -0.076139 -0.082978 0.022604 0.054889 -0.043947 0.020703 -0.024164 -0.086912 0.060620
who -0.029078 0.052568 -0.106156 0.139555 -0.021806 -0.065325 -0.043075 -0.107858 0.004151 -0.020956 -0.095344 -0.058576 -0.101656 0.032157 -0.057004 -0.087950 0.002579 -0.079875 -0.003025 -0.118681 -0.009236 0.066481 0.013390 -0.065417 0.035876 0.018458 0.050923 -0.016312 -0.018991 -0.101146 -0.026379 0.019380 -0.062471 0.114562 0.040056 0.083280 -0.037972 0.036408 -0.061974 0.126872 0.073325 0.008132 -0.018474 0.076990 -0.013578 -0.093728 0.162708 -0.002691 -0.075718 0.059317
aborts -0.019553 -0.048413 0.096951 -0.027744 0.105526 -0.123773 0.090718 -0.104496 0.099669 0.010099 -0.007638 -0.089040 0.030671 -0.021637 0.045333 0.040695 0.007227 -0.002604 -0.075726 0.220914 -0.061234 -0.139104 0.009312 -0.010265 0.073287 -0.037118 0.058679 0.042572 0.098230 0.126706 0.011715 -0.095948 0.050320 -0.002500 0.014323 0.000897 0.065535 -0.001977 -0.090663 -0.169630 0.024584 -0.093893 0.123283 0.012838 -0.037632 0.006117 -0.056569 -0.114350 -0.059474 0.057440
about -0.003065 -0.046386 0.044359 -0.023868 -0.055231 0.038310 0.050239 0.006028 -0.144588 -0.076318 0.047971 0.101261 -0.122992 -0.012612 -0.188645 -0.030268 0.023768 0.050826 0.101161 -0.053572 0.089611 -0.036578 -0.099123 -0.122096 -0.104048 -0.000915 -0.093204 0.067186 0.013677 -0.093863 -0.044948 0.070042 -0.087300 -0.023275 0.042348 0.096545 -0.015116 0.030674 0.088546 0.117087 -0.008722 0.061169 -0.061147 -0.035446 0.055817 -0.071042 -0.015769 0.103224 0.002117 -0.010021
asks 0.024708 -0.102567 0.122666 -0.141606 -0.066326 0.052028 0.094834 0.114002 -0.139512 -0.069824 0.156922 0.047291 -0.030764 0.033424 -0.122847 -0.007807 0.114212 0.041432 0.099202 0.016065 0.070600 -0.101351 -0.146232 -0.118683 -0.140895 0.012803 -0.109208 0.114555 0.131705 0.070970 -0.082519 -0.037936 -0.038309 -0.060184 0.038967 -0.013439 0.053482 -0.058349 0.068348 0.096867 0.004246 0.057218 -0.055999 -0.017135 0.141189 -0.017463 -0.119791 0.045330 0.049655 -0.036356
at -0.039263 0.031462 -0.073340 0.169478 0.042402 -0.167901 -0.046366 -0.145366 0.049645 -0.028163 -0.086201 -0.136442 -0.153261 0.014774 0.016314 -0.104880 -0.036359 -0.098169 -0.009435 -0.061710 -0.047384 0.066524 0.084910 -0.040732 0.065576 -0.015251 0.080347 -0.045065 0.022988 -0.034987 -0.079076 0.003774 0.022586 0.170413 0.045682 0.120920 -0.015120 0.027549 -0.147366 0.054174 0.122799 -0.022265 0.002589 0.100864 -0.052747 -0.104567 0.149688 -0.033284 -0.155765 0.133071
automatically -0.002438 -0.026258 0.017422 0.073765 0.001053 -0.004730 -0.023322 -0.051366 -0.049610 -0.030035 -0.065200 -0.005445 -0.001317 -0.010334 -0.086953 0.016703 -0.016464 -0.034535 -0.001660 0.019272 -0.004967 -0.014926 -0.015652 -0.033174 -0.006261 0.002752 0.056862 0.040711 0.003123 -0.039220 0.039681 -0.011438 -0.016760 0.030367 0.031358 0.055464 -0.024135 0.026109 0.021917 0.013789 0.036228 -0.002638 0.034993 -0.010630 -0.021298 -0.033415 0.042996 -0.034096 0.017518 0.021977
back -0.215830 -0.021143 -0.138310 0.189288 -0.047539 -0.169741 -0.082131 -0.093907 0.095774 0.056461 -0.128754 -0.484726 -0.175647 0.235781 0.048139 -0.251856 0.075512 -0.380191 -0.240158 -0.161959 -0.229860 0.211523 0.211171 -0.132546 0.231117 0.033852 0.151131 -0.043383 0.167289 -0.070400 -0.181609 -0.017830 -0.081701 0.207973 -0.000283 0.169939 0.063490 -0.204567 -0.247590 0.144378 0.199266 -0.064069 -0.070256 0.143958 -0.024244 -0.087094 0.170629 -0.160888 -0.256188 0.152642
being -0.081024 -0.049422 -0.053573 0.043294 0.010205 -0.093943 0.002536 -0.039042 0.025174 0.058168 -0.036029 -0.273720 -0.076018 0.095817 0.087268 -0.122096 0.020569 -0.189310 -0.135449 -0.016118 -0.112235 0.074170 0.086149 -0.075094 0.114444 -0.006067 0.064719 -0.023333 0.147260 0.044561 -0.095322 -0.059778 -0.023120 0.101633 0.001628 -0.005810 0.032908 -0.144556 -0.175165 0.020987 0.087335 -0.036135 -0.014996 0.066299 0.007787 0.000569 0.023412 -0.074220 -0.138404 0.071849
but -0.162000 -0.055339 -0.105263 0.173810 -0.039915 -0.194400 -0.008319 -0.184703 0.009012 -0.005061 -0.161675 -0.369273 -0.212498 0.193994 -0.073098 -0.148485 0.038457 -0.269219 -0.135299 -0.094255 -0.098684 0.100087 0.101999 -0.210978 0.202814 0.007736 0.146489 0.035338 0.177197 -0.087978 -0.128928 -0.033016 -0.098762 0.219381 0.025692 0.183388 -0.003557 -0.112541 -0.225971 0.184878 0.156949 -0.055715 -0.076055 0.105022 -0.006440 -0.106814 0.202479 -0.086070 -0.205422 0.177838
cancels -0.018416 -0.082115 0.046876 -0.094342 0.010433 -0.083838 0.086809 -0.046259 -0.036294 -0.006374 0.071874 -0.097476 -0.029829 0.022557 -0.037774 -0.028459 0.038023 0.003630 0.032202 0.075832 -0.006771 -0.060860 -0.068541 -0.130639 -0.022136 -0.044964 -0.026144 0.056114 0.174274 0.081288 -0.099275 -0.072011 -0.022183 0.035924 0.040355 -0.009358 0.093921 -0.055788 -0.079008 0.025932 0.044932 -0.022895 0.011716 0.040891 0.107604 -0.059183 -0.075030 -0.032323 -0.067916 0.020365
carried -0.115984 0.008948 -0.052505 0.220390 0.035452 -0.255531 -0.025482 -0.213403 0.205567 0.026097 -0.175338 -0.340099 -0.055039 0.084275 0.097549 -0.160722 0.063493 -0.280073 -0.173213 0.027333 -0.171807 0.105042 0.130437 -0.056990 0.166243 -0.005521 0.152155 0.012926 0.183140 -0.032265 -0.104185 -0.097714 0.051224 0.228282 0.056656 0.105768 0.062339 -0.106806 -0.241914 0.061470 0.191142 -0.111768 0.079194 0.153816 -0.061411 -0.104614 0.288334 -0.165019 -0.169005 0.203522
handling 0.053102 0.090207 -0.084084 -0.033038 0.090792 0.006543 -0.074959 -0.009408 0.121040 0.063052 0.033520 0.029196 0.077786 -0.055368 0.180629 0.004219 -0.108007 0.057533 0.015976 0.003641 -0.031346 0.036425 0.092877 0.133439 0.011947 -0.026752 0.012034 -0.083014 -0.091893 0.075527 0.011083 -0.003548 0.121900 0.028755 -0.047146 -0.126421 0.012737 0.031978 -0.078193 -0.142243 -0.011168 0.007617 0.048655 0.046524 -0.043339 0.015137 0.029526 -0.007556 -0.019637 -0.037849
he -0.102773 -0.081165 -0.049643 0.175800 -0.018182 -0.239457 -0.048353 -0.172833 0.057843 0.023197 -0.150382 -0.389199 -0.181524 0.148723 0.015930 -0.122893 -0.008916 -0.308042 -0.108648 -0.019720 -0.157313 0.122526 0.097940 -0.171420 0.166888 0.035579 0.130755 0.019705 0.219255 -0.022804 -0.155559 -0.106091 -0.046307 0.268623 0.067268 0.056484 0.022357 -0.113162 -0.294852 0.139170 0.152542 -0.061295 -0.048604 0.134980 0.001721 -0.136469 0.238583 -0.124255 -0.227246 0.166441
interface -0.101477 -0.131353 0.003768 0.175708 0.010924 -0.279592 0.030319 -0.169032 -0.003774 -0.014235 -0.134716 -0.416845 -0.222031 0.195241 -0.055757 -0.190639 0.022013 -0.324251 -0.076452 -0.040728 -0.114286 0.038561 0.001072 -0.219014 0.143662 0.023126 0.130127 0.072613 0.271427 -0.000580 -0.167639 -0.115042 -0.031054 0.248077 0.087502 0.192887 0.062379 -0.140410 -0.223820 0.165028 0.254662 -0.064861 -0.062525 0.175741 -0.000996 -0.101855 0.192794 -0.111592 -0.256222 0.218425
materials -0.028375 -0.111932 0.017251 0.276588 -0.104388 -0.198360 -0.142298 -0.096569 0.064685 -0.130693 -0.092394 -0.524922 -0.355545 0.132846 -0.094675 -0.171164 0.124455 -0.329311 0.025868 0.004340 -0.212366 0.082254 0.054590 -0.139223 0.134560 0.099609 0.118365 0.154712 0.264729 0.107869 -0.381540 -0.135565 -0.009014 0.313911 0.199494 0.149355 0.080633 -0.193293 -0.196491 0.227737 0.301542 -0.097363 -0.041967 0.216908 -0.004351 -0.306149 0.335083 -0.160269 -0.230515 0.161835
modification -0.045253 0.027462 -0.131233 0.039352 0.009815 -0.072364 -0.016799 -0.090194 0.030077 0.038615 -0.026688 -0.166531 -0.068607 0.042856 0.074335 -0.078002 -0.037971 -0.042203 -0.009185 -0.065428 -0.058772 0.066280 0.065115 -0.045071 0.061465 -0.043655 0.046483 -0.058053 0.036138 -0.012180 -0.102959 0.007288 -0.010957 0.119295 0.042039 0.036356 0.017867 -0.034742 -0.143929 0.061922 0.046839 -0.029453 -0.026192 0.076770 0.016786 -0.055575 0.073883 -0.024849 -0.120489 0.080493
modified -0.026691 -0.086330 0.028475 0.005104 -0.109501 0.020649 0.028783 -0.013206 -0.175124 -0.059964 -0.001751 -0.051149 -0.079202 0.080324 -0.167755 -0.014609 0.022393 -0.043082 0.096513 -0.053038 0.038152 -0.018012 -0.110311 -0.131322 -0.043065 -0.005440 -0.039538 0.093028 0.095708 -0.028948 -0.042782 -0.010191 -0.131572 0.046910 0.074667 0.048553 -0.037578 -0.027398 0.010767 0.198237 0.064801 0.035623 -0.091945 -0.027626 0.083591 -0.082121 0.025579 0.009414 -0.045038 0.046697
office -0.010223 0.036742 -0.090058 0.216054 -0.008939 -0.097308 -0.067779 -0.127201 -0.016629 -0.028365 -0.149570 -0.130230 -0.171922 0.054555 -0.057927 -0.100510 -0.040807 -0.146455 0.037262 -0.148019 -0.068635 0.058308 0.034679 -0.035023 0.078377 0.013259 0.076057 -0.010060 -0.028876 -0.110676 -0.077284 0.044339 -0.053509 0.138205 0.046060 0.152173 -0.081875 0.056114 -0.056605 0.152333 0.131558 -0.039309 -0.047311 0.080585 -0.047281 -0.123838 0.171381 -0.002832 -0.106666 0.129254
only -0.156588 -0.064369 -0.075462 0.170201 -0.041856 -0.237635 -0.045122 -0.151962 0.051445 0.086494 -0.133100 -0.475254 -0.145794 0.213185 0.097984 -0.164244 0.023920 -0.338231 -0.145661 -0.072796 -0.141986 0.146270 0.144769 -0.129908 0.212800 0.029899 0.221030 -0.013619 0.187383 0.042780 -0.137859 -0.104536 -0.006294 0.233535 0.078491 0.087617 0.018260 -0.139767 -0.277070 0.113308 0.216208 -0.094098 -0.032757 0.131895 -0.040889 -0.037984 0.213065 -0.197518 -0.275810 0.209773
potentially -0.137296 -0.101121 -0.025398 0.234052 -0.056887 -0.270492 0.002286 -0.170692 -0.030576 -0.022474 -0.134056 -0.353609 -0.317125 0.157312 -0.108569 -0.190853 0.003600 -0.257792 -0.001625 -0.070181 -0.083232 0.070737 0.027076 -0.238412 0.172300 -0.014320 0.197882 0.055020 0.181796 -0.060613 -0.178519 -0.072578 -0.135772 0.275970 0.156632 0.251770 -0.047072 -0.032036 -0.259223 0.244813 0.273110 -0.122031 -0.029524 0.187633 -0.015679 -0.173398 0.206834 -0.075480 -0.286970 0.265237
produced 0.068600 0.037238 -0.033138 0.006767 -0.077812 0.092016 -0.052067 -0.026402 -0.090341 -0.031517 -0.037578 0.124226 0.031400 0.016901 -0.124880 0.028130 -0.075212 0.009959 0.134330 -0.065045 0.104383 -0.003191 -0.045939 0.007538 -0.080626 0.049654 0.011215 0.048012 -0.046324 -0.042577 0.034766 -0.006712 -0.051079 0.001889 0.028448 -0.070987 -0.057150 0.037408 0.084547 0.081299 0.051485 0.058370 0.036555 0.023477 0.035573 -0.088000 0.051117 0.041333 0.027444 0.008897
responsible -0.041823 -0.005010 -0.057492 0.132107 0.004965 -0.117888 -0.011338 -0.078692 0.039381 -0.003704 -0.036202 -0.198818 -0.163173 0.061438 0.036102 -0.095441 0.014110 -0.123983 0.006617 -0.017221 -0.091254 0.048153 0.058318 -0.029986 0.071633 0.017526 0.085198 0.012727 0.067805 0.036556 -0.137443 -0.076654 0.000425 0.172214 0.072438 0.066077 -0.005440 -0.014426 -0.185089 0.076428 0.135465 -0.077313 -0.012421 0.105096 -0.000386 -0.053608 0.143088 -0.092091 -0.120784 0.145173
should -0.216073 -0.118885 -0.008308 0.008984 -0.205612 0.047010 0.079729 0.035086 -0.247096 0.058996 -0.094755 -0.383899 -0.018992 0.280184 -0.126460 -0.009676 0.072055 -0.183680 -0.059232 -0.154819 -0.104654 0.079834 -0.031365 -0.122270 0.162027 0.024456 0.076118 0.004408 0.131426 -0.048093 -0.001764 -0.105831 -0.339175 0.028088 0.119221 0.127650 -0.051066 -0.162762 0.003397 0.288903 0.062091 -0.056161 -0.165805 -0.107880 0.041794 0.030224 0.001029 -0.061501 -0.113627 0.112396
such -0.010095 -0.067297 0.045445 -0.138496 -0.025629 0.010538 0.046765 0.111437 0.017997 0.031568 0.044148 -0.153993 0.065483 0.076092 0.099011 -0.053958 -0.025391 -0.118376 -0.117257 0.043277 -0.108187 -0.022341 0.045548 -0.086136 -0.050375 0.068285 -0.038252 0.003027 0.231335 0.153137 -0.139970 -0.083454 -0.023597 -0.043620 -0.107854 -0.227379 0.166021 -0.189106 -0.086290 -0.099033 -0.050513 0.000992 0.031648 0.167767 0.123664 0.017553 -0.211466 0.010803 0.003809 -0.179362
treatment -0.085738 0.078942 -0.176708 0.310158 0.036567 -0.253059 -0.035733 -0.189303 0.172533 0.014099 -0.179893 -0.339799 -0.200097 0.053796 0.126246 -0.155056 -0.100107 -0.235659 -0.094373 -0.103011 -0.166184 0.130468 0.167670 -0.009764 0.225597 0.007822 0.162088 -0.076725 0.003021 -0.028405 -0.112493 -0.016543 -0.023508 0.322084 0.024944 0.130082 -0.045480 -0.038782 -0.282904 0.093165 0.181457 -0.139526 -0.010392 0.132206 -0.117330 -0.116841 0.251127 -0.090980 -0.240124 0.225388
using -0.182097 0.004366 -0.204322 0.263390 -0.008566 -0.201746 -0.077852 -0.119684 0.128242 0.049044 -0.267220 -0.442267 -0.144019 0.129330 0.123620 -0.140195 0.064128 -0.375936 -0.284467 -0.193188 -0.252520 0.255692 0.191441 -0.143849 0.268230 0.012703 0.133031 -0.073048 0.106648 -0.045915 -0.099626 -0.041400 -0.055084 0.282618 0.005259 0.063623 0.005502 -0.163618 -0.211868 0.143854 0.116680 -0.137577 -0.079342 0.132414 -0.080342 -0.082044 0.233881 -0.183569 -0.127006 0.130336
want -0.204665 0.085834 -0.190677 0.182234 -0.014131 -0.018608 0.010640 0.079621 0.107074 0.114312 -0.154596 -0.275032 -0.028898 0.089113 0.154827 -0.069521 0.095447 -0.117204 -0.244459 -0.233352 -0.214551 0.257917 0.191567 -0.011869 0.226583 -0.044227 0.012484 -0.171302 -0.111479 -0.074707 -0.000638 0.073758 -0.103821 0.083880 0.007539 0.123880 0.027392 -0.132745 -0.027571 0.162434 -0.024026 -0.136274 -0.151607 0.036295 -0.115559 0.039423 -0.007073 -0.114784 -0.017671 0.026485
without -0.032067 -0.048535 -0.047996 0.110562 -0.000532 -0.138437 -0.039556 -0.106377 0.023688 -0.015817 -0.093625 -0.231777 -0.104815 0.098123 -0.018834 -0.092543 0.018635 -0.226485 -0.059741 0.003366 -0.067355 0.043382 0.034081 -0.077385 0.061327 0.024403 0.087978 0.018183 0.169744 0.013990 -0.078907 -0.074522 -0.020480 0.179381 0.037976 0.026557 0.001836 -0.076717 -0.163565 0.057592 0.125790 -0.039398 0.022470 0.082580 -0.014296 -0.080796 0.148836 -0.099755 -0.108286 0.119263
actions -0.060243 0.027494 -0.047897 0.165421 0.020433 -0.149852 -0.032700 -0.100186 0.089245 0.000257 -0.092806 -0.142098 -0.070918 0.022460 0.014104 -0.107295 0.020456 -0.138195 -0.062329 -0.027120 -0.061494 0.078019 0.075955 -0.028174 0.081732 -0.016781 0.076943 -0.016550 0.056222 -0.051803 -0.071143 0.011086 -0.003312 0.133507 0.044052 0.123539 0.011555 -0.008965 -0.084507 0.087277 0.113920 -0.044324 0.004482 0.087841 -0.035945 -0.084855 0.156971 -0.061152 -0.093926 0.132438
adding -0.036157 0.006240 -0.070347 0.062378 0.057965 -0.114023 -0.069359 -0.068853 0.136240 0.027899 -0.038327 -0.223204 0.001257 -0.003586 0.160876 -0.073961 -0.042757 -0.156320 -0.138992 0.027608 -0.146566 0.086352 0.128695 -0.049846 0.136661 0.029568 0.085997 0.001252 0.108933 0.076332 -0.038482 -0.097398 0.057844 0.137930 -0.024634 -0.127570 0.066526 -0.072655 -0.199518 -0.087479 0.063306 -0.066467 0.030698 0.075247 -0.025611 0.002177 0.034657 -0.159545 -0.117379 0.001150
additional -0.023843 -0.015110 -0.038865 0.083565 0.012284 -0.074462 -0.031688 -0.050847 0.043026 -0.038926 -0.043325 -0.075125 -0.089815 0.002107 -0.007933 -0.043200 -0.004981 -0.083160 -0.045313 -0.002616 -0.038835 0.038325 0.034220 -0.040671 0.042503 0.016690 0.035645 -0.002053 0.025180 -0.043635 -0.011672 0.018315 0.010046 0.087862 0.001564 0.063542 -0.027154 -0.010186 -0.060281 0.032370 0.041960 -0.028291 0.002884 0.033921 -0.030828 -0.033064 0.092512 -0.026558 -0.048502 0.071133
address 0.002529 0.081457 -0.108939 0.096163 0.016416 -0.052178 -0.049317 -0.080549 0.038190 -0.015784 -0.070754 0.017526 -0.048932 -0.024110 0.036686 -0.047489 -0.073288 0.008677 0.042372 -0.076426 -0.005539 0.036438 0.069807 -0.008875 0.010281 -0.034401 0.001958 -0.048547 -0.044880 -0.067266 0.003071 0.055225 -0.010715 0.105516 0.008981 0.045104 -0.045102 0.070652 -0.070735 0.061127 0.023249 0.003431 -0.006350 0.048012 -0.024473 -0.062597 0.075790 0.021104 -0.058336 0.047794
among -0.060055 -0.016112 -0.036495 0.075073 0.028732 -0.157236 0.018543 -0.093538 0.043417 0.005208 -0.021660 -0.088665 -0.116098 0.034628 -0.009357 -0.084284 -0.017655 -0.033896 -0.001166 0.014081 -0.028212 0.013309 0.032628 -0.094044 0.061293 -0.060834 0.092495 0.025138 0.048163 0.000706 -0.086527 -0.003807 -0.005203 0.108989 0.078647 0.107696 0.032686 0.003316 -0.130172 0.033236 0.115809 -0.072105 0.006114 0.101458 -0.025948 -0.088276 0.040328 -0.045631 -0.139729 0.119617
appropriate -0.086415 -0.082080 -0.034122 0.161134 -0.038277 -0.161158 -0.059998 -0.121212 -0.053196 -0.048390 -0.094314 -0.272186 -0.225850 0.118840 -0.104309 -0.121214 0.029036 -0.228490 -0.006480 -0.100800 -0.074689 0.095595 0.016468 -0.203545 0.088852 0.030397 0.060290 0.027022 0.167264 -0.085256 -0.147099 -0.048362 -0.097620 0.219044 0.081726 0.149301 -0.032631 -0.040366 -0.168446 0.236953 0.141449 -0.003654 -0.078767 0.096417 0.021227 -0.158911 0.205617 -0.028721 -0.189115 0.171574
area -0.055399 -0.001587 -0.034203 0.160369 -0.014544 -0.169077 -0.035061 -0.171325 0.030614 -0.007855 -0.119127 -0.254555 -0.191800 0.091297 -0.010123 -0.138254 -0.047568 -0.189910 -0.019797 -0.027609 -0.040775 0.036769 0.052428 -0.083330 0.083313 0.041236 0.133464 0.006000 0.127358 -0.006381 -0.108997 -0.062100 -0.002723 0.200977 0.062078 0.089754 0.004682 -0.017541 -0.201350 0.069968 0.158641 -0.028636 0.014186 0.125975 -0.037106 -0.133716 0.203741 -0.092440 -0.168471 0.138578
